-0.5576384048625491,1.233756846425688,0.9873126511764098,-0.769801784717251,-0.11629462054643894,-0.49482675709223994,1.5810965562884927,-0.9189185658944415,-0.009784443332097608,1.1416893439547724,0.26185099352640157,-0.2920559537562139,-2.6255230149262303,-1.2670664711470054,1.5414150452998736,-1.949074194780091,-2.0724420383969004,-0.8578592497336521,0.46265091431567446,-1.6403202991268264,0.49277843168130003,0.07793891537995705,1.1870516246622584,-1.4506942743417421,-0.9011763750903407,1.3239198215050785,0.0028669652992280143,-0.3108645064193324,0.6116780225158309,-0.5636416863010422,0.25725477703215904,-1.1560710029504013,-0.04460541160904043,0.9482223409742434,-0.24164337136378902,-1.03510568724482,0.7397242135581029,1.4898345031954139,0.0016260413304226508,0.01819778500550797,0.11504702661476533,-0.9130846130995389,0.6786860774011525,0.43779777160933503,-0.1172540912289797,0.1687691790359497,0.8826790267164271,1.3124521995460483,-0.3651551865399804,-0.02332417148501479,-0.40373918318872726,0.7696649471605078,2.3828162071156465,-0.060348724982751435,-1.330001137273308,-1.6496476781032912,-1.6037747399639994,-1.408795514429797,-0.533694729362974,0.43903728983161333,0.3357804631165714,-1.0357957893178893,-0.4289599046970178,0.07178466080973915,0.5391828928282651,0.2537314149962494,-1.2365828136710033,-0.31701620681644077,0.26252091400966593,1.4259088376639857,-0.2540223910415076,-0.25461481235848604,-0.8435223281330879,-0.845151676102501,0.32523505336791914,1.6279741193803188,-0.5356439335048749,-0.8405691625358123,0.22596807108717182,0.5346729006222067,0.5684266456762408,3.1563372009280015,0.8609857878797224,2.344438441289221,1.5354827472395338,-1.010852353887415,0.6329237528507307,0.6932462565976671,-0.00594976596123302,1.0029313296144526,1.5137190768583397,-0.16688545598485494,1.1640904248752526,-0.3027124839247525,0.02530111892237925,-2.0013200471432877,0.846642824197311,1.7100406034604068,1.018328726662109,0.4150368880118484,-0.24717282074839184,0.09662676921458109,1.6439747376736766,-1.2920841427864445,-0.26523504671072295,-1.1144741555815043,-1.8388411832861387,-0.3895536760066738,-0.8253333179052765,-2.1605384278963538,-0.16195189723880543,-0.7698484919722267,-1.1475355858760947,-3.1203139140224736,-0.7358570005542407,0.34809872988086044,0.9948220058921823,0.6841670509084544,-0.4763335310529607,-0.7318312443401154,-0.3474803000082744,-1.1548913543934645,-1.7637790682054686,0.538117678662181,-0.4748672480172244,-0.8066832601890636,-0.03483881124423843,-2.008195784721794,-0.33840583634683435,0.3904601393510405,-0.4486825420539378,-1.3326999659377115,0.2547369127181201,0.13289350861867189,0.16572229885647322,-1.6939095364071495,1.175425451944647,0.9874803820159118,-1.0367933246727719,0.5212174359014752,-0.5305763968011502,1.820994014412387,0.07351664438601947,0.01530788478149088,0.6071833706346453,-1.4651773764079212,-1.6859941423439389,0.8863432929055773,0.9533892847281452,1.0336574441405466,-0.4304618598912108,-1.8894272168953825,-2.2485309387360677,0.7573431444017595,-0.8144448431313978,-1.278421365856059,0.4085923345760537,-0.11027286599423343,-0.6917726702317113,0.08704314569596096,-0.41826639957145395,-0.30296400400329837,-2.3051514195505343,-0.37743227123241385,0.5142190933088178,1.403963248224297,0.08946419793436765,-1.5679228962106349,0.5426039096338883,-0.8905237315893065,-0.3878967528457014,-1.6230214895917718,1.2941632133837675,0.41209029896127447,0.6654721080270195,0.35530923813034343,0.7966948918769721,1.0980660247804819,1.387375918183753,-1.3192183828475081,-0.35696718983017267,0.2663154175229907,-0.8145133119190757,0.7430785644463862,-1.449288078523929,-0.10357634003561067,-1.1244174009395111,-0.8811763857223495,-0.9551357469730827,0.7192862460610719,-0.039465224146161715,0.865500527575168,-0.6690211061900754,0.11155023711995105,-0.8343602897369152,-1.43494458629439,1.2070182858423755,-0.7399805756818344,-0.47746595490725613,0.6512656772553005,2.044488644263203,0.9497602218693599,0.7053507023151698,0.29865106207186687,-0.10208453736390391,-0.16594109398950596,0.7059286099041449,-1.1312798636429926,-0.3434013138993875,-0.37912593005173606,-1.2891217487386737,-3.2150039645650734,0.4307647796563132,0.7024252967062427,-0.5396266715978505,-0.06169841984615829,0.29654173841483283,-1.3114735727894484,-0.3661958024084047,0.012438373600683188,-1.4257771227571656,0.47115863990412116,-0.10584733033667078,1.250993659825401,-0.693252655173063,1.2688788846830719,0.854936660833715,-0.6881178187410834,0.23530567439103817,-0.4173812892752574,0.8734124199405207,-0.4095129636704941,-0.9751862191632532,-0.9844938143474442,2.3468424711808664,-0.17840585335194506,-0.1899539764097143,-0.4427580861020384,-0.2097918552480618,-0.030492226459032306,0.23775889782474827,-0.4545847256003763,0.24705966264758966,0.23824306729247657,1.1899072741211019,2.0147824226659474,1.8549890591625195,-0.6635112545550735,1.6850382938536403,0.9115101685969855,-0.424804834047008,0.16493180485020345,0.08378388630840466,0.8615894458758501,0.5365973900727928,-0.9932654083091226,2.7221044417913376,2.475362860407727,-0.12250862353750436,0.9976133937817591,-0.4302687539693214,-0.8211962446689287,-1.172971262178669,-0.3636764019226247,0.8814461749034819,-1.0793327260343653,-0.04518004318912896,-1.071730549033378,-0.9329130459096333,1.0588205785104945,0.045530620672601566,1.4316194923167918,0.5855713249214294,-1.504825401898159,0.001579557660874354,0.3005668147302345,0.08342289521937483,-0.9551920042077091,-0.10423638444822908,1.0281596202028438,0.20269969416685388,-1.1572740703158892,2.552688304633387,-0.12741217286962575,-0.8129239697075523,0.649975551325091,1.5751872235843458,-1.1549613414999294,0.315417938581313,-1.0250650935014392,-1.7659199944361217,-0.24110481726950764,-1.8039195194634492,0.09194271420416139,-0.034129861134287884,-1.0530994519046724,0.7701046184882782,-0.08239179378050607,-1.460172583051367,0.0286252621763921,0.14851703355047702,2.143658921806296,-0.2210354114902754,-0.22207741224314168,-0.3510406564823933,0.07283477673438213,1.3299702111442016,0.2377397112150667,0.7361668537673659,1.562018642043227,-0.9529166337755622,1.0306304639477708,-0.5641868536243144,0.8870252660581032,0.6205673265576939,0.1254054643622979,-0.020727929681810083,1.090362303349284,1.45514920304853,-0.27785748169466784,-0.276560218934686,0.5291705468187862,-0.7805688710885172,-1.1648449456173697,-1.0690774221559367,-0.012472157536802328,-0.22465544695541872,0.14004503550777567,0.7331820782227043,-1.4441629019544737,1.140560472958429,0.385798524052234,1.7196466947476579,0.44408156886319566,-0.9662558184204018,-0.13718544882994121,-1.2885894535676026,0.1457784140302257,-0.26517776169415175,-0.1690246367472824,0.03879878598622887,-0.674012841961626,0.24482372032323355,-0.721288611407499,0.08978725663035404,1.101360762260759,0.7037982596515384,0.20453622065659327,0.9335384938797214,0.5783228352106439,0.6278834449484089,0.7505866818328943,1.1741591850508415,0.10302798302730248,-1.215771091543889,0.16634239670028933,0.25492601739323434,0.8901308051024621,0.00019454264783802945,-0.36967741059714543,-0.9883632009827606,-0.8497367809824992,-1.146426689919846,-0.5516759855908783,-2.4968322424201395,-1.4396649059253859,1.643724137546117,-0.022094793695699562,-0.027981786908544075,-0.19583998538161704,-0.3148660260302046,-1.00182689462788,-1.0406128070598137,0.29322972607375614,-0.5275663190356179,0.43365921332075313,0.9184192731678075,0.6809439619661711,-0.49753255337228064,0.47436203097907537,1.6531059292892967,0.4700774678026094,-1.8935887063298984,-0.2243506621456531,-0.5061695332319947,0.055617191586403755,0.481658979068778,-1.4221138816352992,1.0189298367531068,0.07845111349755995,2.3652062385616217,0.21813218052414093,-0.43547653099079464,-0.7204766594467226,-1.4854080016092126,0.5680489516796513,-1.1968802823699936,-0.5586909618135845,0.8119232144246332,-0.6232017445431708,-0.22268053898827325,0.1922901451471846,-0.6544167667115812,0.4360396803418189,0.7083793263228578,0.1983584250462663,-0.45216501756882366,1.1039765086779598,0.42671627291125225,0.10460171747716335,0.3341153577973364,0.9465147181028043,-0.30494227817166714,-1.7704834173034623,1.3344833659671893,-1.2699290713206541,-0.034171287988017184,0.6597464693735813,-0.25986216665245254,0.3753748721551445,-1.1274529136992724,-0.8328726278517438,-0.37934196145887467,0.9835040281103895,-0.6833114423386133,0.5334378975692776,0.7020719188863698,-0.8002734640704614,0.14606760085564507,-0.25921866722696946,-1.6163164541271664,1.2754609206773315,-1.309475161333986,0.43852394828180213,-0.5811663246272387,-0.051877081574724634,-1.195062414234622,0.3912373946189929,-0.5561636265607044,-1.3641989621579826,-0.7543241017693053,0.918019186794234,-0.0029224043005015316,0.5300472233338239,-1.3162313904320528,-0.311895848477983,0.38481205826688164,-0.15353938423999625,0.5670548888340012,0.2968841133915696,0.16781072185243243,0.14618796784734794,-1.2190815668258803,0.8858838043906871,-1.5089705797486364,-0.20462549059321014,-1.0439494829717288,-1.9787960038197396,0.5605306386647919,-1.3288307079571078,1.631152270106577,1.2224473684191872,0.09299525268665233,-1.3410765458554703,0.8008739674154706,-1.856970123543924,2.7853391849893354,1.7548423652883185,-0.9777887201587728,1.9336057016985055,2.149663915593095,0.7116021466439328,-1.4342115091074255,0.2570868247238489,0.19328754324476974,-0.3173600109818864,1.4208041973235508,-0.14615132532960434,-0.08705996660502566,-0.660723433082303,-0.3563428706891623,-0.8827479386927639,1.9874433687949482,-0.259700564449292,-0.03894982021330452,0.0898423031135957,0.3043927591644947,-0.46337936457011536,0.582703114120423,-0.602533432289344,-0.6919640861279498,-0.36873442665439726,1.252010075197794,-0.627485191177948,-0.6172531205665107,-0.08977344672757427,-2.596725540955062,0.2559621591999553,0.06371403308933632,2.2562908622214852,-0.988884530798426,0.8673436861861882,0.2596605772834128,-0.6392411917584926,1.1041411509697887,0.6563950317437728,0.41370239860918046,-0.2770569036011048,0.7457952473834094,-2.026005725265279,-1.059881505056184,0.4979580198787619,-0.8106265238285273,0.16450667815343728,0.4970136169636107,0.09848689922105101,-0.966969266135082,-1.122621511814251,-0.07957018325128136,-0.6071500715428894,-0.10913751564387009,1.2452310315694,0.06666403757474251,-1.9092042727190939,-0.8414385141352531,-0.44840452791087265,-2.662094274329381,-0.4654089707561287,-0.38131442515521996,0.18564144432263802,0.5359285071187739,0.9725328390231085,-0.3794219891673625,-0.6935331330772452,0.5761834653202066,-0.12758651739747642,1.613216962167829,1.297928439086021,1.9264174422037366,-0.6490324462886529,-0.7017351530047047,1.1597356087660078,0.03349098466656048,0.18571789945892944,0.3707954658274261,0.3097913443245271,-0.4791549674691216,0.11455890068310794,0.05566102256931563,-0.8402512214375994,0.973630843017304,0.18333067990492716,0.1021292875270352,-1.1498237015036226,0.34093280597293707,-1.1735203345471001,-1.0088475009193802,-2.196579890202688,0.3892073794164588,0.2674565252787885,-2.3873137989125484,0.8959737685068654,-0.4146594908607336,-0.26424539797138813,-1.0390762341724478,-0.38615345280230723,-1.7433739756186586,-0.7520222406677307,0.5114880712841146,-0.28905766377930897,-0.9459361399474943,0.16950130195147176,-0.03705837884560427,-0.5108301122712987,0.7538259516029023,0.2788918689692106,-1.0927156465701946,-2.21458962671974,0.8830132523026932,2.232754740377871,0.33759547177976623,0.07016685901865521,0.08031514683167205,1.2908523489469512,-1.0281816121474903,0.7109809213922593,0.79641662033718,1.154064285376629,-0.6984974250080256,0.9461914233453171,0.22267052380126298,-1.0812907831479732,0.41904934254917847,-0.48087837520246307,-0.7330042913721072,0.24379546437262242,1.7501531660955763,0.04215422566197871,-0.13735132807210276,-0.6283195322567231,0.04177712563856027,-1.2956329899535426,0.5778103257991462,-1.230248581413767,0.87477416499167,-0.8765287992911163,0.38727927300408194,-0.8799144367211277,-0.45080116148701166,-1.2158603442123164,0.11304846681138832,1.1986616823914968,0.6831135263292567,-1.183982238947517,2.169660490103613,0.0627308927850545,-1.1165327288191602,0.5844735349036663,-1.35323828066974,-0.5923261599151028,0.6210704513082477,0.4798685298758319,0.876148268733409,0.5921484721353854,-0.23604295873722864,0.43679279291366035,0.3353937530818654,0.2191376645517043,0.15635215949663253,0.9250299158821449,2.3652234783662123,0.24914729303043406,0.46611509589993333,0.5051854337284024,-0.716722028321433,-2.5973950101169523,-1.5604206312067388,0.7418269270223053,0.07677834143068894,1.2552628417683533,0.6658071301169781,-0.5039506447923465,-3.204421996250422,-0.779281648728414,-0.7520577147900075,0.01059110283573182,0.1849682304010334,1.1639909594669777,1.6119137069401244,0.6580129165397515,-1.5785453884631677,-0.25366441076822904,-0.4979049874537059,0.6525424251921831,0.7438874774253053,0.041259549272000935,-0.7318696626839983,-0.5490405539277229,-1.0156653020326007,-0.051562500689807896,-0.7019906107743891,-0.05799274381575102,0.417304928283976,1.3534217379876279,-0.7783585995470846,0.9547606060713294,0.3254614113233715,1.1487935118060528,-1.3226536702934526,1.28367267032477,1.5591785003972845,1.5388038945145994,-0.6348485007938458,0.5430886428360735,-0.19029014231777072,0.02955413533147217,-3.2286954806154475,-2.3181268876180834,-2.0245440836976583,0.06149109084056789,1.3332887742512822,-0.38707944306030323,-0.5441449317960863,0.995095775233579,-1.7904292015778485,-0.6134624241834935,-1.181920910162216,0.8530850666875747,0.4142103068993876,0.009447392401667252,-2.487686673139514,-1.108930116150095,0.5384504739001674,0.4750739344481719,-1.8731462364481763,-0.08149362447246963,-0.03722136079939643,1.7909209255425995,1.0012552941323924,-1.0061966268888314,0.7578376771200552,0.06453275180003339,-0.6036843100184127,-0.5201519704125079,-1.0849397531092968,-1.3330294225703936,1.449414283415041,-0.48213196985366086,-0.3951396994451312,0.2668508582138021,0.6021721674188596,-1.9189289286222884,-0.5693877353269478,-0.6631468597528776,-0.7272494406118923,-0.46135151806248154,-1.718121573297566,0.09900052826039754,-1.1613630506629506,-0.026730754697272808,0.8809498286362979,-1.169085043637268,0.49482387144645734,1.272065093525871,-0.7952832472197705,-1.8431920187611976,0.9230772554170638,0.16588828064178227,-1.0497261905543254,-0.6419037762599977,-0.44757987124173315,0.047565971208121484,0.803421457918662,-0.16260334059259152,0.24258196615511765,-0.2943066897881222,0.06277377802779541,-0.4675240517118224,-0.3456897140300395,-2.833146765135044,-0.2931070612378309,-0.8805107862598317,0.7120690358898097,1.3103212118109415,-1.051379320209915,0.5394623378269282,-0.887075030562192,-2.2852898536814004,0.951280211898425,1.820220872243247,0.41395643227903023,-0.12162775041573079,-0.041110965707492834,-0.840036038264347,-0.27002965398743933,-0.4605622291435016,-1.3469444333242295,0.15902082041890522,1.7243131320553207,0.43555587465032364,-0.5827342745693233,1.5829431296207392,-0.6598870224610902,-0.08886037851534107,-0.3096632474566835,1.1929084541469972,-2.0817058559593464,-0.6957991765512819,0.008462244952564308,0.3283825920887258,-0.041192854480574304,0.855481217598611,0.07917849642580006,-1.6028728713929024,-0.7459611505574428,1.040108653423264,0.2825619475206245,-0.042318446876836634,0.8257057520897624,0.7327456999010578,-0.7150672733192347,-1.2764141229948434,0.7376747117934535,-0.9565062125319944
-0.7348037937999689,-0.23804022428972144,0.03562729197909976,-0.40487698770277186,0.1625925176609833,-0.7648473250958961,-0.970935648502111,1.2061114167158555,1.5254650323664423,0.048123161530255754,-1.1729113743388309,-0.31551166093055594,-1.1682961922403494,0.6059177086813808,0.13288786923504167,-1.555912273575636,-0.2554670313365175,-0.9789114954578805,0.16854770921637477,2.5610886493783958,-1.2585664210354197,0.27223212899329824,-0.35532783785131433,0.379608731213155,-0.14293477167763688,-0.20020505619060022,-1.211400922183244,-0.1884566665636791,0.5815814763211933,0.17654317182516321,0.3462978691052913,0.3132978766138903,-0.12347648054923953,-0.46534863628474304,-1.03589315500677,-0.6849840626402689,0.2097917543286215,-1.8498755449802688,0.3973471359043873,-0.21586462415796023,-1.013888372427675,0.8664140213867046,0.3340984751970867,0.3610882195644836,-0.20405402883327958,-1.0159837701701369,-1.915096907842216,0.1425905605974477,-0.08325515933722598,-0.8671432301405609,-1.3389923427026207,-0.0889611580923165,-0.033817136069242644,-0.7415687473294263,-1.3610290614631653,0.47237979869042956,-1.417601159091286,-1.3698715549908758,-1.1456254463093039,2.044300300899134,-0.3568315267570596,0.1367707228059516,1.213953594400737,-1.9243986922751393,-1.0631774938609424,0.18863088332461656,0.7779744422963443,-0.4214595953936181,-0.8888592627575703,-1.1237701128914512,-0.12804394312583067,1.1511334090774925,0.7823543531779628,-1.4369561578621741,-0.09064570225600467,0.8895158558586382,0.5575864611561284,2.004538302734707,-0.35572352676770813,-0.2626361129642173,1.4934578033018102,0.5360461553600442,-0.4176644901658369,-0.5801259594079737,-0.7593875052162677,-0.4340747378843089,-0.21559942093840165,-0.952864352078634,1.3310573292167915,1.8622312478242993,-1.6891772582880482,-0.6032431042978171,0.13162555946740548,0.7751424427457555,-0.32666752150059614,1.2479571115301413,0.562183782465815,0.9624968384844539,-0.2703774461910624,-0.7251667474666703,0.2905873496047438,-0.7332938940483973,0.3222502999601936,-0.9814353419621121,-0.09302397232297306,-0.6587531613636175,-0.780165482766897,-1.5649209346950799,-0.8502518074809755,-0.4516341390501522,1.371003924334418,-0.49718147801692625,-0.2709044373938426,-0.7982992917530611,-1.515083097880956,0.02751910196295745,0.8919119748854449,-2.8379218904172374,0.03986630776674762,-0.46788686844537797,-0.3964885854162414,1.2365332687836592,0.6548415821944769,-0.9322811452177029,1.8543804212855037,-0.7933522605767183,-1.7851295066037878,-0.13964127144929914,-1.1641352105025258,0.8748236230071225,0.16991431719872033,-1.339881668157546,-0.1512246800252659,0.7770451973590445,-1.4261467806294006,-0.07297616199209524,-1.6504345100609552,-1.0892805973702484,-0.8075355333561662,1.679987230913553,0.3146788515477,-3.1695880561644203,-1.8394494237056462,0.3002860145958279,0.3967961837480064,-0.3339663678965173,0.7667125551216627,1.7231223335117,-1.3305629592863217,-1.0738180737095229,-1.0344711764711523,1.5718544537582115,-0.10711692094618892,-0.7329903656032222,0.39123567614745836,0.20980130911354392,-1.1587765572395181,-0.13090525107103956,-0.7318764619907355,-0.2335669918773541,-1.426848463653558,-0.43663267211404255,1.3567779858333053,1.0935658235825665,-0.3288454155022668,0.8988161924116082,-0.8725012414042602,0.16858836923579693,1.3318724859279825,-1.2627499790264562,0.37214308130817514,-0.6257599303981679,0.4529969630252321,0.49336425296517544,-0.01958743539798795,-0.2891963331564428,0.3678396237730098,1.403841239616723,-0.7429816980595468,-0.12219978633387985,1.4563867154869814,-1.297679653169166,-0.2576348484504461,-0.3867405077144138,0.12297880362682372,0.8972601397848012,-0.5164016245881125,-0.25631106013278704,-1.7801016560519936,-1.1943321073920687,-0.7849375249465743,0.5718151176287011,-1.0129782097356035,-0.42992413567911514,0.13378452300796317,-0.7487416527894347,0.6171808780336038,1.7757186990384417,0.10872411349289988,-0.044123263598028394,1.4957250713371462,1.5867063171296896,-1.1893271394018103,-1.2762713368200864,-0.5461381758174892,-0.718281327393928,0.9597485151920102,-0.13211102103641723,-0.0950478581718467,-3.1074789027901364,0.36124738235100745,-1.9404956706761758,0.29810192262999524,1.032610141308596,0.5094349357849165,0.6288325168466694,-0.9218499682094352,-1.1079807341185721,0.3897728010880953,1.083741858348002,-0.12566990479705895,1.3300735249401803,0.2719124064511469,-0.48597017260216885,-0.048072472696153105,1.738244426271714,1.6058335288627508,0.06690332011205785,0.4286130812764536,0.023901882420825957,0.1498389753995215,-1.4641804705104502,-0.6600368579944489,-0.15128593632947682,-0.10978887174579136,-1.4066691580126645,0.24465796376926,-0.4457646707285032,-0.865937873006964,0.3877613234025638,-0.8254071173302633,0.651689226923211,0.9539557453517341,-1.559397936412402,-1.1042080286868783,1.0977829064907252,0.5314232247251811,-1.2048404470040386,-0.6363635640239609,0.9943021394795887,0.6697543173071263,1.2354564125136671,0.09802344408260767,0.9390631516847411,-0.39668548936397136,1.7832231569788004,0.9451610925236003,0.30658289780547543,1.0400658099610196,0.9933048130231822,0.3580263930816419,-1.2012947378008492,0.21613299174461792,-1.4591301134220664,0.920962565090258,0.191007003895153,1.8083743515203645,-0.6967137521541144,-1.740906367201715,0.4902863139016351,-0.061497958443553595,0.3386642311574698,-1.255483503820403,-0.09857762177991825,-0.14552901630265694,0.27578781929321455,-1.4085535140510017,1.6491480714525468,0.18627454281923408,-0.6811723485371248,-1.0839764669706413,-1.7686902586333653,0.029501877385617603,1.1358644580409474,0.8749311472035779,-0.46184356414092786,0.22259819468415334,1.5538660908889028,0.9743970846843554,-0.329800572218504,-2.4255289999031677,-0.1956713516500957,-2.6026557852804864,1.1775254955753367,-1.048085197791012,0.7104085084913409,-0.5951807586754375,-0.9533347899177651,1.7598544322768617,-0.7719296939452488,0.9338927255495054,0.32272553675871535,2.653154909392349,0.09966347185079868,1.039787842148289,-0.6052375750395786,-1.8924989047401652,-0.9098297080508904,2.0490443054280476,-0.9218742606718114,-0.14091576708516607,0.16353501704216283,0.6769837412969874,-2.4747235596523884,0.950565834635683,0.5981869033184075,-0.2972011394039471,1.2487740313631628,-0.5141728843379112,2.039605305604511,0.9298449105721823,0.46353406461494107,-0.3501799041470162,0.48293350671870006,0.14342252393776642,-1.0217797899735086,-0.4510312552449369,-0.5052210138097626,-0.7611152320246259,0.9871866503651091,0.6378880542081772,0.9284180748166463,0.7640885380543719,-0.6928301743033565,-2.431570266799753,1.1178960949081218,-2.3626115499739777,0.0027579001237238625,0.032171601939992446,-0.6273861383404739,1.3154552407915714,1.1706254359292774,0.7733913274429278,0.19964133638372686,-0.09187086842163525,2.0475332556414108,0.24268986499349,-1.2298411697466827,0.444477820186045,-0.4551584200287481,-0.7159762690633567,0.626785291351533,-0.3287427482033007,0.34903495103180854,0.6959149938717307,0.15817162434019733,0.2791700909795647,-0.37601881880503196,-0.9039878952427872,0.7556049251286918,-0.004789758051429376,0.10755912989278534,-0.9086056803421428,-0.5575011357174707,-0.8181453283889432,-0.3419706290651343,-0.944943975855709,-0.7968674663988855,-0.726322951513529,0.007671265666169616,0.27342260274239016,-1.1986731303372729,1.0215079049819267,0.3339212281640661,0.627972892904014,2.787302823293842,-0.795512903991932,-0.8798797015754626,0.633070657916514,0.391010349272914,-0.7376316415673982,0.45831887980724334,-0.6188591785113036,-0.24196028998429356,0.9301596011654297,-0.07300970084333001,1.915375955822016,0.3292352378498278,-0.05161757050490462,0.24975851048527298,-0.17917594006387932,-0.056280383032363455,-1.543095399448237,1.168481039136191,0.5419487513251181,0.3800392422287579,-2.0140654551976223,-0.4835356662032623,-0.7469791086552753,-0.4671844391754179,0.7601530814444425,0.5495538334727551,-0.02336782884417436,0.10080501715628043,1.0156489634945731,-0.3160284431836868,-0.09434934063742619,1.1666008935607386,0.16643335062310063,-0.26678128106975146,2.4919242715768255,0.39769939495477147,0.9813132311226282,-0.2255051515721235,-0.2596102053743638,0.057219809474950624,-2.061251730888359,-0.6168448721505329,-0.8234188289025407,-2.138860635099584,-1.9035463389298282,0.08886900027261944,-0.5678811064420917,-0.25366007994666045,-0.08200425792225716,0.19158636456602826,-0.7227207851386819,-1.2404130070528843,0.6420189199597438,-0.3269747459543887,-0.29725881458658526,-0.15599554234235344,1.4903022075625556,0.2727704367432121,0.5914528603591428,-0.22647858222991338,-0.6306566860623116,-0.254498930846929,0.21866256071014603,-0.8609650155859611,0.14302745610020082,2.232168336119901,-2.140614295108521,0.9103778610767347,0.8088887951257744,0.3813146425821096,0.5326461862593285,0.04650914114314565,0.3089848147686316,0.5588962634600051,0.22900522625888847,0.3509980148022206,-0.0715187600366268,0.04734562839469805,0.8643397237719986,-0.1664722320959937,0.4696512383105184,2.1114025154110676,-0.18653674225135575,-0.9727525519828462,-1.2339823926105506,-0.2740343279952244,-3.124583738601575,-0.22449074950117834,-1.3235956290678983,0.7309258403860245,-0.1654110723219248,0.1453093904892167,1.898358971957355,-0.5221336295635253,0.2451384769726722,-0.8243213804473088,0.26707819257648596,0.27122174259556664,1.3277418168156296,0.4971231397250675,1.2838190800156128,1.182255958888348,0.005137444117826931,1.027297137329242,-0.9328911949913813,-2.1519406198731907,-0.599303251971945,1.5950470432539574,0.3600109884669123,0.0618655525104709,-0.893016629667543,0.13674505286848304,-0.7522921448947503,0.9113877676809999,-0.7156888292551392,0.33586577585902383,0.6642057991058649,0.0753475892567664,-0.7758540282866354,-0.4851685516822668,1.7393363523798206,1.155946077191228,0.773995565137584,0.6004124027745324,-0.5783845784622983,0.6505459430636218,1.8985032570284415,1.3319891673771895,-0.22552037606100425,-1.741121135317596,0.5484162071502803,0.8972289021149021,-0.9306929242625878,-0.9252772872194105,0.27715492721257623,-1.7798011505234568,-0.7063397513318408,-0.5186407993327418,-0.6774224323387613,0.732187715707384,-1.3528123479024836,0.7023567471786292,-0.32205335244544697,0.818617409294415,-0.7891393722704992,-0.8850589503982377,0.09984467423290003,-0.45315071827659126,0.4649864492639801,-0.9099912798634123,-1.4248521388592659,1.3433873760637316,1.2261595244103145,-1.168954416758264,0.45072817389570763,-0.739730909593538,0.7748014246529051,-0.11438276511187473,3.267741071623343,-1.5657650605796578,1.2616463529155089,0.7668966901017183,0.29435185663708313,-0.11233275209335211,1.6271495907111124,0.6087115364073573,1.312255595298237,0.43410614795888597,-2.4714087744180726,-0.45252617188237815,0.6086568299939299,-0.7362231435007545,1.9004027487360093,0.7396331389320056,1.7076072531123985,1.4630020707918645,0.5489063249072157,-0.8689058157495401,-0.9239166601625988,0.04198276497529504,-0.9538306156608762,0.08757194462017893,0.9334298234478193,-0.47538835573420635,-0.3959851274593761,-0.6949387461763585,-0.25701303099393363,-0.8693360412930753,2.6014564589451066,1.3194603742189561,-1.2196796673724761,1.3476631584171614,-0.24684264562118896,-0.5929649307327598,0.8328745490907992,-0.28189300103723586,1.8996197157099832,1.853552503046353,-0.5160098383861869,-0.3371219445246087,-1.1565786620600482,-0.6678234857229229,0.042413099642788214,0.08792265136827768,0.7050882821032799,0.3044801374470113,-0.5868603859796645,-0.32311929416095514,-1.0921855095129247,-1.2577285134743337,1.9042493398125282,0.8578606761019415,3.5757343756555424,-0.04578100080873119,-0.7236251407121712,-0.7043911327379184,-0.9388888491313544,-1.836493544203357,-0.17680085215888092,-0.8299827048561483,0.5675003877712961,0.658959978817295,-1.2332836637617461,0.9991098174167817,0.09784494593251455,0.1724539709027895,-0.1517912515606095,2.2600562318903843,-0.8478304848637329,-0.2649841821836435,1.0957888248142251,-0.18448666542011735,-1.5631854680385684,1.8413277405160122,0.2607621291278453,-0.9755671508492807,-0.06434093592077145,-0.294296699150772,-0.2846968575161282,0.654176056872231,-0.06727292632969697,0.9828289759234727,-0.8116839824531236,1.4627542242569131,0.4319387580134743,-0.20470359021074974,0.5950788963122238,-1.2736439279352196,0.1329202762655969,-0.4718675599908939,-0.9311710318777454,0.068414719535874,-0.9815392317788879,1.4178215537906715,0.34663079774968214,-0.5526994086029042,0.8863687060138038,-0.8080396127054136,0.48828572560850214,-0.04332181635858977,0.5482508574625976,0.023576100258140987,-0.36021790665426373,-0.8982355510564113,0.03315023504390776,1.9226090349780356,-0.44214546479769296,1.5022849659830548,0.8343531588234898,0.42929090510511886,-1.1022180345855455,2.440755446784691,1.028204858478975,2.694680182872297,-0.6294829914973293,-0.8918455388624614,0.9057316175284946,-0.39767488223023745,-0.1058110718628335,-1.0259027504941804,1.431787818864233,-0.7575285860964927,1.4807624950510523,-0.6840090419254802,-0.7060374709500776,0.9198178817012017,-1.7301065830542737,-0.4649976075316968,-0.9235222631361314,2.627429540457519,-1.6003345793464605,-0.14086675465002937,-0.34751787249102273,0.6599438542027816,1.3048529392769266,1.2507356727823733,-0.06680619835806482,-0.5096963181566021,0.28020666488240337,1.395491840932516,-0.11390020665355166,0.9532281473850489,0.12495413472986322,0.7124524499332227,-0.0865672274084518,0.15343948856862763,-1.1919893802419566,0.5633662614440654,0.3952891695011464,-0.18174670087321512,1.3369504850041574,0.30107529208978856,-1.030663594434836,-2.308359478685217,0.28866720855041045,0.2692739263888521,-1.6737613044155386,0.2693245566458565,1.12527074960488,-1.6904841280531193,-0.853541012161337,-0.0028368963834101433,2.246729799411811,0.42424919490978813,-0.6188812382960199,-1.018442498976245,1.272354898421445,-0.6873948191617145,-0.49927114930300037,-2.1343300475449993,-0.9301570074533704,-0.7560042177119516,0.2389399120626359,-0.534634038558794,-0.015735092925408655,-0.10691379995938759,1.4771468943425299,0.4088488945464442,-0.04785730348333787,0.08899675002700004,1.3857912114670028,-1.1811945079133848,-0.40581472235867416,1.1490608209847293,2.366985443507965,0.17602457165070026,-1.0532441768807024,-1.6025285379121148,0.06234511061351243,0.32469069727948835,1.0452981977674434,-1.0594557351556373,0.6859895544384116,1.3376085820590577,-0.2504532928062176,0.16584052691668505,-0.6361035080708296,-0.8021189842370564,-0.36650192642287294,-0.5391638340782753,-1.5854720255320778,-0.15765217716103336,-1.5268814859247601,0.7476535450001489,0.6068589274056742,2.0404988742351793,-1.3728891776132015,1.0286044511348862,-1.7198922714417788,-1.3812873345004135,-1.5134914213070996,1.7687217892815512,1.1587547891041035,-1.4213015823948174,-0.07481160299771719,-0.5905534122109521,0.5266170272951229,-0.9656441496139434,-0.7053957384317933,0.2913988265884293,-0.298086465741529,-0.8555937009444006,0.1902327072341053,0.003522180502255318,-0.41970129116847676,-0.8595997790686633,-0.3801522808173032,-0.8074336160766665,1.3670577921911682,-1.7381974122077954,0.7395745538221153,0.7439704109815343,0.7723564688888068,-1.6539499086056944,0.9069645581533726,1.8613600096163307,0.12476788763985616,1.0171920468872893,1.11524994110147,0.5096654503660251,-1.1057455685781397,1.0329298462705987,-1.3284464253621238,-0.052505999070015325,0.9490717252462313,-0.16080552729370887,1.8817452635513583,-0.36177246433131854
1.2666234841422896,-0.8224198402985744,0.8923892114466294,-0.7651690133165907,-0.008946949035806248,0.42476867337882934,0.08339316338193146,0.33573652370311685,-1.4521980619959232,-0.0790734161620598,-0.7930597381242498,0.5113586369340241,0.44616302343037056,-1.1961749282310667,-1.637115128211273,0.6257165810272712,-1.6244773419916947,0.12958704214047295,-0.05564359388569722,-0.5273456035539901,-1.5812306697872271,-0.7357434017903397,-2.2207219587773905,-1.206771383646089,0.2981992395693935,0.5496593070071415,0.9504739071622181,-0.6264482221474954,-1.129791544570978,-1.4129719114363706,0.08771202169320769,1.879656214843237,0.43404925590503796,-0.11359294692936384,-1.229709443506082,-2.2832864647618716,-0.39604919235685926,1.6361036674611784,0.8132512790660449,-1.576938555455695,-1.3284876380076938,-0.46297380475068334,-0.15848616920999264,0.318465804661506,-0.08244377704778832,-0.8269474339527094,0.3612628501064017,0.47082571738188966,-0.343548135328102,-0.7016348757096119,2.4609510997398623,0.30262797510703715,1.0525110286359314,2.1861578363312626,1.017284134255263,-0.9087901773022512,0.725547759326323,-2.134774241086513,-0.9712122037084954,-0.7105721132664886,-0.0036516328898514292,-0.209273756175057,0.16046609353744726,-0.261480505394334,1.1030947134887201,0.5112027516484574,-0.3202851654271612,-0.6075779042261659,0.42089173646901346,0.2285793674402434,-1.562099176045612,-0.1249786299080273,-1.1850813279107306,1.8367962727728497,0.7424591625032654,-0.6724578399639705,0.22677411128691835,-0.5755967010154968,-0.35585407686848686,1.1548621857339652,0.6384748030489296,0.1563228094914896,-0.38626938644836034,-0.18212515315741606,-1.1815077474968545,0.5334538927917336,0.9093365159962093,0.16113718842891842,-0.019385322581130685,0.1577894516373002,-0.6006583765071445,0.28028668475407065,0.824152119134371,1.2212885885987153,1.284616581440417,-1.5822980863327611,-1.0622138785419515,-0.18617700767786602,0.33387320776584456,-0.6459117370814451,0.42068896502405767,1.7381905028673905,0.032854833951719495,-0.26896269844619697,0.2026490860842076,0.09561558219210005,-0.5783565313295961,0.893730994628557,-0.8417454044701944,1.8461215021261772,-0.4424573404713453,-0.06965321390403305,0.8547036493212103,0.6303913748320867,0.12959656229512415,1.2052046253715576,-0.4160733259729395,0.06993661211437224,0.32801488080496377,1.266878573835273,0.7647873351749862,-1.9577804683224798,-0.3928495511594446,-0.6052639201392903,0.1324445791234333,0.060641616913767564,-0.5496881808676418,0.3674436190605997,-1.4726310124993982,-0.5388387663118197,0.43536333926506365,0.44193424620278327,0.3672552964077762,0.322936430645193,0.03421770724742691,-1.740909685529994,0.4939890418030141,-0.41045158148949207,0.28233811021048283,0.6447610916176297,-0.5268423519248259,-1.2667699247518838,0.7195267399575033,-0.7040383128000041,0.001164283252603763,-0.2995575573687774,0.13080931143023997,-0.645989102911997,0.9775089543937043,0.7713167781272146,0.33949575574024177,1.981093452704164,-0.8815250146626733,0.5682165459206044,0.48013372673361077,-0.9983282605867961,-1.4711069764833324,0.4427833280359151,1.552160336497821,-0.20896086215114473,1.2287122045285388,0.47469171434713,1.2832411323798687,0.01977878492047676,0.4853699324978289,-0.8387186273731484,0.525121212679985,1.3081814071758162,-0.03493295118452062,-0.6195082106583256,-0.10333379118221787,-0.03213443570260243,-0.8421469590572813,-1.0757003973286512,0.3205813588349988,-0.9099738951186629,-1.6926395785193755,-0.014882914616765382,-0.18938162673119766,-0.1140121928948853,0.35943298546675917,-0.642304620042025,-0.6889730278160464,-0.861603443222131,-0.299540666029431,-0.31624291954005546,1.029806893864044,1.7492371311987562,-1.0628721755416348,0.7930241142397493,0.08856381435530472,1.3965886889157688,1.7357000901654045,-0.29695077122840546,0.31782156606035245,1.143879193059031,0.48847289131344634,-0.8381073247138027,0.7468062471842957,0.28531823985684973,0.10823130621966556,0.714239081875168,0.15477606119056453,-1.1700324393059793,-0.6786267852630644,0.23498089560969895,-0.20491371985706527,-1.2299570078139772,-1.8400349645344132,0.19852007857020362,0.5589426200401783,0.4547584698158983,-0.7527366218261058,0.2695079177685256,1.286649213691183,-1.044136940130905,0.8894993116058372,-0.6254876409992193,-0.15931607803800377,-0.10689779325006443,-2.3802221733449116,-0.2033258807196565,1.5339173410349642,0.5914142276337137,0.010863902628297293,1.8771985372665951,-0.97405850311016,-0.10673374023680314,1.0177013110788278,0.2337575757562468,1.1272032686744526,0.5445822375033252,0.68578468772926,-2.3998758929377453,-0.29483935590725024,0.8949246227793862,0.3421501809599175,1.007570323539361,0.32069522517580124,0.5529201467534256,-1.254683651029392,0.9192239470487238,1.3637413145773094,1.6975543703754425,0.1505516254362519,-0.7247154443274487,0.38454345248047955,-0.7075689240771779,1.9717216712342436,-0.6948513336743606,-0.9239562050077703,0.23765584448470925,-0.024950677814032266,0.32368630296578355,-1.2206365446927083,-0.4788269361432166,-0.030870287512536048,1.0139967107107997,0.18162764844080598,-0.38916642647191024,-0.17469419905935246,0.447089978134422,-0.4637792485646801,-0.7574148438005679,0.961430382313385,-0.8519105166924485,1.0993218564889167,1.173259733751494,0.467933071290055,-0.038697391493989534,-0.7605919129932392,2.0588512746631555,-1.3710000970471852,-0.09330243492105243,0.7255843260070485,-0.5467326966017931,0.4407851728738053,-0.6013460572709542,0.9956300200817002,-0.9926765758808924,-1.1893069893538293,0.6679233812790708,0.44032025475109676,-2.027979647593696,2.0725643009218757,-2.4594249243640194,0.27512171939021,-1.2586316929440104,0.6701137271273307,-0.33059179246328424,0.8627931674493263,1.6341440771777995,0.1773981153719674,-0.7733761665070336,0.4009634541296424,-0.8934031846449498,-1.6489093941579833,-0.23449849218348437,-0.03053311049621795,1.0233086601035908,-1.4258254273073299,1.820704055412069,-0.14168062916843518,-0.5638137240316008,-1.703261642018976,-0.7559116442754432,0.4016151725650349,-0.5899755768559021,0.8284779652383923,-0.32679558208790055,1.5912721546803827,-0.7933815507991938,-0.6568377164229852,-0.45048634526286385,-0.02564097068035364,-2.4740948013125634,0.09700930982067028,1.2982580003978774,-0.7896291784940882,-0.5997710697664035,-0.14670029407985063,0.7453925274998936,0.420226688035555,-0.5205817452443393,1.124163609009194,-0.3995176064746209,0.5588648769093156,-1.0736358140570472,0.8188558784696804,1.0938944376654358,0.6872475947468488,0.5730875742694808,0.5375228777818304,0.19467038899230824,1.2139211513119816,1.020475274874894,-1.3180725002803395,-0.770867085452284,1.2122155528201366,-1.2348252825746808,-1.2563879229337933,0.7147011809113336,-0.683623100596476,-0.8227538220721908,-0.8873088521653409,0.0681943715701114,-0.10386168555509223,0.4261868160051448,0.4549047603406057,2.211521571801394,-0.3216882085003453,0.17374530281879053,0.7161080571309696,0.32851664973822653,0.31583086692819334,1.1308291023625905,0.5814209449606619,-0.12099701649754377,0.5774567606389369,-0.22289768471466484,-0.7388919062352921,-0.5737129319905948,0.6776982806400658,1.6936800093907358,0.346508003485993,0.40653529304144864,-0.09171335631239744,-0.0608627936465149,-0.45541867677764025,1.6624822651788986,1.368614906619371,0.5272101482971318,0.12106834426300338,-0.9533468949894005,-0.3347723599346631,-0.23542042818928144,0.4649973341538652,1.3132375801490102,0.10169522995917782,-0.6064448864940561,0.45003732295280097,-0.7435525784713454,-1.9242056228319755,1.2622991016995493,1.5174616474986993,-1.8190998791323663,1.0883333382914422,0.879549321246183,-1.6084653004337195,1.2714064586659843,-0.37813319900657594,-1.140124614202466,0.14207511816775958,-0.2209746929179056,0.22336219375373925,-0.5009022083047284,-0.6496865397685748,-0.8204249760086624,1.8000912754171512,-2.5320057858334324,0.41257685891353174,1.5699257978196095,1.079217006144658,1.1412942388278384,0.34234236533671486,-1.1212775855880586,0.6623119094964525,0.09881780208219836,0.796186225150842,-0.3894615243718588,-1.3712058443149746,0.83437148393884,2.31457457533688,-0.3715933853043989,1.1346816134255706,-0.5732995727301949,-0.11349988737039914,-1.9309594995997637,1.0820277968809717,-0.3500620466457046,-0.7487761665172159,0.8959711173453082,0.30401904443837124,-0.3237292328728792,-0.3013689103667316,-0.9340221693257029,-0.6399783009317982,1.920142733505026,1.2641007439566783,-0.04939519717889111,-0.7383955907390766,-0.1170504570183793,-1.0473278977162763,0.9741904820755815,0.41870692728313896,-1.2156978278426103,-1.3709057432932807,-0.7387391434432764,1.0936282716007517,0.6961623034117252,0.9644489703665132,2.0756295713134922,-1.5606465927372237,-0.6150352249585822,0.47047803826944073,1.6694113192273885,0.5859163680302432,0.5844232795262968,-0.3015179916126159,-0.8919426784570531,-0.487718993667014,-1.6577796610898263,-0.43145888707701713,0.9982476715358151,1.3544616939389822,-0.17356094682806256,1.6676524273452076,-0.2722824369046428,-1.3958946581997784,-0.7580510307887532,0.9069085587154031,-0.01409022947805387,1.0357770139903109,0.38577265814637257,-0.29607832553107066,2.0616108491788556,-0.024803565785157036,0.8171926500923234,-0.19852211873085177,-1.5148248688510633,0.5643813896159577,1.064566424081907,0.1721150150937809,-0.8096702016359673,1.4408247338800237,-1.3947510504922354,1.7186798727186288,0.8022583483203537,0.36704234669192004,-1.1024759609328478,0.33621588009344705,0.4638418306828027,-1.1603269075136653,1.2176886409682315,-1.6280277994769714,-0.40277541944933704,-0.46996616871255276,0.1989185187252442,0.1229837343995845,-1.115694702851447,0.17642428483150935,-0.22898069928731266,-0.42023467984121177,0.2806878869530167,0.38200116373075366,0.3968967159718696,-0.6755632710586437,1.4516284235321324,1.0254191215304382,0.8762999947943348,0.5372265133381225,0.16292516292651787,-0.45579781710771666,1.45816771089825,1.0224814743986599,0.11207078054360624,-0.335330440220715,-1.2441625975597532,-0.341559533662177,-0.6799942549233882,0.9035971133502564,0.47605696864296954,2.865153411198272,-1.0796205999320732,-1.023485163199864,-0.8559774217592321,-2.1274030888142805,-0.35400485756000927,-0.9259154627386408,-1.1035323521073344,-0.8491650300864252,-0.3626731023702063,-0.3657189272029727,1.0936410760775077,0.6828508084435261,-0.24556319307584618,0.16081798678892767,-0.7364213620736605,-1.5007797088843262,-0.49357765807981757,0.3974133274353369,0.9476043809101241,0.16741279016097718,-0.0931454178893318,-1.9316042884791702,-0.05055623690936395,-0.45256649582061975,-1.4072895630728663,1.302643281434574,-0.7071787350686157,0.49884335823502074,0.6675924648666411,0.7852791522076279,-2.7739101910653154,0.2986409693507419,0.1471768567738509,0.04548822981641606,0.7263251402578655,-0.15029320173029115,0.6908161400765892,-0.34601844583380664,0.17404887276916545,1.7220804761809112,-0.12091384683218652,-0.16904344168775315,0.11435532021500869,0.8101823408927517,-0.14683737786245815,-0.18451476940867892,0.8355029697445202,0.2429276205607388,1.657906777234927,0.4619508875086084,-0.9102053795697833,-0.1527257128130307,-0.8936412512715679,1.1761401494839867,0.9802132719540653,0.6653487757947515,0.4613012748755012,-0.22059012918408594,-0.3823913075443064,0.47140156806964134,-0.08635594052374175,0.5743903848337103,1.4271193647430576,0.07855517843492911,-0.4650185686480333,1.0710733081233221,-0.3792506334765759,-0.0818169772588922,0.3763384511566673,0.37100360443259073,2.1728233645172437,0.4469678119755078,1.032607872400773,1.0775591809898346,-1.342049538031331,2.2619999043112644,0.8283279985238847,0.6484974655757249,1.1445767319493407,0.625938880293687,-0.4557007371705299,-1.548404956981507,-0.5226895805214048,-0.15578425236838098,0.17678351959554636,-0.9294183671127018,0.7515490162600034,-0.04223159579994894,0.8381110632938022,-0.0008132850205307001,-0.16282987731010534,0.16794776563521965,-1.401776171444957,-0.958219358537154,-0.2725003802783909,1.224666872502858,0.6186934172151244,0.36289770376454644,1.5212846440907262,0.29506676541351895,-1.275109385104869,0.18655903269964924,0.7746306930462847,-0.906950017562376,-0.22127853494979102,-0.8286853886352064,-0.0704950806397726,-0.35478203352417736,-0.545350291950573,-0.608400944616142,-0.4282457414155423,-0.12489298571655676,-0.19544231320931071,-0.557048114877889,-1.4002894949751685,0.5480009413360676,-2.3365614251482016,1.2071257408936034,-0.7506568731576884,0.19835803580101397,-0.9043439112654744,-0.06902213604904403,1.9032977444319223,-0.6680613750844767,1.9404336398652584,-1.017290553109865,0.7035856258718235,-0.21151248156310223,-0.973235902122732,0.5019383804064242,-0.4636986107577039,-0.08588694214659891,0.716246553109237,0.743673902636129,1.3632747174193418,-1.1198357753859967,-0.3177297571378978,-0.06573826897566278,1.1467406591916982,-0.31955692069228525,1.891337971702406,-0.5145703750838254,-0.029165865130785076,-1.0676797168386614,-1.1301763972576147,-1.7244583286316448,-1.197540674944837,-1.0955406440240452,0.6053868692119523,-0.4129479112587169,-0.3189650431137289,-0.22470701074592936,0.05177829789776067,0.3071155111106494,1.2241996842868066,-1.4959929905037248,-0.1437121304428635,-0.7589359908202511,-0.9049602533438988,1.1553263718935236,-0.7650531368254935,-1.4807873501447486,-1.0916506586066483,-0.33565212544654693,0.39487797430161964,-0.13404336183619217,-0.9676920591738827,0.43762863529194934,1.9915850801836423,-0.6342393567870451,1.37383476246366,1.6111490047520423,1.1687138838189577,-0.9903365100982822,0.11400471535684614,-0.6560747086818642,0.07291744721979758,-0.43561224089415984,-1.8643096601368585,-0.10555575639866958,-0.3391520632585971,0.7671282768928622,0.003380676684818835,0.08027765983313732,0.8248436300380565,1.2630466578080215,1.083632301890534,1.2836892756865657,0.284663820682871,1.273660885811168,2.54070171578054,0.36756850190145113,0.7254640759972387,1.0814516788423778,-0.24573874425016554,0.5386606185229635,-0.8731306805885718,-0.8388158304884565,1.0548056870702918,1.7829781807965321,-0.6651060337843293,0.934106041075887,0.03731005348702092,-0.2832338722723355,-0.7236292888934183,0.3969238826443292,1.0213043663387298,-0.994233700296097,-0.6843579258630432,-1.1534397807993932,0.045329386791209195,1.0927083070158565,1.6913848558688098,0.987281788877835,-2.287664085796158,0.8270024598118305,-0.76409676038986,0.28865026182307046,-1.2643537704625252,-0.9901066316435159,-0.48319804813114126,0.7964372167403948,1.0126654771455845,-0.8538038916756668,0.16476575542287492,-1.3604773922327484,-0.4732715903225892,0.3898710860894834,1.7359623659620667,0.9715294613157343,0.8428255632581096,-0.3358536312389397,1.4895041443774164,1.2624544388169148,0.5324129324660002,-0.3654598886654343,-1.1655472003284415,-0.4505147115601412,2.2056739127760525,-0.32221548841126735,-1.4197312105893038,0.7794926404188567,-0.1574937946754033,-0.6489429432865949,1.0966038517465309,0.30340810394925044,-0.08518658787943947,-1.6982826691637576,0.6618736484695631,-1.2655599755985334,0.8041244498272606,0.8231463164494232,-0.23604847662231399,-0.15864151101023824,0.41864554480758487,0.2873241859583233,-1.4639419549026012,-0.6937567369968285,-0.0476978178930664,1.8980512191220973,-0.5850517275017334,-0.9335463211064787,-2.688216409179856,1.5862470175933012,-0.34801733725667255,-0.7197930736543938,-0.3579830963621518,-0.11222093322063224,1.2569001565945155,0.8065171855745707,-0.6329264395238505
-0.18934194781550642,0.6495892551347064,-1.0765684783780027,0.37663624805893986,-1.8680466429418665,-0.5902247024379792,1.1188333992324777,-0.22120575408738646,0.664371579769027,-1.2777580503203763,0.32606001517437366,-0.4655101590159525,-1.4666626645419272,0.11090629182778347,-0.24971457658139043,0.38237793073214293,-0.664868607935134,-1.04345656117869,-0.20240981833094737,-0.5961111960849541,0.232564161277286,-0.6593410445442961,1.657537338380496,0.5420803010423045,-0.6978089792481875,-1.2438062887893817,0.7182952259984872,0.008318341784649243,0.2199456348999192,-0.9089795688452417,-0.22554666091287698,-1.2943574188345595,0.9699427303480548,-0.4438078383492977,-0.9823729582593329,0.3671544615774909,-0.06109178872993163,-0.6192242258845211,-0.6923055244227372,-0.2746437597436891,0.9615122433164152,1.2181657569728015,-0.22661816467205909,0.7202986919942499,0.07983704871266654,1.34824186696018,-0.4284944404893419,0.3590858150021679,-0.3231396359646259,2.2563827537452497,0.502247899213,-0.7366038161541381,-0.024004004047459306,1.2883705065697146,-0.7804435748159144,1.155689603193924,1.0983461249385074,-1.2861338744720516,-1.6762738768398917,0.9525885977864998,-0.26599964868283815,-1.3778113098652691,-0.33034032311821004,-1.050115712852001,1.4938415260617979,-0.10050895084058643,-0.7460550448076628,1.108429664498798,0.0723888839691167,-0.8953008039722155,-0.040783438725866115,0.10538201308219737,2.029033128217567,-1.0503453095929864,-1.9784068857056392,-1.4849757135245059,-1.8904215951212244,-1.2155559800932172,-0.6318511253544088,-0.6452272612615507,-0.2677007086289853,0.848171520491443,1.5747861882646939,-0.7905511124729712,-1.0827333371860863,1.1274376673706958,1.2031033261152475,0.904185650424231,-0.7709267806415823,0.3873920752844552,-0.5333164477633547,-0.6492381325890819,-0.6351218509242998,2.4261594213372852,-0.8978091086286495,-0.7403499181130537,0.9104299321439532,1.4223704503480634,0.7282337456890993,-0.11607753613264675,-0.1983049360963995,1.1825650058129158,0.11710611958833618,-0.7155303433382242,0.23185245519729353,1.0523859878745776,-0.20855283222525256,1.3001821597141032,-0.4917465377423272,-0.09600990422293346,0.38086687027302313,-0.7422322987839413,-0.44317499934747523,-1.2740518840608401,0.7034867753914955,-0.8841789648441075,-0.08807176486966085,1.6903449375223276,1.2854843791954156,-1.2997680290933475,1.1367579810751147,1.0397144417251185,0.866864682944892,0.863251580709486,0.24014260834670836,0.07260639334541842,0.10403283861001181,-1.249413863547313,-1.2328425630053241,-0.28556601533995024,-1.417708972369858,0.1518321795283229,-1.0184602958342872,0.10765223116824461,-0.27019318470183895,0.915791334843427,0.4936114977447626,0.10533241662054244,-0.15704919721454821,1.3380596205973514,0.23953859608597305,-1.0498814282673035,-0.41991006419920024,2.13558941838954,0.2780569635330181,2.091851691986278,0.19808772900030808,0.8916447901500452,-0.7127825895829448,0.02012299572785587,-1.9454195002376689,-0.85026639559221,-1.2260699689527468,-1.1645063136937233,-0.6481388495114446,-0.3771828060817178,0.4076585706425955,0.3920323517598621,0.04366240901321824,0.5477385278800722,1.8142850436818458,-1.5307611872328397,1.4641620824276715,-2.2859475622073693,-1.8442686154911807,-1.249869650713371,-1.7311538325366738,-0.5361510388539894,-0.6964345412070111,-0.19915937996992542,1.608580683059524,0.6198418913561267,-0.7843429527031286,-0.21583139584192015,0.701718982636522,0.12478402281881626,-1.3667811432143158,0.036585830932125134,-0.4170623509834924,0.9413409976794962,0.11879043422844761,0.4571779144472587,-0.5032613683472675,-2.2412346482298338,-0.10792739825198212,0.5641566640576859,0.3667151217847386,-0.7122912632307866,-0.24924423630005935,-1.3429098816851988,1.2812694866132952,-0.19333771526645888,1.371645963081688,-0.9437662586504306,-0.6608451628333467,-1.3828985210611557,-1.2269717541399217,-0.7326206608836876,-1.62188936508415,-0.4439697813782221,-0.12349654360814576,-0.5544362502564822,-0.055256600978816295,0.6204074047365407,0.27100061176925483,-0.624994728957198,-1.284371885881545,0.17356914216120015,1.3646166433258857,-1.1920446444807182,2.3835755077494616,0.3121230283586729,-0.16654600032048508,-1.3063888243050397,-2.228287825124442,1.9007083998817647,0.3418769033754363,-0.424618415341262,0.5443267418984542,-0.00010401804929605075,0.07116904326201431,-0.6621992835742709,-1.4368439685196535,0.6240917647611035,1.0928859633844814,0.33039602750275043,1.7399464926526715,-0.6992307549448366,-1.2079872394988145,0.3264771239832723,-1.7413794850300857,0.044622955859156536,0.11850827485793769,-2.518328448149308,0.6526481393804933,0.506037222774653,0.5806676236523655,-0.4674140142310515,1.1333123487810637,1.0403021964984536,0.7336212093230325,0.5970784472987493,-0.269288364234171,0.292070676007821,-0.2841629470707195,0.4539388846776862,1.7733734644444576,0.8685552465957886,-0.6074560533417794,0.21190780561699116,-1.1422173702370926,1.3602961213823674,0.3799428610876058,-0.02756175631332238,1.2353430043868414,-1.1163836148401305,0.6848834353837993,0.8633758474143418,0.16594825802518404,-1.3209267840253889,-2.845504745320553,0.9040095306503325,-0.11800753388703235,0.537800389851838,0.6223397493436164,0.9958710390248733,-1.7842697338006064,-0.328425340143425,-0.4318390870204909,0.5864586843776405,-1.1801444899657938,-1.3012484512791025,-1.083546753959115,-0.13131692854064073,-1.2761737822022494,1.4423709411471852,1.5159176742063791,1.1130037639959887,0.5395390595225241,1.3790960770447618,0.3344902654227891,-0.6595747430791931,-2.439066689039506,-0.714836853309759,0.41313430275308843,-0.47142902628326455,-0.005950968283466799,-0.20402164046673532,0.48138755907562625,-1.0955679093342272,0.7207415669089422,-0.07472249195227636,0.3553969620994197,-0.6001149336775449,0.8977395921495139,-2.8033004147464875,-0.8829379618609471,-0.5916777636826303,-1.134302653720978,1.5827263083630745,0.7783267402011951,1.038456001474607,0.8303827860283866,1.685823927955958,-0.9660473618553747,0.15321463507897962,-0.4572993707398608,0.09431804227379235,-0.5521798642683317,-1.1440904799570963,-1.0574263381175752,0.14067276119479546,0.13007211772961896,0.27506547312954055,0.9907722362389746,-1.4992681689498781,-1.926435204522045,0.6375112531060937,1.2840669358874854,-1.2296705423542869,1.6177788142394738,-0.8186918571058579,-0.9019572730484506,1.672816842203479,1.2672194225912699,-0.9181455141455644,0.9036444196045265,0.7496283143962058,1.5119029443467293,-0.5106140716320733,0.10403414719746133,0.9001677225825931,0.47032333066213583,-0.8906133320237833,-1.2701304509736002,0.3868278895871193,0.5400017364404325,0.5008389527840982,0.31383133998714163,0.7970025857470795,0.36711119892548305,-0.8792242129008536,-0.4449197985443681,0.29905087958418164,0.03839385731711896,0.8503485321659517,0.047186838881190796,1.4865984853942549,-0.33176896253794236,0.7501338160145424,-0.3892749103757196,-0.42039684758170986,0.28798919364412123,-1.346599504083536,0.3780525761675167,0.8090436792775463,0.7188976034122334,-1.0447466235872802,0.1874982726508173,0.32482317895138907,1.0603377074861033,1.7632112177277879,0.21030029342934353,-0.5575640032912147,-0.8649642086116662,0.47137592216310115,-0.48293207610066313,0.8631941931831485,1.1224719293134622,1.043568825602903,1.410385115199672,1.877709801733908,-0.6610958941719197,-0.4705694672200348,-0.5636754420361996,0.0637068780527871,0.5787038673534821,-0.053510580086985934,1.0660857426170693,-0.7552797659559808,-0.4451400219586452,-0.3409180263631076,-0.6199680098986966,-1.6540890490370332,-0.2623504149110018,-0.7589370727530406,0.8191266518776412,-0.16061903107329703,0.22852238435844133,0.06745892970558375,-1.368730114011909,-0.10741069229326987,0.26621721525353603,0.7534659292386732,-0.6851762971372171,-0.46344572138751866,0.13415513642431573,-2.583986946605407,-0.787847094134434,2.6394866445335707,0.8271070314106831,0.20388807460014569,0.32540913520045756,0.17939857445819585,-0.45024346325588627,-0.6305881624742058,0.15248657054572165,0.32666965855661645,-1.0634039088042615,0.8912406494772648,0.5498611363695515,-1.356162745775132,1.414647903957677,-0.5740471114289495,1.3563725855381614,0.4877546464974836,1.5215769624654987,-0.4854969981731148,0.1558844772439965,-1.3278223860649871,0.3232607847163006,-0.21160787496478825,1.150193489011934,0.09277701824032443,-0.8241603244897717,-1.2681663381880133,0.5415139856900167,0.5144863829620158,-0.057043250183625646,0.2614431318399595,0.4991313027344452,-0.2658753988915161,0.6916473113420724,-0.42605495344449823,-0.37785079303671254,-2.0732364128536545,-0.6629417577621359,-1.5350248812348726,0.9521351821196945,0.702262055203294,-1.3559376812190918,1.4136441741472356,0.7353937284037397,-0.5482405910515724,-0.42012382688972205,1.2240492586189513,0.48952566188821584,-1.6721506088369875,-1.026810949338247,0.9193837199777605,-1.0359215976703704,-1.8280081027385662,0.7015187711417966,-1.2554947196388075,-0.006302891309756341,0.33903011999398697,-0.6225767171467255,0.3312780017816339,1.2362202956370836,0.21771105012153555,-0.4061596986235169,-0.12548463006012595,-0.5756003640565565,-0.06830870874391326,1.121169300779476,-0.13150126585557495,1.3621327790469844,-0.8267778893340564,0.13845845223356268,0.16851306064213512,1.4914641278639598,0.9201872000336052,1.508329032533887,-0.7353801642336196,1.1610293332562673,-0.20638331651775624,-0.4912056008079312,1.7470279715115404,0.21976276406830003,0.7427386299876214,-0.4062168801235728,1.3474122936399056,-1.4136916929848868,-0.8177481205030912,0.6606770044690949,-1.157768320296654,1.9269802280621784,0.8120391387699876,1.548464118922768,-0.307118011769101,-1.9830277303717498,-0.0744786606057585,-1.3110392309919525,-0.3478022561814494,0.015664526006006974,0.9075083728982513,-1.3098013695375457,0.2561278602793829,-0.01826098134340098,-1.4865762560963363,0.016034499862732865,1.7615754776990464,0.6199050874254632,1.8338108185924984,1.0571061782259954,0.5599384713536079,-0.3893187650199382,0.9940029808126842,0.013477303940503664,2.0377607009327017,2.5308787065755913,-0.6054975562734372,0.2999311403904518,0.30296546261824453,1.6029888965543715,0.08779201710648434,-1.1677631330282088,0.8137919457748294,-0.3649007172850142,-0.7090117979827809,-0.08018408554131023,0.12304064693631434,-1.5065515251135082,-0.6160356652487349,-0.11469339233259271,-1.873620737325972,0.4179905320438656,0.9808652019355125,0.41995996838902333,-0.7774557651622407,0.3424833839437926,1.5050973828739795,1.7937747065148426,-0.7071983211409623,0.22154852410157402,0.2727414670821545,0.7625989788475681,-0.7428135721917503,-0.7638928190426076,0.27360084247750416,-0.9235270899289248,-1.7969080692260273,0.267965526014529,-1.303745475043097,0.5462808410730302,-0.12700850918753898,0.03456716026976977,0.15701256470632505,0.3827775970220449,0.2122464347674598,-1.6351979590313022,-0.6380075954866351,-0.44634773314709525,-0.5279870548296764,-0.05037678065006553,0.11790242029408401,-1.5799562568835759,0.25089514656228273,1.4571352047347925,-2.113074441860619,1.7271924053608037,0.36386784288402707,2.907291026999425,0.6804010457196165,-0.41260125620709776,-0.49780250499986745,-1.3219661053695841,-0.8074961056916606,0.8231906011175155,-0.2585676193263562,1.7591103799753713,-1.06457257370179,-2.095157378558527,1.387081974601356,1.7656641525775922,-0.9974491278889677,-0.6780137897032645,-0.5118299697282469,0.6425632169375252,-1.3894062970731327,0.2109545700670454,-0.7092784028124202,1.15847235802864,1.3089937979201425,0.8706014100183417,0.06489785996927003,-0.6858434803258042,-1.172793185014941,-1.3036120080644327,0.6838349047663858,0.27466576428439554,-0.30275397774363044,-0.07977030136276138,-0.9359464372635821,0.5721022400367181,-1.1481635886940285,-0.6300817943764521,-1.0481236863833017,-0.6798915397142172,0.006542410034880621,-0.5993319063484119,-0.025376799657981258,-1.6765112336756818,-0.5443621087836549,-0.4233382380178485,-1.3468250348197188,-0.19649831251545227,1.0547096844826798,-1.3633381750608882,1.0975962791528744,0.9660995591367031,-1.007064247550309,1.2004821127020453,0.1360681204389481,-0.7748033468530608,-0.8328597435866644,-1.2763145445138746,0.5705777071862393,0.5863486897698007,-1.0689953548160065,0.538665167941589,-1.0214608555845812,-0.398197668200848,0.20549796617770652,-0.06452024655204638,0.1075793564010392,-0.32891000113994434,-0.5759536556817112,-0.532627715920207,1.0067155545573845,-0.7226764818728384,-1.7334146712135396,-0.41549326929059044,-0.06538157779666326,0.061777860243794,-0.3106989252255908,-0.9252059689249795,-0.7985666015019102,0.3323400666912249,1.316519200036799,0.28336740731047827,-1.0835260958350883,-0.3499257102973607,0.0034861602631200968,1.4148919394967785,-1.2510475730147013,-0.9821892544139873,-1.5877443483933427,0.24439970885366843,1.101521806293377,0.09871313800558758,-0.30354286214689924,0.2449924880179847,0.7344943363199202,-0.1028308401357466,0.6352196822982992,0.6232658514149657,0.9057771269527951,0.8988139019546664,-0.20184290813340539,0.7815642913776999,0.13948618326310902,-0.010567914599505615,-0.5657354290958145,1.8102482742031958,-0.2213315432280968,-0.9090592149009443,-0.3921486792084714,0.5778944292781905,0.04300755048963792,0.4779792651669978,-0.9799225663244395,0.21405117862480652,-0.7141258082507764,-1.4074695203053833,0.48825656427694775,0.789846716763804,-0.3472666784115845,0.9863863199566065,-0.042343005214706034,-0.14286824464897993,-0.9747253846245761,0.6607361188567517,-0.8060087024012271,2.2483883342927617,-0.7863094251917854,-1.5465289206169799,-1.3814492099715794,0.5889619519095762,-0.10312949061723917,0.10095530307107412,0.4759511832129312,-1.7941582833564151,0.24570818512546902,1.0988579919346122,0.7191888577877363,2.0070681309325655,1.805422980915505,0.018457612924099222,-2.1368275827261884,0.16718664825075935,0.37708082249498626,-0.5716379171265878,-0.1920789372976483,-0.4520870408713531,-0.16765579528556762,0.5483622221937594,-3.1791363414778577,-0.4972965028697312,0.9404877795949669,-1.003665379358114,0.21654208823322552,-0.9667690259676396,1.6401457275140918,-2.5428854490024575,0.07168629416509958,-2.6162117284005366,-1.303894348368807,1.108783782200427,-1.1478119663683373,1.084766380702391,-1.234069421918494,-0.4389166190024057,0.4155541999069505,0.8898902019806837,-0.047293387130108035,-1.5149770568702285,-0.4605169192951059,1.5125121645567192,0.3679933676321689,1.0558687551591281,-0.6503958561028222,-0.21975159465732855,0.3601996034118899,-0.6878067453039631,-1.199641805164816,-0.5853846585509898,-0.16984866418168565,0.7494508026092546,0.013366831663928252,-0.6766283730667996,0.957657299795899,-1.789716118660766,-1.1391644558625202,0.46471970756338765,-0.31940874198434516,0.45047981424440575,-1.026652018993471,-1.1538682730560355,-0.6911738670313002,-0.7809403457212123,-0.3992688395125156,-0.11243368567239485,-1.0257863777355922,0.33062775385841,1.7317520512887368,-0.039228788609250526,-1.3239075107732343,-1.6751832570005967,0.7684590318093232,0.75522662726581,0.2636168725293078,0.35981877198352324,-0.5418865909381214,1.0181281275042697,-2.2559526597908848,1.3660322032529106,0.38339910606057964,-0.38993552615511307,0.46028952819990604,-0.23299482142285868,-0.8936837290635783,0.6109893735000836,1.0633816453785676,-0.26963773276673425,0.13166039663042764,-1.0831267117573933,0.35112819708483894,0.16638632786466842,-0.23577756191475963,-0.05485509917496351,-0.007089615515903611,0.2052522791875815,-1.4741500210028176
0.2761764668937748,0.7408069518466159,-0.09640943429623139,-0.3808753428385825,-0.2983720917859939,0.5269374498877323,0.7017924220679048,-0.8251593435462752,-0.7410193998371983,0.39736264728034904,-0.2847581594473024,0.784561796344014,-1.2095604324592735,-0.2376711155404112,1.4314161951893878,-0.7169787833917787,1.3832859758308667,0.6151281574504684,1.3422268878516355,-1.6311892540334534,1.1856564015143822,0.15450783369666038,0.4524955639122078,-0.028147684955663905,0.23916826504540573,-1.434185861852824,-0.8125511499900931,0.041042722357148544,-1.8823097205093886,1.0451217297257707,-0.7069330011156033,-0.12033814567729992,0.08142707253997816,-0.1850873587968122,-0.08914236574427041,2.491233492388021,-0.5485912731402445,0.04811519298789091,0.5247138545398644,-0.7990252021587267,2.868444602329648,-0.2734631504440305,-0.5999512791006062,1.7440092050054152,0.9183961764509359,1.3755012311902102,0.857952045140518,0.2218239692005611,-1.85945319387005,-0.0995389199452104,-0.17289094216042059,1.4205459565315646,1.2218641079340222,-0.08771529537277512,1.2456105982350332,-0.7442417760116813,1.4230790922475656,-0.07451552155783492,0.028075606323503585,-0.22464734870664363,0.6516509444957356,0.2843375990879116,1.7525743964399696,-1.810255873026107,-1.9348253601936118,-0.3510190054912183,0.833575795795932,-1.461872211869979,-0.16696991309722184,1.008119125574996,1.081866968500086,-0.051746507283013034,0.1645936074329358,0.027505884061416814,-0.3364282825943714,0.9283760555277594,-1.3050264406489307,-0.6504470354072148,-0.687580933597645,-0.4609233841970622,-0.8434396987445745,0.3270337133019043,0.47690478764836575,-0.15755496489373574,0.31786739911266254,-1.382036874504744,1.617503773346302,-1.103668202831173,0.01891315348681486,0.3216702261832135,0.3038332668944351,0.44431354715590216,1.269586568829196,-1.1250870895066212,-1.0585483198153163,0.3504778568985645,2.1425781998075086,1.184937473055777,-0.2151190894393431,2.4527940130376393,-0.23904773821736378,1.1577709218923478,0.5736121472000424,1.645009963872484,0.7941837518211077,0.5905440665088585,1.293347091056246,-0.7886569018297276,1.1226458810740527,0.7435517075694152,-0.6184308926888308,0.1347229482079393,-0.35713865991519134,0.15725163053109456,1.1781423459697629,0.7074161608761673,0.6553966715153954,1.813961669653636,-0.6931348606330076,-0.8087650973190424,-0.5178463280863037,-0.45022022126705025,0.3049307126345061,1.3054267273481486,-0.7073434664790099,0.6174427746950126,1.6090895474594713,-0.8887123019959647,-1.1744284015886226,-1.4893400130490904,-0.9284788641010859,0.332340055410198,0.2167479081382481,0.6764765981828764,0.8171351291793008,-0.367450713009162,-0.36167430221596186,-1.3499530149161145,0.3398266073349257,-2.775071297276776,-0.929303012522612,-1.3466336121459312,0.7513861925948643,1.4077049985474102,0.944451692022989,0.5212325228821629,-1.3690254543679854,-0.34839732581159927,-0.5439652771479176,0.21906203854923034,-0.0014713949996356373,0.15413303163965753,0.9484683808516297,1.553256292938714,-0.8832300007035124,0.15502169294134482,0.47430386439594674,-0.3234337170761595,0.2303102986762855,-1.3227650268236726,-0.6282006135818764,-1.4052316991107183,0.2723233535947564,0.3585465197504988,0.6432382780455268,0.08315862291047213,1.0995002393839792,0.9124247355394778,-1.5140252512571617,1.4037760276156694,0.5152857497124708,-0.35937822543832526,0.3490386264856369,-1.0805766244279034,-0.9457507116676532,-1.671773687655978,-0.6815541453445125,-0.7822226796854727,1.404247102810637,1.5980464307488738,-0.12419138175379642,0.13407711036723763,2.575131873906977,0.5235146989564724,0.5379348366601192,0.21494077524461588,0.01055174521449899,-0.7931647303204583,0.020171433664507615,-0.3753065707557823,-0.16263886296601934,-0.8383787696951966,-0.6190896070525235,0.5531971861155806,0.7887861028128254,-1.2639727510999945,-0.020745655176524956,1.6022328911008885,0.8792597592683233,2.3014582089849744,-1.7587896463195083,-2.1246786158893953,-1.1816833038100465,-0.48982657575745003,-0.36646816327577275,-0.9639437387211156,-0.8488318690917426,-0.39659828741428577,-0.9234220096168566,0.10113601764420688,0.774151624380136,0.413522185809858,0.06717838757237393,0.8862651376148452,0.8034775528448652,-1.0214685581996832,0.2949127866960975,-0.54647729062821,-1.2833071820309931,-0.012321710360366674,1.2179100740296158,0.8736026891342179,0.650533062442416,-1.491449536659922,-0.026959725382775544,1.049544337478777,-1.0977760392069937,0.9937868402662666,-1.4246094568119105,-0.061261016642640935,-0.0766384406408284,-0.5614404757787097,1.1193500879406475,1.6160249249223195,0.76614424994524,-1.824545344006623,-0.2849949220492625,-0.08279581547026459,-0.17666373510563274,0.06538491805608268,-0.055634524964459954,-0.854098319589842,-1.3249240206137012,-0.6237310253759515,2.3349912803867645,-0.7440793496824744,0.35599921041985333,-0.9610654030755276,-0.8869588777981023,-0.894645492717966,-0.677958024075374,-0.3193940440144885,0.6878315821862915,0.025887488786769792,0.1994914310205618,0.12232937419375738,2.2211599917220273,0.5534951720345235,0.26630070616420465,-0.683815163315335,0.722302597512839,0.45632391797192884,1.434789203806839,-0.3982959346564428,-0.981725354065175,0.015449621835349705,-1.2194846354465143,-0.9023645106035998,-0.11531173256373531,1.8505480558674876,0.9481569867124074,-1.6674224729305063,-0.05831294781351776,1.0703672104421287,1.7582581713789907,-2.2351726090114985,-0.18668869417637574,-0.8100211556683488,0.902906731607342,1.5881541131576506,-0.19431015760798986,0.610044373394902,0.5997449515388176,0.5371986068606435,-0.5213315792716687,-0.10542280400088629,1.9639431849244304,-0.45343384609219867,0.11171639708650596,1.7446609383037013,1.7646960389981468,0.3492220211436694,-0.10578267866853551,0.28900983950184295,0.44330213621169284,1.2675582752759686,0.1179869091865921,0.5932386003069556,-0.43252063743780833,-0.780498668568944,0.42043330840289567,-1.3016714453559788,-1.1995473136178105,1.0996419880035568,-0.7165962580578827,-1.8541992087932122,0.8174841642452373,-1.0662243051727507,-1.2267097518726997,-0.1377723904045229,-1.2532473940753424,0.6791741195991662,0.5930377530992037,2.936541273354051,0.9421762968490419,-2.2566856700913456,0.48285183803718074,1.0274215737102792,0.3415087505166321,1.6501966851962182,0.46475717825552937,0.5983896699351732,2.308511082362755,-0.7652292741150334,-0.6418588420584646,0.2621584648596866,0.19806972334173575,-0.3043588242561061,1.14244469061105,0.40099053058588535,-1.0683999580291443,-1.4116572745822915,-0.4633928528128341,0.6755513148720212,-1.3108177922790072,-0.26555510682023026,0.34385040628097946,0.8835586909874622,0.1486973292757356,0.8543847281304077,-2.512417422339352,0.10097282218466933,-0.006767613555842371,-0.4173628596388342,2.188633650703762,1.6061604675660344,1.7394462986505332,2.47705514886908,0.5226992526636319,-1.3148833972752831,-1.8923034075330087,-0.7009703833742065,0.5357375613735201,0.05888791088760089,0.4845382115560741,0.27995591899944344,-0.7353109848749125,-1.882171542281815,1.3683902338986587,0.2415451733735376,0.23001888497021716,-0.4095794354844708,-0.9448862483644467,0.21453280454699852,-0.5702008303965307,-0.5105823570653776,0.2901839684694808,-0.4013153850049706,1.2286042162005373,0.6302718222930604,0.1489928199741378,0.09347803437910153,2.066178865208392,0.8177667054045985,0.041057905029359826,0.09493117604014449,1.4845247435710525,-1.1303970624398034,1.1164658361942554,-0.42491524012358584,-0.5383121737494674,0.32278148237988846,-0.010773549837372972,-0.4648037804763282,1.4640195719120699,-0.02828771879613333,-0.0758930887512923,2.0144831570496535,-0.8695685182427639,0.8777631203446212,-0.6647826449827365,0.41964739211299473,-0.2120158997552186,-0.4414011754095097,-0.3160017948416177,0.6752702964487147,-1.9227153908454098,0.4636792413693377,0.20302013356557339,-0.651655318369183,-2.4349930052457,0.22866744785130916,0.7336037783576701,-0.03698708199649386,0.2990820110066018,-0.7439808355810758,-0.2718355018946537,1.4410415967212953,-0.2053340372365243,-1.303882326291116,0.9916713729417607,0.3783562875626401,-0.8080247893710735,-1.1995790958616879,-0.2911119752543315,0.6803088373010985,-1.595130038190991,-0.4191392464030834,-1.6810597389954023,0.6092018035462534,-0.0625681293385874,-0.8240145553958126,-0.3557037095271457,0.3177048987087302,0.7094861658078724,1.1894566472999448,1.5130320451567907,1.1487604488124705,-0.9551789413932705,0.5836756641872826,2.00594311565558,0.749654837367125,0.6026209830500726,0.6794049422628666,0.7509059991544829,1.0024636112567837,1.0890525095171544,0.004475644176905364,0.8619436049259095,1.3138389202693133,-0.7932744775076737,0.6874494361203561,0.621862365112318,1.2313230650041456,-1.434992544539325,-0.2949413506396416,0.5749638873692309,-0.8557866322358254,-2.1294614652561203,0.4411584799108231,0.5762486568975759,1.1769201279062116,-1.9660104223965698,-1.2662289070627333,0.382604350471672,-0.16768805424627004,-0.7657828161842491,-0.5232030322060064,2.343740576218893,-0.7540252085639452,-1.65551423881802,-0.01973802601425922,0.33525559032823693,-0.3841840271140212,0.5445841292872575,-0.026818356159389916,1.2509278230959324,0.6580173538854249,0.4197031571898113,-1.1287580157359953,-1.0930225739516684,-1.1733809624060034,0.9585461578624885,0.5420949038088176,0.18883819884231964,0.1233026138132901,0.47284273222969553,0.444818732305218,0.6605377576333347,-1.172226390330106,0.7854615234841076,-0.46467945207330674,-0.5816418035405221,0.26659040946430757,-1.6591717995189181,0.10760643213684283,0.7956489527190967,1.5158926574028175,-0.6674151713648935,2.309524517539724,-0.6968485250365156,-1.3394410385614182,-0.24692185164259714,0.31577045093417194,0.5346906931524982,-0.6342966154848318,0.36430904661995395,0.031836353572450814,-0.3321635733971672,1.7782790457009288,1.3962914422340822,0.7034847717555353,0.8579305764781776,1.0359226899447387,-1.5785173585566952,0.6383684756946614,-0.38987983719061686,0.5390894260986192,0.03736478171827165,1.1722185829261804,0.13634123736310977,-0.37063002623215374,-1.8000763699228761,0.804447549650658,-0.4730348371231045,0.3686227594497756,-1.687429090034102,1.714107730375057,-1.8387888108991044,0.263375640206171,-0.8748657735444488,-0.12893583072977938,1.59011726643854,-1.3692272150094555,-1.4189315169643695,1.6049225535925005,0.05841124747714342,-0.25174528128937507,-0.012028704583348931,1.0452040982325372,1.10589800503528,-0.0242672821689962,-1.7693600063576993,-1.7689461236088537,-0.1976918627955824,-1.0646535898809075,-0.2402072019659631,0.6120555556149063,-1.7669968670454121,2.695420702005347,0.28971842823140037,-1.4128069245175006,-0.4936861303636108,1.081278195834414,1.2610571241433266,0.802091432718188,1.4993553747807227,-0.12332018905077649,0.5812890803541473,0.10180496083083182,-0.8009877835259425,-0.6430768342541497,0.44357732917723747,0.9027314106279363,1.4173022870806395,-0.056331658714998255,0.42442442031211897,1.5611587273955236,0.9515656505320975,0.9469554354048639,0.41766384612134816,1.4442221969754372,-0.2986570080642002,1.2032284321325486,-1.0872875621680675,0.6940024444234307,0.14550028457059336,-0.3544675799159476,2.3287823015777023,0.03476686152496138,0.22104538055735135,-0.8114754466267663,-0.5230727698092941,2.2715580247693183,-0.14268706754809388,-0.055314940239757485,-0.09554199756696038,0.409826358557454,-0.00455642145274552,0.26941384504364085,-0.7807839416941328,-1.021594144483714,0.22475647984306027,1.0787758067038082,-0.36410051800185395,-1.7254058488277886,1.3698043126509027,-2.1506573595884455,0.8622140316263354,1.5573913647591127,0.9148673200102378,0.8486139315774939,-0.3485278727660795,0.19306123442486114,0.8595647837806849,-1.9090900167572324,-0.05066593766634845,-1.9316446823713769,-0.49408279588325554,0.3324333231718289,0.44551606235692465,0.9355042478690435,0.6592491892281753,0.32111542110460906,-0.742397410251439,-1.3495374080614442,0.004207458038211859,-1.2976371619465625,2.239960177168369,0.6123120245131336,0.4070972602760092,0.41916403345080044,0.6373508739621603,-1.1454137903392128,1.0609902965970115,-0.5365248469662204,-0.3067029467715556,1.3277252031750901,-0.682069500590879,0.9051787859605563,0.7415543291947444,0.3456756545826218,0.6810243557483471,-0.26773363106479997,0.22884027970545112,-0.11519776673606233,1.536865457748575,-0.06023628627100736,0.039521342171196405,1.0877429349533645,0.21128137009972706,1.5050500613641316,0.4516073367868485,1.1370679293696366,-0.17438071842464778,-1.1015951258494407,0.043347534341238204,0.8350952127063173,-1.3751001090998176,0.7701269813384491,-1.3942975848566936,-1.5831592035359927,-2.1919022873836296,-0.9349243613157942,0.4531545683750783,-1.0805177508772155,1.3053681106085264,-0.6769728685657592,0.4926188943669777,-0.6997379392634342,0.39229609917488417,-0.15912763609011552,1.9018262291546841,0.02038995540813164,-0.5289049662630477,0.3582605023132583,-0.5580270404060639,-0.6025493840088532,-2.0752863343578745,-0.1060850139324194,0.30190826088553885,-0.22538446246874283,1.3702929127094403,0.6471015922545019,1.375526290840066,-0.8933159341884666,0.306715259110894,0.7740870639173622,0.43940769626705656,1.07358473363754,0.04329257865885956,0.6009089050237341,-0.4262715699826621,-0.19832764295308458,-0.7232316956863517,-0.43401377527857943,-0.29738049480741297,-0.522043614318396,-2.1853666347890637,-1.3643293199474869,-0.9092371377702688,-0.9781518123546667,-0.42424875052619687,1.318514377091484,-0.2654498327031781,1.2438283641419505,0.2873054336913996,0.30578798219123626,0.45447495167253404,0.4587422245802991,0.8083537579687239,-0.6699091858827111,1.3868636545211268,-1.0445366741649296,0.06851339300642136,2.5190432994625325,-0.18596382267677358,-0.5610225282356293,0.3776516547620073,0.41671608756691286,-0.5482225426097309,0.4754543136580396,-1.1550664878348595,-0.5231045408931468,0.046735434562159985,-0.33072360907171766,0.09422856736815649,-0.43186485093652816,-0.36202886276759094,0.7776020361823666,0.3451762810319847,-0.7630137802546485,-1.0796717801568851,-1.3339335574185915,0.9332436308038083,1.3387404511979943,-1.1446634641234676,0.41296526104665715,-2.040185883341513,0.9864138084704411,0.0996819006238686,0.85787917821002,-0.027115920821430245,0.20694712671223534,0.556354581620518,0.022196386681747393,0.08320289949359617,0.25085319559537306,-0.5373246058813446,0.4190489588465816,-0.6125930531568301,1.3379201680998578,-0.0034451757995488342,0.4434605938906902,0.12126748600465616,0.24098998224196405,-1.4968078811309498,1.6814929904481344,-0.4642481476396634,0.2800750210725783,1.708026554264118,2.321369549331422,0.6660593308751158,-0.7369544527301745,0.6825162915453965,0.2606891421023159,-0.37827118636762963,0.3766873657276804,0.7536825285983784,-2.134278733252678,-1.2377548242879408,0.8557238549215579,-0.3597836020542811,0.2529945993170482,-1.0474920326415604,-0.8527261388035456,-1.3019250847355979,0.005652283330542954,-1.091666359192075,0.04710296014735895,-0.5078016408728457,0.5917690800179979,0.6493306572340154,0.6214398334294405,-0.5710113929600347,0.8516553059289129,-0.04826413556823961,0.9912028731460606,-0.8614772927981874,0.5240403905930084,-0.8465104359466555,0.031546829276007785,-0.023936320265925674,-1.481028769799783,0.3977391349186441,1.3692889383372393,0.8697873930832214,0.6388985739850743,0.20624776100363781,-1.463720262105068,2.7662624068753905,1.5718031237932844,0.00669915325156756,0.7714366486377748
2.1183281142970034,1.4590646429654521,0.36252218392858254,1.2392184477816386,0.7526620452994631,1.2729398883936798,1.0603794048237305,-0.44129951512481813,-0.6357232053898842,-0.927526799592238,0.9832159286832948,0.30299922892481324,1.3089547975925933,-1.3111445547952885,0.2913811406875959,-0.562927143648786,-1.6950576224059282,1.1406570330682493,1.120705866179599,1.916304759173796,-0.09802699281914132,-3.3879607659439683,0.7645371865468001,-2.0399312989871974,0.6294086933280787,-0.7400680241235754,-0.6912202636680387,0.8078937906931638,-0.1333668424097347,-1.1031996533913646,0.9207965670459234,0.9372781498781444,-0.771729258061675,-1.359189058460814,-0.25001078797909454,-1.0725602981081441,0.25017323450215695,1.8161084709053328,-0.7218833016095045,-0.3577622651918872,-0.1582300272734978,-0.03256601271644784,-0.3538540153093737,-0.127252071554623,1.2702924875948833,0.3687465167696111,0.532881431769602,0.00014390153893941682,-0.635989962373791,0.3679715693043428,2.2490399672714525,1.912873255830256,0.5036323100755016,0.5955898639205053,-1.137542090133517,-1.5310114481805999,-1.15194525988405,-1.9389451107888909,0.6463489347141554,-0.6568591438865312,0.9721948155074577,0.15636813430282928,-0.37768432748579744,-0.5615372590398888,-0.050842576047268453,-0.6324423124435744,-0.44320130749707176,1.5269631409964817,0.23848499963465639,-0.5928550493644763,-1.5498383812192498,-0.12311350051979907,-0.9017714795250936,1.5605813385366953,-0.06380036998064775,-0.09175758264063794,-0.2660349018818691,1.964505129726917,-0.9034577853825898,-0.9167886487769725,-1.15577412652329,0.5255526333096473,-0.8813512237411885,-1.0045438417134982,-1.764406807553931,-0.32897898393784014,-1.2614012048439935,1.7525914684603046,0.47042596640221823,1.0457963904597383,1.1809458417314682,-0.8238792172571152,-0.4952377068524897,0.7885536454669321,1.7021963917449832,0.024870912079831633,0.05674789595474142,-0.04185909199891387,1.1370504296989212,0.04237400382746826,0.4685626462585988,0.6578169630377947,0.18065661735786104,1.7226934298691723,0.6058689696935522,-0.8609966265980564,-0.051141438474746385,0.9752356280637531,-0.8644068203768777,0.835219739654534,1.176042906710125,-0.6987087207273737,0.17985566753634505,0.6165779228382942,0.286009558039539,-0.1045515734400944,-1.0858931376571699,-0.2418272115884732,1.3603821385415538,0.3952119564683925,-1.57261152233838,0.8497946437509349,-0.9479182929831396,-1.2857122421971603,-0.5855186970572301,-0.49706889236746216,0.01978493606435416,-0.968564083214217,-1.4432612856543765,0.9488737283639427,0.7950906570058542,-0.12064022769377458,0.28862709286500066,-0.2105322959521849,-0.6152138183274378,0.03105497790362416,0.25177849894557075,-0.7483754246193105,0.6462195169704664,0.43430189968320726,-0.36298649363861546,-1.0063187803544607,-0.5254428738529331,-0.5148932378377963,-0.137316094732413,-1.302465467983634,-0.5108848311048693,0.5572361066130238,-0.25883537928783273,0.09398102302401357,0.5012628572139632,-0.4462152578238448,-1.5529760937737453,-1.568076238738235,-1.772904926769398,-0.1043975012052294,-0.8853356595849807,0.22299445626437264,0.7729858958127863,0.09880092706565137,-0.33971740769115905,2.7637985135712517,0.5768805549521645,0.9522493535985304,1.4157050033277014,0.8979126976154426,-1.347638090906467,1.42092645195933,0.16713980946832233,0.30870314779216246,0.5650626826891612,0.5896912484090387,-2.1846292501592943,-1.6626244372910899,-1.8857380981185385,0.24618762012850193,-0.9157020166450618,0.10827209133546187,1.778987914011124,0.3205826784025079,0.9883558944555165,1.014689170563287,-1.6402178105958038,-0.08990343110490491,0.7682745590406996,-1.376044050181347,0.8120651826641052,1.5372636421639752,0.6306791794780076,-0.3758118439695137,-0.9626000010108147,1.2602908793735503,1.2342144949627492,-0.7394551029749136,1.498691860669226,0.1791470184332323,-0.7739465154368971,0.4845280923821364,0.28312280181137167,1.0344533078793465,0.1868708751194488,0.5178177096101677,0.555776687000837,0.9148874941311828,-0.6180687183204963,0.8679075308134645,0.2389290663370928,-0.2434143332806367,-1.3051639581275403,-0.23380680214380162,-0.015847358552788602,0.9779006093534961,2.3624495649465254,-0.3270486870422652,0.9241776562249635,-0.568772178893153,0.6810128706749398,-0.17022405872284352,1.8186645773518348,-0.15211824954732098,-1.4618249048864358,0.36083311025222714,1.1032506895902805,0.1650134545981527,0.7359035532731594,0.23200186986271276,-0.8809812728455966,-0.9433874778346869,-0.3398001911963843,1.757718299636715,0.03530147588512772,-0.27837227841430734,0.6844331290568437,0.9662010193078137,0.01795727378227511,-0.4157809828786437,-1.126012685544926,-0.5468591109375899,0.6342109464975868,-0.0353010524004494,1.317163689444649,-0.3482747318430614,-1.2500471277576188,-0.6061855215578242,1.0774705908814437,0.8502975137372399,-0.4589110234202795,1.1343172365298977,0.2984999532714303,0.50884390860993,-1.5036179329093156,2.5210723416753402,-0.15604094348217176,1.3566605086573922,-0.9985096933255255,-1.447541048809185,-0.8024308156989921,-0.48403329845510973,0.8451086988609859,0.32400994167939534,0.36203992372055505,0.0032092419279177533,-1.1953409485932514,1.2505789739143855,0.23268999329411333,0.9459226949680685,0.4435702904803586,-0.056019439671521926,0.7406042074690925,0.8176914298750214,-2.1862624918512177,-0.013656510976663183,0.6005861140512011,-1.3090537441104007,-0.39281517198075694,-0.1081904367806114,-1.441022395054976,0.17476508547634464,1.6762355125854553,-1.2540813165286582,-0.7623959319736754,0.7008301881606422,0.936059336892287,-1.1899435373299687,-1.2011753704291632,-0.39406780651943674,0.7798381087898809,0.8562423572015821,1.659333047193742,2.4679792262177824,-0.6606394395350709,0.11479294405969392,1.4507944513899325,-0.4362743894881809,0.8136075141327419,0.59893055085775,0.06311086662850547,0.8151614613519146,-0.1969379991553066,0.9834671027146017,-0.6561254212075558,0.530217616032207,-1.4964666222855951,0.8868602900437487,1.5583596622970561,-1.191421678956791,1.0494234841316266,0.21891615915783175,-0.211931192189231,-0.7546669739785573,-1.6075771632276734,-1.2487354408159608,-0.8006823847580012,1.23904204371472,0.3293499876443547,1.9233312828293523,-0.09736264915054033,1.5161491330557968,1.1908936526387501,-1.0969035050219462,1.4478101035533457,0.9190805523559847,0.22290985289738402,-0.3170108978992916,-0.7361973838040746,0.3866332287596009,-1.3355647466725866,0.8657725752392386,-0.8099507724119661,-0.17831489294058994,0.36793536127737064,1.6927052608867381,-0.4350468661938469,0.01973570210647274,1.3381016491267446,1.0475823089234693,-0.28291374644814,0.9763735544736328,-0.22545149843997989,-0.28729945147985375,-0.18715792847412552,-0.10869091941494445,0.49898967354863527,0.41368392388239766,-0.6553933388390454,-1.6831787568301255,0.7926195109679752,0.23986587632737935,-0.6244071515340336,-0.8486564301377042,-0.8208777294315239,-1.3431695944547275,0.017623364517056952,-1.0628528628364833,0.4666110816054682,1.074883291196159,-0.06803102967992769,0.6719505581684101,0.700166866490238,-0.7761826530579071,-0.364254409373145,-0.27009661182039846,-1.7678468283460251,-0.025615275610329436,1.4215283456794052,-0.49233561343061416,-1.3194771517926351,-2.2609595394659445,-0.43594618708396676,-1.5571793824017177,1.7625331114613396,1.987036983324649,0.6356162875377032,1.0291847083278762,0.031082444388581005,-1.3247168209139686,0.12735043781278615,0.17970832132720874,1.043949607516112,-1.0824524541869227,0.6020442434737449,-0.6669668625746036,-1.383000218707806,1.1357801468851838,0.7394270259406591,-0.22877757077844746,0.30497397496699713,0.3330527371344763,1.8653440553771337,-1.2090570580248603,-0.8008784939148625,-0.11271341736053404,-0.3152034661549704,0.40749843754341986,-0.7416093341998709,2.127491842241679,-0.017851009753371703,-0.5776974786315698,-0.599080156362817,0.04232787101215879,-0.8335401678433005,0.8428809886135117,-0.2907309881379682,-1.0049470163353653,0.5284623592603648,-0.9298672523269697,-1.0477796981968792,0.012101990517681144,-1.228478354142125,1.1801271788108232,-0.8482212088124915,-2.1190432897557794,-0.6504273457589133,1.3727767404546136,-0.6186121490422661,0.7459835743307313,0.8307258393475226,-0.20907788533565222,-0.34636303844352634,0.5263072926217033,0.4282053022924993,-0.24013566475874093,0.9485817645506833,0.37104248797139167,-1.937452383393753,0.3266834788795449,0.08057914992152204,-0.1560711457621564,1.2680933436857729,1.579541487017555,-0.4033939961104654,1.0787303988707864,1.2100815207532465,-1.0202475399136097,-0.1782275295034053,-1.1022849748653634,-0.31797243744400266,0.814203033331742,1.5831905543416032,0.2384864435381449,-0.652423801039365,0.5681386052596211,-0.36195022800177834,0.17857986249928587,-0.28260927274787956,0.2773846201622009,1.1907423797727659,-1.3006647047253166,-1.7224839842374449,-0.03700071862446333,0.4179963686235335,0.37807579350279846,0.6417201191737447,-0.35571006326709265,0.006919531690492283,0.10868153525657197,-0.7235688072330124,1.1013078045695364,-0.060414972320250754,-0.1379553099160583,-0.21262754686322907,0.033636633768476795,2.1755663257285858,0.3783969818124223,0.3045622423061938,0.30991978136680737,0.3492195263756715,-0.563002653503421,0.568920049212404,-0.9594234098695227,0.1768259640872869,-0.17938641307732417,-1.0564575615941663,2.0323624137034386,-0.9013372708875294,-1.2203164278525411,2.07931262711901,-1.1884796179170076,0.7216937321667469,-0.07612954411609651,-0.2713096080068704,-0.6349808317175792,-0.2396748075292534,-1.0118625643316825,-0.6511534901077995,-0.6773639239283239,-0.6299903080583902,0.9409275366322456,1.1807830972066493,-1.8039658878400529,-0.9448734737898778,-0.7877854712484803,0.5035576688959202,-0.04156931726516216,0.28219692995441226,-1.7692605110085238,-0.8157747468168695,0.15454920076160822,-3.2280320450314517,0.7194970786912729,0.6917590865277439,-0.17866632480150274,-0.02092486922102849,0.29621958691487565,-0.8184970329244706,-0.5869071298905323,0.8588305895859336,0.06802854670931095,1.0427095450686603,0.21498799137270025,-0.41025993020144974,-0.6610047268199843,1.370556582588696,-0.05516385364188309,0.6505541429506846,0.11439821163654555,0.1369076157533868,0.5660468990153118,0.5583145309367649,-0.619083098340282,-0.2860788876143753,0.4302833982527439,0.4582446458078971,0.36322955871577917,-1.6322387444499875,1.1285747205458685,0.1537555275500675,0.8222720981432154,-0.28978209322636683,1.6053238272190984,-0.637196933055216,-0.7704869821436049,-1.2203756658126652,0.7839057227659809,-0.3634847527110643,0.18524239913154333,-0.2611139115502296,0.16763936103446198,-1.3892468124436415,0.881392158609669,-0.4677995419196792,-0.16314623277780313,0.0919263225391175,1.0434351505297839,-0.14277631700714236,-1.5406709279023918,-0.8367328762456973,2.4118884393392745,0.20007600240592416,-2.2684812123166362,2.2846216976923475,0.1960334221866439,2.3676735421282222,-0.1572378060011628,-0.4663201505557724,-1.1297115421954296,0.03885416663931653,1.2057388501551425,0.8982240261226968,0.44070083412982836,0.4367219016856442,-0.14364951184566574,0.876136774539621,0.03072252879939285,0.9350426950859823,-0.4366531136394717,1.7630679485659575,0.5994410595451756,-0.1314735702896562,-1.1560439715668926,-0.2025069810571286,-0.5253979746590753,1.114974858412053,-1.7480378897921198,-0.07442580431334533,-1.314057287043834,0.7878840530130513,-2.458304813657776,-1.6684264751765794,1.0144066784750203,0.03855333910903637,0.6000746546192229,0.07820150257998887,1.0497600732471377,1.1808145336813995,-0.09950830282852358,0.8201399044832275,0.9621029164449065,-0.6498651692357788,-1.4351433602895656,-2.968435688180882,0.49934314862563267,-0.9191068965992315,-2.1064284027800757,-0.4953772516780029,1.847768598280193,-0.3001064631006649,-1.0311170716059135,-0.5821240956058092,0.16114106752322366,-1.48430902456629,-0.3996659964333591,0.634631184009727,-0.0636736693840665,-0.6133344135730954,1.389006854321178,0.5756172313279567,0.29038078058167804,0.45183325360323584,-1.7525159505443122,1.2617337335822956,-0.6621002317331353,2.7654265932805764,2.165780885618036,1.289553904081246,-0.2543412107315343,0.09021280254904603,-1.3959449908712105,1.8499308316392267,-0.5525258135514717,0.7353043681962749,1.2873514295106796,1.0657765740852145,-0.8212589391080882,2.2073981952655677,-0.2070860395576412,-0.37932675308544545,0.9879994217664925,1.586335663378627,0.5142279307669568,0.21110368305998375,1.9008600725163594,-0.08515529368699502,-1.488245236880207,1.0575369563056964,1.331960040193866,-0.13426031465833999,0.6908423389855319,1.3058895398440389,-1.3724428826305561,0.5958038482272309,-0.0726452091191318,-0.4219183207801365,-0.04124518927437167,0.3296285482789459,1.221863039369086,-0.8331000214411057,-1.1695964246295538,-0.19124605198503808,-0.8124867736071719,-0.04620503762810576,0.2955629267008918,-1.007773483089601,-1.2724840143232865,0.9624788594235546,-0.22461538887450705,0.24187033558175608,-0.08981279498912545,-1.9201564132301001,-0.9018064819917225,0.0371372436455151,0.9257323950509785,1.715756628770049,0.3074076930305776,1.1983362389601637,-0.05141811740661558,-1.6608186968195098,0.8730964264077377,-0.3961851207993211,0.5095016806409096,-1.048970496381235,-0.54635250339147,-0.5942927515396205,1.3057694938176463,1.1206646263254694,0.5454884410251224,-0.3910687557943872,-0.5580445646303943,0.05163642641846198,0.1795901787173156,0.22227045302704157,0.04969152062031488,1.192982921860881,-0.01910157248240887,-0.44675918354178906,0.7970111253015129,0.6823616214462493,0.5945150526821932,1.2715784271334225,1.843112839904221,1.1538388363626915,0.25640802407615504,1.05555172238548,-1.399704802054793,-1.0148170888028074,1.732546543016147,1.301167476860937,0.5535758097527903,-0.4867758453403762,0.38133967478310704,2.026128393377802,-0.5177796219453117,-1.0440086668022706,1.543216626498203,0.9508142337223642,-0.2515661273331077,0.3916241889388586,2.1523195382094147,-1.2600203866062079,0.21604768585712358,-1.0311364885023346,0.511848311998441,1.2222291516838812,-0.01581323078591457,-1.337273790422026,-1.3401217375625498,-0.5999808005622147,-1.7573644896766916,2.227211936163674,0.07360799720019472,0.7609191084723678,0.789203065845646,0.9188300492628974,-0.011635047868896116,-0.0013508789542423225,-0.12444095985438286,0.24267481984065858,-1.0961562891605274,-0.31527856162593876,0.2272849949652899,-0.23456235570650563,-0.7108971696394505,0.4409980489029638,-0.9652092674998062,0.11896876918687509,0.5100158409879563,2.0596490680127344,-0.9379705621681639,0.6013928534823267,1.2754540884877996,0.4724396534180912,-0.861953997791256,-1.3884924956894444,-0.31861613402335903,0.577263666265275,-0.19407658468162883,-0.38338144273854347,1.6648066383979663,-1.3383317862277277,0.0920146755045258,0.321598641344129,0.9120385027870048,1.2672432252451278,-0.48199982587363455,1.332713789207936,0.8549557788084636,0.8790976457539437,-2.3963510000118573,0.03703700970388889,0.784308108195993,0.07315411673991147,0.22111338730760513,0.5831598931686585,-1.2131477443222434,1.491607956474033,-0.3207425531432064,1.7732144301838997,0.33101182011103697,0.6456896118479308,0.765777169451566,-2.4127446630497458,1.3249355427888263,0.6751802775287113,-0.6207780924058378,0.6620625149802845,0.16568217311741823,-0.2741483865640652,1.2397859552668307,-0.8676387509687116,0.4750693356590371,0.43365279827998565,-0.7360197264507394,-0.6669958499780317,0.04424355248188826
