0.5436705829194114,-2.221333826320449,1.5000851966168685,1.7869934709878954,-0.4526070470621672,-0.20739781981796837,-0.3630685149328293,-0.4978818407598348,-0.09435401106487583,0.43954759897357154,0.4852202496082031,-0.34468505784977727,1.6843469047678343,-1.1711946783433227,-0.43033569762686297,-0.44533460946788417,3.2425373432766715,-0.20015898074148344,-0.10595581109798638,-1.8205966319118327,-0.9973408088771224,-0.8708612500308803,1.286253271400389,0.47252687362753687,2.534127983244487,-1.1112733438462745,0.3852520069159356,0.14808436494429963,-0.5821906644305183,-0.4491360638484984,0.38422913586614144,-0.783715845678923,-1.132744965918799,0.32323856153846514,0.05507407560043624,-0.441960856835493,-0.3478432629425663,-0.9466935299914759,-1.4339218063466952,-0.93615186492514,0.3192464863820373,-0.3202654756214934,0.44742954700825904,0.36964318603208857,0.7449777323780283,1.2228410823742584,0.2384966632648613,-0.8540739450773592,-1.188840582202418,-2.4987033704115817,-0.6049019584679244,0.5548550467844537,1.2184043052016893,-0.059972126345885106,-1.3552826642101188,-0.6513442990454695,1.5057598773070386,0.19362757155834517,0.9590896372384636,1.3860058772036272,-0.6146301003138747,-0.7469720765520242,1.2367201293247532,-0.272662868424446,0.944940724153318,-0.9656992249802752,0.6361183650188158,-2.9867945734859895,0.4281418615591327,0.3573266365360479,0.6036040137913308,-0.14893562763886328,0.586813542950539,0.3162846363897285,-0.7357154861669154,-1.1832966429760976,0.7544558205815716,-1.4328669952242772,1.0950527659916078,-0.4731824148746384,0.501418274037317,0.8447458787157167,-0.06602261175650423,-0.4195441215931582,1.0632008412547067,0.7218750096246339,0.48889934947548236,-0.6108479287100563,-0.006464092576972312,-0.6840837814486432,-0.13691802394156047,2.801425688246865,-0.45707722222147384,0.36252034700434477,-0.818075718887521,0.8167324539907427,-1.0095177800897548,1.7619123962428254,0.882408716568551,0.4806025309327819,0.4877212550006232,-0.46555657417377394,1.9671501572382997,-1.0309721606810414,0.2923930755205171,0.9653495481533911,-0.875997434722643,-0.9721442612006439,1.2723701349651626,1.6859909484328384,-0.48119346242272854,-0.5816816747143987,-0.9654416589553888,-0.42234694541452733,-0.2175322701242009,0.2631483180744373,-1.0226496400749718,-1.25558876356009,0.46444549413732394,-0.40780664745079565,1.2163380010618885,-1.9516644453577152,-0.5176308783243879,0.4276080957816238,0.01756241311374503,0.62043042012522,0.19148684286736314,0.43370513006694417,-0.6468525926006281,-1.4035866098852907,-2.635926515139967,0.8422143257663399,-0.44446088110041787,0.3404203029142543,0.5154682206090551,-0.5738317522467838,-0.16154188933475724,-1.1598718317324186,-1.3510298371131364,-1.5376104758697478,-0.4347941332332038,0.45221503820629666,-0.7844004384512743,-0.46084691183414106,1.2922202749958218,-1.6914328888978742,0.02972985198557537,0.8096677051555714,0.7687146138158998,0.7474899034349142,0.5239167428070056,-0.4516504857003258,-1.3451974931776405,-0.6721039843066593,-0.6634012986387446,2.678604025085923,-0.12207837704606522,1.7263661226010814,-2.1646749064881257,-0.23617369385279058,0.9543033167007652,-0.7138610007858189,2.3024744374098494,0.8987619014436475,-0.42931061137599485,-0.09694794598269528,-1.6675282920844317,0.09507299933611434,-2.859382445342189,0.29934711460942964,1.225963738779027,0.27173042020662047,-0.01944729912804934,-0.31172190928619703,1.9425817299337889,1.1557698423928329,-0.6394325080384098,0.7689684459265843,0.17244301390339928,-1.0244135776055194,-1.149135424810078,1.093438028845394,0.5981858647325351,-1.157308169354336,-0.2698347484919756,0.36179226547929194,2.7532484694819526,0.08859759521916401,0.7225280388595031,0.1513508338205852,-0.06529028558443037,0.2058987029420855,-0.7090682481573758,0.6151983373490242,-1.2066857438927214,0.9434442169331412,1.716389083384344,-0.5362326349868268,-0.4201025102514528,-0.6556235436177024,-0.5337081573629014,1.2667597459422335,0.11128398503689588,-0.13975775952606737,1.1503558223069759,0.5860996010460358,0.40264540300285445,0.014643714640022305,-0.748443558262849,0.07464059272349649,-1.0761806256961053,1.6125790810371068,-1.3440265153356303,0.31167843237643034,-1.9235308915114593,-0.31586413581746353,0.36898864127844205,0.09753517280340726,0.4046677403055651,-1.1016668205329418,0.4921314492886805,-0.4479871373588132,0.6711025668876411,0.40185752622359155,-1.3784506036665145,0.7299348560963396,0.44690235109453524,0.9705820034758027,-0.44618720047194266,-0.6730647568881712,-1.7032512500508055,-1.606179577485284,-0.3819440213205954,0.3529327570024088,-0.4643391487493341,-0.7838991187799265,0.8668186229246548,-0.726622392635104,0.5097008871573663,1.3293684220712036,-0.24259967889497233,1.8673012973899907,-1.4589003543410137,-0.6939075685962334,-1.209736228244864,0.12537750956863083,-3.1563922974178187,-0.35094768584276076,0.2116503526497819,-0.756342060131311,-1.2005918006893312,1.4830447380750127,0.9772358139338257,0.1380226722035225,-3.091274832391074,0.13615379092240817,-0.9711572609207039,-1.3381667122828136,-1.1729836624393837,-0.7115202583334075,-0.11155556716235643,-0.6451762588075778,1.4946429210998209,-0.8693575423054423,-0.43915176387784605,0.49181349223530807,-1.4917877253577394,-0.9447896960333142,-0.4569592466169112,1.1588611701499598,0.3797923108450409,-1.1553090606676653,0.5274389883663192,1.7836331361762139,0.7442466406725146,-0.743196834879849,-0.46752921862366525,0.37134216029806283,-0.08151637201625937,1.9282740426654161,1.4302786010763437,1.364909711708362,1.1490453300329853,-0.7503845499524757,2.606149924799085,-0.7090106075285684,0.8081907043601584,1.4542260539319092,-0.4167604459351763,-0.5852173857805227,-0.584774350835304,-0.6824022219780351,0.7562823455055102,-0.6491889829352051,0.6250332535338049,0.25293997596077333,0.9492370495359198,-0.5466157101355731,-0.2791719175471605,-1.3760155604462336,-0.20559842255924432,-1.3534615666860879,-2.2490115856990656,-0.6616149921998448,-0.642035576952273,0.17228701815162692,0.8765515951344057,0.7273295806282893,0.34008701788593265,-1.7146297419001522,-0.8944948854730043,-0.4156389109812559,-1.4277898804458957,1.7601592863633826,-0.7704854528929839,0.8558701553554094,0.4924240735171047,0.02178183701026188,0.6179816508460151,-1.2037771433325433,1.1053601694193353,-1.1380303825126168,0.4231597468606291,1.6433577244285682,-1.9452709743576984,-0.6863513086920665,-2.80526660890416,-1.802907281516732,-0.09444603809543506,-0.6464757002102682,1.0891825467840588,0.08599019205545265,-0.291205238667722,-2.670342921180019,-0.8987452105458084,-2.962341587679171,1.2679435273373927,-1.428515946351215,-1.2982081320832464,0.1927960079701361,-0.11047302270050276,-2.2115780118416613,1.058450545118539,-0.31925953766981535,-0.07112374941700671,0.06981787809300126,0.7691461238592497,-0.7119384008164032,-0.9425871670130149,0.2852230477701503,0.0784665775651872,0.7573677908121117,0.2950837694531684,-0.17585033975744516,0.3950421465085057,0.07532504610742768,0.12391348229249906,0.5316551019729451,-1.5326582276291978,-0.06174282225824679,-0.13058567912237332,-0.5882216744612827,0.0259367834189176,0.5637452523451045,-0.11052329509431703,0.9681441632360521,0.5210955687826517,-1.877417511216821,-0.05190052084233262,-0.4870323999206244,0.34132879065277455,0.2231784658935599,-0.36245170156738465,0.5595031130023398,-1.463374489156681,1.4239090027108792,-1.4988364252506712,-1.0764472182471347,0.5179221182247532,1.4695839122551444,0.7068559436123086,-0.3208059049766364,0.05431706729585863,-0.029324178075540427,0.783847257554465,-1.5739911379125646,0.331168685541333,1.1844856132551964,1.7157984985734074,0.21619643188704293,-1.3732667658505666,0.6448596661756848,-1.443723699398054,0.20790432181215698,-0.2362937853710446,-0.10099161943088719,-0.5515305962646184,-2.3650218225431563,1.6174685859401607,-1.0720677385869894,3.19419630834294,0.08695726503204071,0.21471308727818614,-0.9315000050449684,-0.5290247255176749,0.3154578437251734,-0.16130409413011562,-0.2343185685668538,0.42404093027400497,-0.3662803672957227,-0.2894123652153515,1.823901134549586,0.2539349448114296,-0.22023791301768728,0.755631489801456,-2.5729273303961486,-1.321074317901597,0.894677578275085,-0.8639399848072569,0.9155713533843992,0.16456285739800605,0.6419790904184157,0.8537314287303004,-1.8817891857858546,1.0910841933761009,-0.4576487463800645,0.6343296087895245,0.252352395779046,-1.9078868515579779,-0.23604272244127697,-0.6925463622680195,-0.09665849355766871,-0.1990402954248067,0.7354081265738814,-0.40341361735695924,1.0499535911856421,-0.36034587152166564,0.7333097470114348,0.00716571291312071,-0.21605567003349183,-1.0914926140002315,-1.0429102088519087,0.5269195086746311,-0.28849970152088183,-1.1412451156896455,-0.9600808121334192,-0.45679488066413076,-0.9747146600458875,1.733354719976952,-1.116637677488692,-1.3164503321243453,-1.3401427824028342,-0.6104412041858632,-0.0490636912746231,-0.4312309784267307,0.03431536902011002,-0.45692374003255276,0.37864806666152784,-2.4728286650418325,0.125021470736821,-0.4590700638559544,0.6020303111874454,-0.686395319148409,-0.7415829765139913,-0.43770877048794055,0.39937804810047317,-0.1103442724522882,1.299482654147187,-1.4986142418474897,-2.8848308102179065,1.4770497358593127,0.05432412593755347,2.0033094592927694,1.0477959681288616,0.39508466456164715,-0.9517314782409434,-0.2539396124648577,0.9671580910806974,-0.1838961714106843,-0.13842814707531284,1.5714844455180248,-1.3250524324134834,2.015884675023092,1.9711773421228178,-0.23016060077040504,-0.7627941096524864,-0.06014037134189271,0.7198491087849824,1.6850801488185614,-0.07889106085515346,-2.3054108227015835,-0.8857136722819098,-1.3362103713903848,-1.127055100031976,-0.27611281302924173,1.5972357311485377,-1.9114081156690856,-0.23267213598103276,-0.4773575622222465,-2.0172285480503445,-1.536075041859256,0.8752203972558136,-0.06747587825874855,-0.2242010473675179,1.3288883621588998,0.4091181396440181,-0.297512092664528,-0.39733972192661593,-0.3697644485752395,-1.0972879033638943,-0.929655779170813,0.526564458846541,-1.9676410993904268,-0.47012753096780335,-0.04494695899681887,-1.4144055732869145,-0.06180522715768777,0.3445761017015636,-0.2614741363540722,-0.122941002247684,-1.2878151653918033,0.6772152282033311,2.4185002060155454,-0.6563781296772865,0.8455675827924072,1.0855295289459885,-1.686251972727401,-1.8305497798676482,0.8049715111225483,-0.20716682290414482,0.17263856260086552,2.2354147267030404,-1.6516057820649175,0.9937265938596469,-1.3521600366905975,0.35907059859626267,-0.06285097386138873,-0.560117445642183,0.46491170779893787,-0.0948475684079446,-1.0896194395170051,-2.1689318569774523,-1.7838152049562361,0.13835491747241901,-0.8862612604149925,-0.33986391765359913,-0.6073827926913878,-0.9398810069045465,1.7031144684165682,-0.12603840505051647,-0.28064722205878156,-0.20556998152037206,-0.2783985155045338,-1.7789971126220567,0.29572288298456095,-1.651145552694243,-1.613747415726847,1.5555021051700175,-0.6678416739709438,0.5425431371132318,0.8635510236875462,1.3730014841485325,-0.762967805931313,1.139335903343407,0.4601281779370595,-0.3394955882102373,-0.9982461201871082,0.15081601414402654,-0.0997225909339979,0.09515742734534423,-0.4590540816506722,0.7907820476917178,-0.22879634985224054,1.1495113886352009,0.010801112632458327,-0.7157204814536124,0.19688525514866656,-0.5731132830289442,-0.800366530708609,0.6463820411322738,1.4901590112622876,0.19005949921060847,-0.3148145605144207,0.684649847904624,0.7674484462349389,0.8130647179532696,0.182707832980086,-0.44090017163815576,1.069501094441858,-0.5896230958394209,-1.2821047247351545,0.4008274164983582,-0.9735549002224078,0.3083896379741244,-0.6046777201146647,-0.043773026540354074,0.0605280338289642,0.11541681738955971,1.983630784552182,-0.3520606241467262,-2.404738414379963,0.406753348561825,-1.8019419124999256,0.36110260911401704,-0.9079385004602996,-0.07266861606878516,0.5357845220334494,-2.2359098762191754,0.39637439276353087,-0.6759021848206788,-0.9925614202150822,-1.615818824084287,0.46058749289723394,-0.9693099861574812,0.3105679847092495,-1.820174346598929,2.2892139378459744,-0.013708177485472548,0.10395152880331879,-0.10528902873564122,0.8756724849131035,-1.166836625873602,0.9704063776524355,0.8133801918692809,0.849258523550212,-0.7438208663797878,0.18292967601123483,-1.9330155019572894,0.14814627680568213,1.6676532715368604,-2.9938495425185345,1.7549631616229124,1.6973859761278849,-0.20435982902353572,-1.6843592764780246,0.8528247883450265,0.5525674170948692,2.253194904965116,-0.1998660522074295,-0.1436124406788222,-0.12041164327932119,0.7054739725626521,-0.6239828795062418,0.5103365784265314,-0.2438492349495881,-0.7121914478263518,0.776239201160341,-0.9562309807106839,-0.20244821612756975,-1.0464920501282051,0.1034405293476306,-0.5082850126749606,0.48436460380935237,1.0553131768884514,-0.4507980618205502,1.101219236379235,0.9584120812977664,0.18645946392000903,-0.3425889724081867,1.2433402035654777,-0.02324721901627704,-0.7175215584382112,0.6722893735563481,0.8385549682439306,-1.0674801436878407,-0.7078642694991875,0.05609107998996631,1.405321966891109,0.8406011919899457,-1.0856228558422532,-0.2810408075033145,2.5255070439230733,1.1018865887557876,-1.117356918847216,-0.2785945132684438,-0.5066240206176384,0.3026676559365357,-1.1507980724672588,-0.3486351038203967,0.8084587151437699,-0.39649212272276285,1.284646104212792,0.608603327811019,0.7786055548214024,-0.5613233633321666,-1.0517903608325365,-1.1818558291972039,-0.3053862196293149,0.3992137303936705,-0.45052908075869846,1.119917850912549,1.755734939996113,0.38773268063675764,-0.4155840866383306,1.5812885944363102,-0.3400059046275854,0.6552750767778502,-2.6233965587761143,0.41331200933790796,-1.5316530958954677,0.42759183111204857,-0.1008277563047152,-1.1580589293403671,1.4075782630350067,1.3902383087244778,1.2623006730770487,0.37102756718070784,-2.0938025022768527,0.21091823772693205,1.064791678446729,2.2288755954478305,1.5094757739043456,-1.0050647928999095,-0.11274348931473893,0.7753088174556022,-2.0546217940757576,-1.413808489701562,-1.115081553634205,0.028625914796202183,-1.9196100460571088,0.7787068484421089,1.592292175281625,0.8658748854390387,0.23850062415579865,0.7092839755850587,-0.6529422313448224,-0.7158182344127446,0.8053054920336962,1.8639738029548343,1.7012070340352567,0.8574545034874965,-0.2903931730608484,-0.805399017730369,-0.23320762284723415,0.5095252862650682,0.18409065629517465,0.19428585997939327,-0.9050165261339117,-0.5246011629290104,2.4371106558091737,-0.6016430415521742,-0.7063611893112389,0.13682840719599207,-2.1994932402644602,1.6202700463066178,0.6634425286577368,0.7338341622028769,0.29586820453464424,1.0614153024484898,-1.3041377604541822,-0.5018965281529986,-0.3175804974574955,-0.08074557900720855,-1.4922495446627233,-0.04316415786172618,-0.11401457362565415,0.5260644667811785,0.6904021468100578,-2.434734724282199,-1.047431613475076,0.26566588701049487,-0.5973837841521972,-0.3935631183326286,0.0017057087687802233,-2.508975041461898,-1.6061078728311557,-1.2655126316561758,-0.16234473393267845,0.30275909034341475,0.17602496793920344,-0.5287106799959257,0.7426184089672051,0.9326434415410374,-0.5526532575506904,0.7060939307562305,-0.24720258656144004,0.42365941791316336,0.41912416614011344,1.829020066809472,0.9015288199620155,-1.627979024356322,-0.5245242704227251,0.3065141200707253,-2.0921893728696137
-1.2549767463599923,0.8843946534396232,-1.0164883468947863,0.4149968416948303,0.45912665488063337,-1.6934008410628818,-0.8436689465574144,-0.7975310910102887,0.5656772452887032,-1.6143839065364964,0.46662254648150836,0.919771907840163,0.031594488741436576,-0.26060845717254844,-0.6805370452163844,0.9998585386340713,1.1014635532684018,-1.274919321208126,0.221258573288982,-0.33917636351649033,-1.1556596049342465,-0.09702185981256295,-0.24442786306353043,1.4964169338781796,-1.4516416268965604,-0.09761123749287974,1.064210741084986,0.5290306690387961,0.06704870517424152,-0.18562581082777652,-1.3810834954953548,0.30527095010124417,1.9011920840208538,-0.9507520733069532,0.5390604020485228,0.48414872346412247,0.6584025896462563,0.396257199675907,-0.8139073664127237,0.20206996946417735,-0.8258874983457679,-0.5633622793995856,-0.9818637832828202,-0.3166318992599887,-1.2360573146526612,-1.2036768759104735,-0.33396211629129297,-0.11593585671039008,0.7218464819798571,-0.21622906288261273,3.151094659750409,0.6393695186710686,0.507765875497334,0.8297825380996329,-0.21497117965448215,1.5543017216518922,-0.0033974262159585473,0.14121085552312448,1.023319792472681,-0.46502829896657844,0.6168873849518218,0.6826275474558514,-0.22893981713915676,1.4432982485888421,0.31539929018792284,-0.7776273551569451,-0.5391634498118711,-1.6593491833862084,0.7782926870218891,0.167986540203271,-1.63496439720738,1.122484949061933,-0.06506228810627873,-0.9926237114089517,0.40552794792392133,-0.08357658375810724,0.6733059098544457,0.10325676642180956,-1.2308853569646774,-0.011987354202566186,-0.5973420763382713,0.880211395945232,-0.1377145983351829,-0.9422608098600787,0.6074647620875484,-0.29706774807508146,-0.13575137889508956,-0.08133556222391163,-1.2806245303137478,-0.4739527242352141,-2.623716458532327,0.6633535387444252,0.7412527672051955,-0.3878956914760937,0.35849786815597473,0.37539452257799644,-1.8458135506241322,-0.36535630461598484,-1.03507234050109,0.26173156673699277,0.786073372147751,-1.8843290061690656,1.7589041673741623,0.1180573459161004,0.19690791543212616,0.6235753704369115,0.6087945790625297,0.7307522026386825,1.7602082062855007,-0.09343920912981933,-1.6391960774265202,0.621007623647247,-2.214422113491747,0.5034635958255703,1.9915662631225497,0.7944662665012604,-0.6875625540598758,-0.047680891486119766,-0.0028028442036475017,-0.10994126246795209,1.6095951098866674,0.20632073106428866,-2.2092955230771776,1.0649031640142617,0.8646790831529435,0.7491165392482173,-1.035303552599615,-0.036061013945282556,-1.5833423762320173,0.02294742502381164,-0.6785583270460191,-1.1205107267041374,-0.8520267874591323,-0.38483742897081513,-0.57135071231702,-0.7062114421845742,1.6500887529952946,1.2215854822558196,-0.03530497337803498,-0.2912915806336391,-1.6573462535507937,0.11635396129175608,-0.0990836001072903,0.4573853773543719,0.12258789908644975,-0.4650611994835349,0.17094199053523354,0.28346389694604557,0.6725962101819891,1.2335429637139534,-0.3762802334396812,0.4876640778520635,-0.8338267890972819,-0.20736255264661926,0.8385768967807133,1.2013287361280374,0.23686303026967293,0.6487368260208558,-0.17996805425307733,1.259294674831649,-1.115038955839175,1.914974335346565,1.5567094520414482,1.2998465027671227,-0.3584492297630511,-0.20798776752419942,-0.2603397186291728,-0.2814230898953964,0.738686766152485,-0.08981444676192113,0.2940081637129521,-0.5131530604203995,-0.5087465874563264,-2.0310827368396693,0.09909026648699577,-0.10725036308857176,-0.755119257191839,0.38873851997633585,1.5150283085281662,0.04945925446834909,1.1766557032969114,-0.5270629361224232,0.4583556866070466,-1.4268543539068945,0.5236559546835876,1.384887107908344,-0.22695675888334751,-0.16358400341439142,-0.4861617456721141,-1.5568226943779924,0.6631645065399076,-0.40290746192405585,-0.3835023224534445,-0.7327879926758183,-0.034964585774750936,-0.3968779056291475,2.503229994565963,-0.6389178794836173,-0.510580213085616,-1.5598382264409614,-1.4526279545491931,-2.045511257368602,0.16084747219782214,-0.14650731251711205,1.6832348528995809,-0.8466634617361227,1.8559111480223727,-0.3533578723398089,-0.5436857602367261,0.13001344695472777,0.3049130683709434,-0.17549893430022448,0.07858806575877364,1.0305760568031812,-0.014107791807867287,-1.2722612726711342,-0.44283529632867913,2.1609324200832325,2.084640221803435,0.5463288468977188,0.6581629731009656,1.4701125369120325,-0.5903769591653294,-0.17576164660059665,-0.7291704478107977,0.5240414135627214,1.1856190363175232,0.0855562687160003,-0.8457244303304736,0.042108426776409094,1.565429561891116,-0.03044491548069574,0.02866813789244377,0.30616787436561416,-0.9149961259837162,1.1748605892382795,-1.3548509209623458,-0.4735823692304497,0.22837131378068543,-1.165370260740544,0.20119999714284512,-0.5335802288214202,0.37845988420511845,-1.7817115469629097,0.3587330892565411,-0.908619114376802,-1.2217345340640828,-1.4966556413407832,-1.7144347959258739,-0.38691365204052786,0.21488966722030337,-0.5768770418866311,-0.3123799299467432,0.1225876187571649,1.2209143416255293,0.8430546951212058,-0.4689437677067223,0.7947011495760132,0.6489899515765167,0.06008584596413344,-0.6897248562730579,-0.6340945670585727,-1.522122175674862,-2.0535404845588716,-0.9711466882305065,-1.1582066600971972,-1.350919496002891,1.4673643092835618,0.9830271215763062,0.20025050035333566,-0.7211211219575171,0.53718122832039,0.8062591417095518,-0.6863474070336878,-0.7757305935330177,0.38717349943405927,0.8075618398756579,-0.21038335857542292,0.21570688266696753,-0.6341267506742329,1.1444920719312137,0.6511131012346086,1.3934018348381683,-0.20064415274154024,0.9946365596843553,-0.4725944055534637,0.15275471809979674,0.8035867904214704,0.6910055294174381,0.7176598181476253,1.8867000192986858,0.5075792891741988,0.7271059563214963,-0.25393194280386516,0.8962442836502941,0.6376938082067487,-0.1739310451038125,-1.679015115575657,1.831266642440589,0.6003439787812339,1.454897184830101,-0.211871504020285,0.45820236903828854,0.7507342785967925,0.3526840845005981,-0.038333925246985055,1.103984563811383,-0.38810189147961754,-0.3263445978909041,0.0473217444934006,-0.705863608120713,-1.7580352079009463,1.7508145189211006,-0.5682463747511214,0.07720810446744056,0.28692935142109666,-0.024063571154463167,-0.3864555920373663,0.3435915283924638,-0.815565641859253,0.1971981360815363,1.571689932996201,-0.7060221196556189,0.277172366889466,-0.20551516041418041,1.2598853777473813,0.008517857977631755,-0.7671075226316751,-0.2992494128824386,-0.42662692953583825,-0.024349701482203775,1.0795649730163992,-1.27461147324625,1.3571772361734793,0.4634742431822933,-1.1487625678771012,-0.3703400685040774,0.1021183998351581,-0.8594878576564356,-0.4713482154606419,1.062715372336683,1.6803397665818998,-0.8946194841659086,2.57267202724464,0.4593410664599356,-0.16935914261834695,-0.4687141840692962,-0.019401095544425557,-0.42962831621112413,-0.8438891160233734,0.6979330971507294,-0.3680719298175916,-0.5569091498181797,-0.7798385237773338,1.0023989213837332,-1.3617775534369336,-0.373590315947755,0.47187218800912356,-2.515222255215157,-0.21149997311092894,0.35247663675209717,-1.1227748725589684,-0.3760642017623826,-2.700761754345915,0.901431214428445,-1.8455818622891003,0.4127322436134282,-0.7412904960353671,0.47203054969108604,-0.19066917090816485,-0.8251389660367713,-0.46560405507135166,1.395010703984576,0.06432783420580164,-0.6716039158864717,1.6557805984050071,0.7131615801054194,1.0917303127717781,-0.8695915460990202,-0.5428624372425921,0.05542022293700072,-0.8547166827237228,-0.6132074670427712,0.2008282275490139,2.400992107115344,1.8422036608927292,0.26529683833838896,0.593340505820038,0.8261704520832881,-0.6579828428117146,-0.2486475509189695,0.05690277065156551,-0.5622698250891229,-0.5745177140524891,1.2247161753251932,0.4475990687263406,-1.6238887775329003,-0.8538487419639872,-1.6999861770774254,-0.00046169262700881426,-0.20234814138362173,-0.5099049823593841,-0.9369663525053709,-0.8615171368170966,0.11639871412954565,-0.4380165875302451,-0.23527591571598697,0.1513253816021414,-2.4067459272837066,0.7550637938020707,-0.786713300390004,0.824024665599805,-0.5793743722400403,-0.29129686751249073,-1.9256492842886084,0.6795418987896036,0.5360849219773209,-0.3687979413281457,-0.3410608689862026,0.386624317863801,0.8953719979611235,0.16170610436746402,1.203461943202051,0.0762476438741633,5.560022679330107e-05,0.8326824652935543,0.5663796120176922,1.9159889276892004,-0.893144406424553,1.1516632087451897,0.9936009567324644,0.7999170368840157,0.44095925953352694,-0.5056004142133865,1.0561743347000716,0.1863226644095445,0.48290735154421777,0.3636983740643986,-1.0198068200677741,1.0732397217250955,0.6227334771437086,1.273843439508011,-0.7449157788943275,0.4242931897264363,-0.46128598635608625,-1.7197769199970396,0.2697423353306117,-1.1448711081427707,0.2999078160106125,-0.3596960312720388,0.7207311701078556,-0.6805410557184448,-1.4345757383670183,-0.8730488837286472,0.419326493880067,-0.09477664311858185,-0.8727757593792772,1.406450407648265,-0.03058919419437748,-2.0007206888837104,2.175195260026146,0.04707673814750595,0.41582310219892993,0.4298622679196414,1.3220049805676608,0.2783771210069039,0.22432426967372948,0.22059541883183467,-0.6641359647038699,2.395603105898052,1.4377419980587491,0.032252029042909296,-0.02021069604575215,-0.7810133025225953,-0.8809270168922275,-0.5824406162536037,-1.1033320412112797,-1.2554926974474765,0.6411295981384919,1.2884439355990818,-0.8729575392814194,1.086123980686166,0.6258857424328447,-0.23633974237977703,-1.196058805492471,0.6179250325044863,0.1580858235741392,-1.301255024843733,-0.02147092591024397,1.094100723097195,-2.188764537539672,-0.7929370999582753,1.2236380997009129,0.5151068294231614,-1.7554890172116415,1.2697511977425406,-0.6963623593157139,-0.7416790278608577,0.5405323315779633,-0.4079528235063833,0.07769907928352737,-1.1233076087841962,0.34852285849174525,1.5060747477372152,1.9504588615477036,2.045184006240153,-0.017944163271787383,0.7529557239912411,0.152547156162582,-0.3850793424499495,-0.8711222424556601,0.19071744344279185,0.9989627859165383,1.5480602882244192,-0.9980218669404325,1.3907429332465457,-0.24944261549086152,-1.119448999312916,-0.6791807868362643,-0.792117359697839,1.8357737094656938,-0.5712113175397118,-1.0571725251374389,-0.6509691815094186,-0.52652576897002,-1.648770884313206,1.0369252093235775,0.7499867949332134,0.6809455402679063,-0.6114801063536245,0.6588593611147271,-0.36416726028762564,-1.9056265435708923,0.442612857806662,0.9296624174208172,1.558335415656683,-1.0073246023762956,-0.1714278546724984,1.045000753350892,-0.22268334993742075,0.7229942695904097,-0.27679836980431116,-0.8373336006774077,-1.2761897338839507,0.17745640538113022,0.7958700100922216,0.606627288637257,-0.16496558581653523,-0.21969104056078287,1.19098411291455,0.06499850066681839,-0.03936737809151793,-1.5136679582165666,-0.9265016000337213,1.2008347591496662,0.19147770874496775,0.736353414950435,-0.713974249634994,0.4073680067760834,-1.9767314706947847,-0.6639228536325518,0.5743295642256914,-0.4992562441186829,-2.1668538907024053,0.6066396481198851,0.7411899203278084,1.7412218197062888,-1.70980844567974,-0.3585894786109908,1.1113542602260345,0.2497210424466938,0.5097323551326833,-0.5185126997838083,0.03827400551242356,-0.18852878344461027,1.248158724564666,1.8994051289592715,-0.6847307126009338,-0.5988445516228315,0.8239588958695296,1.4881099056453795,0.158638828989925,-1.0010449986952574,1.3146963545080363,2.027884650088088,0.9966539117006312,1.6289003063005065,-0.5638283143345041,-0.2232632476264848,1.268609036760745,-1.3863744534959865,-1.1361964222106045,-0.46828634102378597,-0.3790622243424734,1.4630760005963614,0.3962460611311478,0.6732361454442003,-1.58452202437905,0.7286714239178942,0.511490116350375,-0.9598141184427228,-0.25644110177562895,1.6862316937088528,1.5960644648734166,1.2964606450416876,0.8044634354763687,1.11542533730504,-0.21527554773622665,-0.048018707039588285,0.5946440938700993,-0.9982300057617873,0.4916870942270377,0.7474600737077787,-0.7029397512534252,0.2825433976616473,0.7775081131517279,-0.8366068251912054,-0.3644337862384647,-1.0842278727939703,1.3537363066928687,-1.522430286002077,0.6397017651509026,-0.6956430709985064,-2.133847206484545,-2.6983042602497416,1.7486666740853323,0.5738232610395896,0.5362676933134009,1.2542066266526117,-1.2299178245313573,0.6385987819935025,-0.1423963801286555,0.531875106437975,0.3434117175552708,-0.7557270243717187,0.8711573045088701,-1.7917614699584739,-0.03661743904797488,0.3917558875104033,-0.1976403202356912,2.209805210556816,-0.3468294211668071,0.34576259328667136,-0.5506274929539215,1.446921885085779,-0.6981445544644489,-2.244977554867702,0.08495583250179996,-0.4042083172441421,0.17833946091038275,0.03264806042783858,0.49326834047719603,1.2327291460962386,-0.2681797260189154,0.3793955655258218,-1.144376128100321,-0.6610035872319228,0.36844575923367223,-0.7173180276945278,-0.6083593154675349,-0.08810067781467061,1.2236774354317814,-0.2056607068616976,-1.122748770336795,-0.7824331900756927,-1.5035125484154601,-0.16031720413235184,-0.16335596063588637,0.34033917602567715,-0.3137145010678816,0.0739234167425904,-1.5336560859618327,-0.7727287853280389,1.6282043779309248,-1.9171163266426738,2.8081188704118385,-1.6236700554760843,0.2663123487357459,-0.28201600259670956,-0.045880263080269365,-2.018029942181423,0.6970696310691915,-0.5955759846598201,0.8323092038916743,0.17463292344364525,-0.11298901051447804,0.5527920944836294,-0.09919724911675837,-2.6541418982713703,0.838538121327502,-1.1316657919665694,0.4620955449736424,-0.9104858502445742,1.197572448242019,2.2374968976600735,1.1543480577953327,-0.6692695922516357,1.1702880687955002,1.5872489183359744,-0.32329530587649397,2.2666765983708275,1.3950957511215807,0.0730102691832518,0.45883408882053434,-0.03004742200329358,0.8593812883367639,1.239530195444458,-0.6066062484476139,-1.1359847375968917,-0.04561308898457041,0.3224680816297149,0.9502523730542445,-0.025478572571593625,0.815738707058723,0.2459656066912476,0.3741387288250793,-0.09163498120631221,-1.1170772669777507,0.1624456534524443,-0.3757129210042284,0.738165163241151,0.9570049909543181,0.5121437578330748,2.034287505609194,-1.131322511531594,-0.22819682686334597,-0.30575447046157095,1.4226508717818245,-0.6752053427977368,1.6273056251097362,1.2842281378507778,-1.5731632067482613,-1.1609918722484358,-0.30147920639049536,-0.6675209349543298,1.6505438767511271,0.5117702999505871,1.7363926857515952,-1.829415073737518,0.5430899404720559,1.0054461519313693,-1.8489682082437304,0.24873326137481785,-0.13086249354797705,1.7161126797685313,0.17465813003304487,1.626984107377515,-0.061781036893143126,-0.9090233815505758,1.5490272882762428,-0.6287260372845233,1.4635648961055263,0.6610708982783678,-1.2723727987780507,-1.231147289629137,-1.8481227994589853,-0.7968493372370847,1.8026293152623638,-1.0949893829112307,-0.0957384412910628,0.9483865627129934,0.3081203887807487,0.9197612153352873,0.49639636326912995,0.6519996851695852,-0.6958681045971337,-1.7528255304457963,0.1949379439887732,0.4460991914649459,0.12273457306945079,0.5644926653689595,0.1671247471355321,-0.2741013125342633,-0.5301115936014179,0.925414236412759,2.2632584765612203,0.6439931077492993,0.5022800262849134,-0.9244036884375099,-0.23508280551297642,-1.8734973350529744,1.821599761784713,-1.296554924082424,1.831425872475479
0.6911873954512748,0.7791477186994477,-0.12362414235057248,1.106445436445336,-0.26377237761885336,-1.8969365046354536,0.33851004526411377,-1.929951803602801,-0.9276296287255248,0.6109653333250161,-0.1291630525961844,-1.4597857949010034,0.3078969533911219,0.29101537699094954,2.239338997234008,-0.9724957893384755,-0.45120055051563623,-0.8691689861630748,-0.9253320815908014,0.38982961204466,-0.1917573339505692,0.45372153035146867,0.21523058729841588,0.7033336459930913,1.249350003194776,0.13839112459537406,-0.5091055465487553,-0.5706176586814519,1.330987405247112,-1.0483870048007573,0.5675978000581833,-1.1748066010515246,1.1945168278486151,-1.7824740525322285,-1.1559119369704598,0.6780602603171728,0.3545379745752835,0.4531306720718912,-0.7335208470133764,-1.4930389463574245,0.23546074447121682,0.9710137829292044,-0.8358241065202121,0.9544382113939937,-1.2510137859809032,-0.6043437370581988,-1.2254924500703233,-0.4759954632073371,-0.024169712885143354,1.1061222688833006,-0.6887688871877198,-0.1363486677118477,-1.1926381578960716,-2.014337446123759,0.7719884682640283,0.8258882177309276,0.7938558577029428,0.1294549755235644,-0.04421625688142095,-0.48942216626417673,-0.5767938078482668,0.6883316213113991,-0.579630313166144,1.0252174463449022,0.6542081261235443,-2.714924910057524,1.194435227756799,-0.40450465418762677,0.5436004015916789,-0.006319272365937373,1.2072721771213397,0.08318686410088542,-1.6132648452939367,-1.2606664392233846,0.2782548140027126,0.9768424308108791,-0.6917789299917004,-1.9812278907127303,-0.8537919580092882,0.3387409706964761,0.6746334951856235,-0.018246645951334035,0.4588928153873773,-0.2571906211617364,1.7193038127010485,2.533108484942208,-1.0072389557778914,0.8068412281054349,-1.2330238907506796,0.6149922427740991,0.31125437282795554,0.23671446127466822,0.05450344811165303,1.4941432153143654,-0.5376017779894047,0.8816003366942937,0.9378426741049232,-0.9686792495209002,-0.8935955196999404,0.5497008477109557,-1.5589169862176147,1.8253372932585534,-0.6061394234306212,0.8160496206640241,-0.4156994706195722,-0.8837858416867513,-0.27680360402538134,0.5400575371458931,0.4249071759520657,-1.206488787347371,1.398715632692336,0.26057925631302287,-0.23813809099184813,0.5964714173638238,0.3229789662318209,0.24766116765894347,1.0439159531683477,1.049958215981943,1.232607768054203,0.45660827601532256,-0.4623155621916556,-0.506521519554865,0.9804528995184484,0.12960150458161285,-0.7467168883324543,-0.8569142205767764,1.8816731757955527,0.06117613108784393,0.5389399681321743,1.4743245452035283,-0.15874990595899305,0.3438257191317265,1.2292644660988339,-0.08221812150749196,0.5807002549433544,-0.6128530077617274,0.17925315034476147,0.7720484084351147,0.4207185223575557,0.44505390221684743,1.5857594053238706,0.1147856648871463,-0.4464845133356124,1.2643894425351871,0.3256304277661151,1.159255027316091,-0.7761597926184612,0.7829010396649018,0.38339230374249916,-0.1388553711563635,0.5199367369668383,1.1821133899646457,0.8103246624964892,0.25197665080010934,0.10785220430818174,-0.7526143010953186,0.13510773795981706,-0.9121756482764192,-1.058350556198892,5.64496388752495e-05,0.9906116479870906,1.0407229829968605,0.10972595965607018,0.29569623739261813,0.635057329581241,0.3646075751643499,1.2734141140148567,-2.7681935261625163,0.9647151360425436,0.4176453139917603,1.2074072402387757,-0.8028328522304158,1.371635669229955,-0.8869290690542558,0.5624699128766597,-0.22853876407477736,0.5767265206948909,0.6003938981411366,0.15737986991134179,-1.4181409335004844,-1.698288899573103,0.9884398275974738,-0.3383044416151169,0.6523810756802166,2.326857757666892,-1.2805072487437439,-0.42190082174036797,-0.775902053916309,0.3487010719319338,0.5938588486150125,1.8554668166611135,-0.21986725316657124,-0.26707755366812885,-0.0016012740640521602,0.483219486128336,0.32748932793066615,0.02887585252180547,0.2866175989144944,-0.825389568309171,0.4822905586263313,-0.3530775811832352,-1.0794067841907047,-0.07813814013328226,0.6400008150714698,0.9122201312670609,0.9610299173814271,0.313959545145071,-0.25745031815672975,-0.32627701459658814,0.8197239210848559,0.5501087253652995,0.7771827253549928,-1.3212316415267944,0.5446218417908705,-2.7071115364204106,0.7499175823174116,0.3067131490209295,0.38048833290479733,-0.4275139186247251,-0.7439190591554806,-0.3468517858853304,0.4664804960180564,1.182554534523564,0.7210584231364343,-0.735684051970709,-0.41638173410216917,1.1362435497287033,0.760120529220395,0.27612482528373494,-0.1408954308754714,-0.06578800240455117,0.8298061326881948,1.660241823995474,-0.6518938951088137,-0.6731351086553785,0.12477327534932338,-0.0338367214777991,0.24445834015552112,-0.21102069709668317,-1.310297543709025,1.4177565180157579,-0.14244922998748932,-1.4452081967227128,0.8693139530989963,0.7619935162157628,0.5519872309749856,0.2867404321252833,0.09770895621603326,-0.888949483510147,0.7335669826419151,1.11897537208778,0.02031155370491034,-0.6100489804461745,1.2101237633288406,-1.2794019865033375,0.14006169285364092,-1.5961028452306907,0.08411934703844336,1.0999581566522592,-1.638055680412395,1.2976268919352911,-1.0798454467337584,-0.8440872410541878,-1.408454972851117,-0.20076580234532082,0.17807902313187696,-0.38481592057268343,0.2848729936783125,-1.1525286984629686,2.316766147240581,0.31784287897820945,-0.014724757397175143,-0.418833768585731,-0.6287181668143953,0.7312761560350236,-0.24210903971911424,0.4097344511190634,-2.7954031030956155,0.24423722601474837,1.0210437067355884,-0.9368710523283259,-0.4282839420780627,0.008362975323924023,-2.5366952307024873,0.5150112096157947,-1.519596361333727,0.1442671109287925,0.01314444856329039,-0.773455886505072,-1.1152304806739086,0.6767836055487996,0.25169108111089133,-0.7907236594557872,0.02262610402386773,0.6666730815936813,0.7571800451618772,1.7165140932875642,-0.5256541690103148,1.536745450458529,0.8436786503418452,-0.4774400000343835,0.1237355747377246,0.9910308492831501,-1.4510587825650525,0.25434821263120605,-1.0819696248324113,1.66913016771505,-1.3025794901114824,-1.2952896537972551,-0.8331341453156295,-0.6507433092095603,-1.0592405571748684,2.0023809589869783,1.1809309083008472,0.5895593792093367,-1.6629505393876751,-1.4208103559570255,-0.3287439130599805,1.278294889277284,0.9427858639192686,-0.27801779906211926,1.5053856004596344,-1.5966761078295657,0.8977118194514011,1.3697204865207233,1.273585804920361,1.1978010173504894,-1.5678750412990146,0.8911129228318169,0.6075606211797293,-0.10596255119003496,-0.6360587369817851,0.5169785342738684,0.2016029199331287,-0.9746904693835432,-1.1907724296203728,1.3044776406073009,-1.5858539583483247,0.020244736246400465,-1.1579338571824502,0.07287604921010278,1.5949507571556092,-1.3084615659182302,-0.29832010901390266,-1.893930075973975,-0.8694143395537909,-1.3050038492729101,-0.7670022315115282,-0.30031201613171504,0.43207667137993094,-0.8311703860944131,2.8121492176117577,-0.4092944682823604,1.6805784953621978,-0.44198837971920657,-0.2536817246907034,0.3023800396412159,-1.5609368795248173,-0.22145272810440483,-1.4055585749960777,0.0785929507827732,-1.087042959229419,-1.1130747705299902,0.025969594004788973,0.900375478403032,-0.4267384610348605,0.23723418229225776,0.7545490582727857,1.6878153904856372,-0.20966969492715357,-0.5223076818980206,1.2914804019684594,-0.1204430410371423,1.2853053489467468,-0.16408897172480238,-1.1272864659490385,1.1223580828943989,-0.6472988955817318,-0.12774868984175752,-0.8123844161039313,-1.2444270774290849,-0.42910843584883934,0.237534241515922,-1.007567499552321,-0.43733122034206706,-1.5524078808428456,0.13325455217732327,-1.1257543309614984,-0.6544459336259066,1.2203923418302227,0.26521521778061213,1.4728805108979472,-2.6315051474999414,-1.792148170539015,0.1833459125731646,-0.6351632856964322,0.24389461304494167,0.8761377987208305,-0.9626873944561788,-0.5498084211364686,2.1070633098030944,-0.5146573153210413,-0.8698438172251632,0.052675682727475165,0.49166795840440325,1.389839591678974,-1.3325237442495008,-0.7229393265899371,0.09914898489569085,2.378835173337893,-0.1360499524822137,-0.07473007834410081,-0.22890379394050833,-0.2198298521677628,-0.07712428640399253,0.26722953466457305,0.024424812742579103,-2.4549458790924437,-0.626331115205501,0.23072978264234642,-0.08983960179413143,-0.426895847223224,1.2328613090306229,0.781416323824812,-1.8047284151606238,1.0315009187247035,2.198604257234955,0.7366084764008265,-0.9980745751470607,-0.6656386274397157,-0.8888411333810827,-0.655023550097139,-0.6595150299691392,-0.2025671223316876,0.08114357707671137,0.19774123897240575,-0.5437510936160058,-1.6737169326652563,1.4104519459364326,-0.41863136763094244,0.6488166623494659,-1.8594302804280496,1.4315513626877185,-0.2707557741332922,0.24406743748363946,-0.6057776235643371,1.8470571487303973,1.2615523092800736,-1.5127169025438882,-1.588536240665219,-0.7568717288303094,-0.7045568135543996,-1.7562611192061184,-0.2568664501391761,-1.3752916867602742,0.7303164256928911,-1.7714500356533083,-1.703597656616167,-0.2270125499930392,0.2526650873935659,-1.3098629436100082,-1.866141909252866,-0.5940066725660946,0.11632626501697704,-0.10390431490470321,0.47372328098249716,-0.3691775672413274,1.9263652453174116,0.16866151382932063,1.0500634826089557,-0.6519262187888519,0.08000538877635656,0.1518818750738247,0.6199450724484256,1.1015239359627922,-0.48229358199788047,-1.6099311543430688,0.44744384370158446,-0.18804489476482256,-0.6549624160730548,-0.07685207495364337,1.0362601566124845,-0.47410895461198616,1.3463785655636338,0.7979662198999617,-1.6776490352635152,0.7657481849201403,-0.7356837347568121,0.23779825351278583,1.508231254331069,-0.03707903573233389,-0.06700533959826813,0.09406923898357981,1.6514742471329917,-0.7427904241929151,-0.8421822322364267,-1.5609109610511245,-2.4574577497310175,0.01977274173443499,-0.5408290497988014,0.507878401696474,0.01622503500004003,0.6272389147005046,0.6874886946552565,-1.4771528427860554,-0.5319989225650272,0.4259857985345105,-0.27370929281525236,-0.8613421878919215,-0.544555592789347,1.0449872742130817,2.2549830741088184,1.0620679421578583,-0.48053332088701844,0.8351311253747897,-0.6229470979151254,-1.227753253067167,0.7900179068479285,-0.506984834572131,-0.4641840149089629,2.549279631920053,-0.15979296458532,-0.296884001892435,1.0423045870007968,1.5241730037384207,-0.6171176472141313,-1.341987069259415,-1.4920220995598057,0.028464729172286776,-1.8454995812341413,0.7991209336415748,-0.05632407349206914,2.1409954201625117,-0.015541172483345729,-2.4621740321190866,0.5837530477275212,0.4298401865567797,0.6685069076033902,0.373780360047653,0.351635950524879,2.3387053533936237,0.467347466367712,-0.5474658163309996,-0.12956192128028196,2.4712745640992364,1.1316051082023215,1.6000757120423499,-1.374971874627467,0.5421914103272814,0.9145097594505892,-0.31791914290535245,0.09835886715898337,2.1195766518280723,-0.12375309384280245,1.3149682752550689,-1.3094148577503004,-1.0315821485882026,-0.9285240807333447,1.0963976210779898,-1.040842022581542,-1.5517143894785395,-0.18086606337614483,-0.789358726236165,-0.037072265855076954,0.5050341026834749,0.776441463202696,-0.1119498530991123,-0.7112098887004873,-0.30991479480181455,-0.653694184137436,-1.1790453839466175,-0.728077012329527,-0.17377708625600027,-0.2000650787048189,-0.12426423110990312,-2.7820139332717093,0.40150712066678546,-1.276315715367403,0.07055070637384903,0.8421993218940027,1.88423589144856,-0.7781895396170697,1.3214489350884275,-1.0482249265676584,-0.7416988677231598,0.28770194137148064,-3.001554234800441,0.9819356411277638,0.22071423764634407,-1.4277032045843019,0.5467138321230134,-0.36054168293639494,0.2989443846833392,1.2392048325732483,0.026396169557107222,-1.0753643623109432,-0.0017661252274411429,-1.713777522551485,0.8895644118950399,-0.6194814762475381,-0.3846679194884907,-2.2794927615253506,0.7643988522156341,1.0957329244845104,0.24419519911005397,0.6829870500381489,0.46978031902752854,0.7338804800170824,0.3914356232699813,-0.9252270758205606,-1.5786283871880225,-0.8785314231618894,0.08994293063094268,-1.636169520580863,-0.9934677170847115,1.2261291175991018,-0.023995120646710864,0.8373040631465477,0.7046331958149148,0.26093138694240015,-0.3918872242329062,-0.7405759448125487,-0.3142181209888085,-1.137190921859567,0.629987816110059,1.5082283161412757,-0.4093222892808809,0.13524906484993582,0.006129289203408763,-0.7904447211892387,1.3155866756756858,0.09700008339860171,0.9988390742420322,-0.05240257863353225,1.6161192323973692,1.1301970850820418,1.0860391917789176,0.9534143744758031,-1.036404878378044,-0.5390220826029046,-0.15279610541405872,0.1630686759824545,1.5543156858618326,-0.4930233078594324,-0.5007088439980852,2.5560940686891476,-0.148291218152335,0.41609002466337436,-1.0397562303749275,-1.5755949087979022,0.2305704090951247,-1.1554826948468813,0.7813866673161803,0.08314493799200277,0.5385146965117706,0.5688443553879976,-0.3483463676184219,-0.15998837767687685,1.004750229616313,-0.5202918084613583,0.007927973587060582,-0.5125724007158353,-0.6480375390525487,-0.44595841980893,-0.6596527881120368,0.3860412215597005,0.9943661267102883,-0.8568751326698184,0.07470254923822187,-0.5877097665787901,-0.1647159716295889,1.5862969440471302,0.6279211216452715,0.4554302980338196,1.5033960130747583,-0.46372876554785974,-1.5638025775438238,0.4525354357995151,0.3147032641908603,0.6730490378047879,1.3665168088199022,-0.6423888711379268,-0.681226776133793,-0.03378095285922391,-1.1993036397282228,-0.7957934131492812,1.0251806488245148,-0.06234250339999697,0.08979669928658415,-0.30733236621582244,0.33578439542061544,-0.6810218869291849,-1.084879961091236,-0.24467292724020587,0.19593228313889055,0.03959758976768279,-0.0029817635277176622,0.6669897803310432,0.3097173457065816,-1.0378158420216852,0.880941455927422,0.06140688001423869,1.2692480774556125,-0.5634663926928901,0.14967110663956415,-0.09230404896377388,-0.0888721988941677,1.8965640869986535,0.8810968064063437,1.1777091119302114,1.5383399260062662,0.4395852717397413,-0.7293007116463922,-0.12880448376998663,-0.40000798535558746,1.873270019265962,0.9800569988651181,-1.901866056044907,0.35713597997524216,-1.208930578509139,1.441099108343996,-0.08451391321765264,-0.3949067517822096,-0.2572754702885531,-0.5416927371044725,0.38154401612992966,0.6159863636860411,-0.34227783406258905,0.9342726798344024,0.4832041834015811,-0.8118529955082395,1.5277790491790515,0.4799389505234007,-0.6242113804634364,-0.8146962107423037,-0.4984624176531025,1.2882013545460218,0.4535804063390786,0.27711498583091393,0.8167123077103949,0.21385619967509,-1.8543663925489842,0.6701945545232116,-1.2442419957840238,-0.38087058770484367,0.9829180618891558,0.3926612069289645,-0.6162045818584344,-0.7956922665102684,-1.155416751599922,-0.4550226291319738,-0.420677124166107,-0.5350653067084644,0.18057800987036424,-1.944137252175991,-1.8455644241558395,-0.650186349539752,-1.228023677337144,-0.01647090746233276,0.17173426905367217,0.8972205917831519,0.17943109601140667,-1.8692387486588289,1.4287190591657268,-0.9314902631955935,-1.9901445160541313,-0.7323340972504057,0.6750280148094837,0.1487627987485419,-0.9260942457722223,1.487174857271038,0.5700053363848476,0.2940989235371848,-1.2668132888657315,0.8903720218078517,0.14607164542877732,0.3135673725005202,-0.5591286282359541,-1.085012440260873,-0.4316179323445472,-1.0276476105592212,1.403578243201807,-0.6252707005844678,1.3508171286395665
-1.343599714934596,-3.288494054534604,-0.33706564345820145,-0.11261422462716046,1.1491443833223343,-0.22497397064072117,0.08156046194229245,-0.13148361860272803,-0.41971626117154515,-0.4352392789689522,-0.5470972721329097,-1.5698019695403513,0.7492676511658473,0.16191460446508127,1.7582535578704563,-0.2139495108276611,0.7692641290148086,0.2525364475674725,0.41898710134392236,0.17478086244519422,-0.11409503400680801,0.8716865566653673,-3.0503080679675976,0.6301998213132431,0.031285448165992165,0.13946568666802533,-0.046369803060649646,-0.5232574433365376,-0.012305057711856644,0.29752659735754083,-0.29388917064229075,0.6552902341474601,0.9251597737498507,-1.4889990012569776,0.43538750392561343,0.9489499977175658,-0.46973861766986647,0.3494540018191596,1.3996653324800739,0.43032680902209824,-1.5660537603199223,-0.32899444401260886,-0.05004655671869868,-0.5507704686515672,0.21334056835872786,-0.278962484321937,0.33699859730695025,0.249866797678222,0.5127566387871276,-0.39482239726005147,-0.03110660122077814,-0.3967409668798947,-0.6323754850231527,-0.5012551278757252,-0.4902835369469833,0.33706678669045925,0.030131922906950135,0.9620466884451171,1.5883834971830613,0.7522743267812207,0.23787550301546584,-0.3262137153454491,-1.9207827454368895,0.19604856179240812,-0.46347659655810886,-1.1824163704371664,0.8150690183836428,1.9641958519001745,-0.5560874305463285,0.3680812926907495,-1.4154004858141866,1.385084545209378,0.19288003348359795,0.5995796504702312,-0.7304262397612308,0.7486455598693933,0.9035421446938845,-0.05712746341744295,0.6298336167598101,0.6622602782396386,-0.32255885135782747,0.02013066459135585,0.5023817840130704,0.14847996204476868,0.2326273451806635,-0.6840651488176102,-0.3741728433916794,1.1085897168353078,0.7833759597622323,-1.460123745413301,-0.5711966707517078,1.9369211860068374,0.963440670496551,-0.612864225142748,-1.7072257458463183,0.5383351933631293,-1.0656935393236424,0.48527290658880506,-0.6076508158653394,0.016029023214315718,0.8746854718414163,-1.3872856511320335,-0.7824720178172878,0.24912643707885648,-0.20011777366523384,-0.5184441767434076,-0.2073811675881664,-0.5807928343565527,-1.0649234092827162,-0.301061055780397,1.4759491120690935,0.754190732401366,-0.054378119899557334,1.3079762850724206,1.3999523547831665,0.9956529852622392,0.2664072277427076,0.5783104386073091,-1.2280964717310896,-0.951843073809001,1.3507204993512194,0.5706454705722063,-0.32541172412263,-0.4190351931134249,-0.3085574762513498,1.1253320251501098,-1.1519129129836374,-0.3581290386258275,0.07144083790878371,-1.4665486385838762,0.7858902304822833,-1.3966890900783628,-0.7130547547871552,-0.9604164034254493,-0.644591226359546,-1.5066421029089703,-0.814498726014153,0.08104024937746045,-1.4416006311724723,-1.3455390375020633,-0.8098458519969406,-1.1564496868366105,0.06779102477845672,-1.160360329834883,0.04821537898936236,0.39180929271334114,-0.9342223837399664,0.8975820742430582,0.07458701524751987,0.21369946051282426,0.35049864968931527,0.09869676033456198,1.5301383851782442,-1.3088926666570404,0.5807600695914994,0.5487137250159912,1.914453029943679,0.9857355789925358,-0.9645703536884721,0.39113937536101245,0.3787035053182707,0.001113993084445966,0.36384063020695123,-0.15777161587115723,0.5729179297763052,-1.0148782075057667,0.051397449472221655,0.4730724099639667,0.1491513742778125,-0.6746665706456418,-0.5847003893832391,0.23496384444848747,-0.9811546835535285,0.6246522308671706,-0.8892230926675422,-0.17840734438015834,1.4519107285633144,1.361965585313671,0.5035606944117799,0.5646946087468518,-0.22011205045449972,0.5192721907974447,-0.3766586766552527,-2.4026466478328743,-0.8143952301988879,0.03887808609704427,1.397886002928287,1.1957804929566833,0.10851740607767034,2.3142552822101115,0.7629152960143953,0.9755167908308562,-1.058786233204264,-0.7501623222566127,-0.304319612496708,1.2915530467808896,-1.8165787656484014,0.7076492873819845,0.5861786182906065,-1.301003299537575,0.15883554828765,0.4952746460181915,0.5407001048304961,-1.3125476350324912,0.21591206174433722,-0.4882178765026728,-0.5075327873716176,0.17144986995614572,1.514039133213367,-0.346788098997539,0.4251464508991307,-0.8041629778851642,1.56593830323884,-1.0649004391020727,-0.24409187938631527,1.519023470169109,-1.2777440982833905,0.14536774895396748,0.47881052009526437,0.7302798866003813,-0.1692853972963323,2.666175083405955,1.3671995122722578,0.18881303094395605,1.1538681442812737,0.057820790022447256,0.4669586429325141,-0.6028768755319964,-0.7294361739611444,-0.31506059614359766,-1.8250762118752146,0.5463180303521857,-0.24264689375170378,0.46637208891268467,-0.7892783464577311,-0.8521407114579856,-0.6477329352392774,0.9009491966957837,-0.3203972164102462,0.29564394263266613,0.432500793063584,-0.5864118388848865,0.6303153870610351,-0.08655566829736057,0.10899564300997928,-0.914147194055735,-0.8395424098549233,-0.7168962074319382,-1.2401762091895603,-0.5632466029310976,-1.1399073644571067,1.3754122875624086,-0.07498609903922449,0.09392756191666635,-0.45632796790337277,2.705871983363073,1.3149764681036062,-2.0457414178386584,0.33478385694034757,0.49334812317135923,-2.0303738799524957,-0.2036395698736744,0.4248304190835065,0.8534983966739553,0.5195401683393042,3.360208877724026,-1.4652584577680907,-0.67477001463945,0.8756975419768049,-0.3163826101451577,-0.46244676251467876,-0.7770881217048329,0.1923341710260139,0.32913272489549483,-0.8536491081005634,-0.8482115857558519,0.7455874917079891,0.16982528156096072,0.15687995296105628,0.06124129085053578,-0.5682424944779388,-0.04002365778509951,1.265921197359685,-0.964853438433002,0.5830529996723927,-1.3896557081794572,0.44867623971704723,0.8303647917312466,1.2665454558458298,-1.4022578317912577,-2.0912422730017814,-1.5461804919355757,-0.38004836643934325,1.071450780891494,0.32611041042565647,2.123741088181781,-0.07555628701576352,-1.843056344142621,0.6148289093979409,0.12516730110710766,0.7726631296482649,-0.8831480780306464,-0.9627479045335421,-1.4187764982638191,1.488700582291941,0.8163934389351649,0.6959179810622848,0.40365688425248614,1.5144818500333026,0.34708521343893234,0.2032166984268765,0.3840954448861856,-0.48360246628516496,-1.1037209082157833,0.17557538340541037,-1.4638562755207003,-0.509366149295225,-1.7745671304532733,0.8379383776726973,-0.6910309094972936,-0.7799302588721243,0.30891694576197615,-0.36986313179945773,-1.3767885243387268,-0.44327134130645107,0.2597284753268599,-0.0900503299716318,-0.47299099093640057,-2.0953655589663476,-2.6098451678559202,0.10463687291317843,0.5358447889013606,1.390054310749502,-0.8341785371240399,0.23959227119505186,0.1658974450938043,0.7521557319416405,1.1447042756967756,0.6483035845152519,0.2515089571435452,1.0359059149506429,0.9728303741129253,-0.07189682492366352,-0.5567773164036104,-0.22673407573961063,1.9845004774410246,-0.7734472261593645,1.4328652731028217,-0.1925756166952688,0.8205179622759456,0.8177613191203041,2.098378225783677,-0.4615967721289241,1.2451897274614208,1.635238074534337,1.2384743831755505,0.4587637494492075,-0.1850577002248458,-0.48033457812758246,-0.23709275048431477,1.035160423943327,-0.5330186054741604,0.3254644638381331,-0.5995217422951759,0.39287534672731966,-0.4353935276506437,0.7933156128478196,1.4411043653960662,0.22726082269703066,-0.3875673319303353,0.4444611954448572,-0.18470076402370278,-0.3419111581444092,-1.621091815049413,-0.22863370891395765,0.6340690967414908,0.11435313689000542,-0.6683047126444066,0.7868021490682706,-1.1256595138222494,-1.3577670536766961,-1.002369026038374,-0.8470191788759341,1.2937681726030819,1.7702739283805347,-0.10587384602308439,-0.7595971897601181,-0.4485012202643676,-1.0589459069297396,-0.2673151783963199,-1.1882286817412555,-1.6123985130114296,0.22346674839831265,1.2959535776552171,0.5641826162246493,-0.48073488547281606,0.19251557544873665,0.6193095626116267,0.06602674051324446,0.36237595241325604,-1.631494261693015,0.35920246535516104,1.704245326453536,-0.6838983364772941,-0.08294041670262797,0.5735461220481926,-0.34619029294570736,-0.22305747900576917,-0.1151874067228779,1.0208121717900447,0.6645960654717904,-0.7113533536117462,0.9154670251973976,1.4375836927918368,0.9131172226308658,-0.35676572193776945,-0.7515365441755927,0.599150009173677,0.6454149038816166,-0.07341161045261743,-1.8419573294178142,-0.7156994177544826,-0.40840091700769166,0.666183431870559,2.5495582194346644,0.4383469259033513,1.056290315636495,-0.7614894521998133,0.36829431950378233,0.2774978989247412,-0.7487462288063448,-1.0005654875089087,0.09403838337304395,-1.436294269097342,-0.17787572179128625,-0.06674702343215529,-1.7109950769509261,2.4816243336441848,-2.0875648657629173,-0.16082992986751438,1.3926407417533957,-1.9782096609009918,-0.5099473578604261,0.5059027050022643,-0.8848486830205924,-0.7237142276333655,-0.06058563120002635,0.0531535392629206,1.632052196062652,0.08355401626545586,0.2228878859447399,0.6282932785180251,-0.9408462391252885,-0.8676125799239655,-0.017774475645324285,1.2755420643531519,1.3846451768816315,-1.030539577942382,0.6180424466117771,0.18279233860084942,-0.26059415633692823,1.8181907158621198,0.21920299745195976,-0.6525811783644145,-0.2634924390453029,-1.664571749847023,-0.1471860001823166,-0.8344708398337417,0.9154887542280946,-0.05971623624761278,0.620721169497785,-1.2125152135613069,-0.007007745757358931,-0.0029144212778677145,-0.3729735065835256,-2.0370538359612733,-1.5408983088930475,0.006491498962613051,-1.028319485385303,0.2898926448365486,-2.0725765375138185,-0.5728028831560568,0.3539307385555282,0.6975241155682325,-0.36879340740991806,0.6976551291663228,-0.24809037185044952,1.066383873117682,1.3855871300059603,0.38799938274439516,-1.2028010353441483,-0.7110865388702868,0.1823460112010929,-0.17567302894333678,-2.2878452617056615,-0.2688856966847791,-0.6561015547640607,1.6114169679290111,-2.0021874606100387,-0.3578498550645705,-1.0645219099529977,-0.10551815398996345,-1.7708357243873756,-2.1111804601737925,-2.181700335685223,-0.3838606631225642,-0.8039906735994583,-1.2905046693430924,-1.3060982694204135,-0.022272397809134283,0.3122984846948952,-0.8264008724177166,-0.19461978474074973,0.839945724403372,-0.7800170550532721,-0.3715588711086524,0.9613688313019574,-0.038758509211828,-0.14395950436836047,-0.8969689569706872,-0.010494502429803114,0.4556991649755744,-0.3595256357429598,0.7907300814945731,1.6285228855913116,0.4011780101140655,1.1466211642234685,0.7865716282128468,-1.5870425998513944,0.7483141617193875,-0.5148894596238169,-0.8152628231801132,-0.26301703123543546,0.5717265280231275,-0.6601421875252416,-0.2173426614098979,1.5733033512223495,0.7926770841173187,-1.0967894548352257,-0.036318500830854514,-0.010559976715996164,-0.8905996128016531,-1.3503193626528296,0.11790194587477532,-0.10782468671681703,-0.0633079311682874,-1.098059564735361,-0.2899245373434737,0.3784117130605622,-0.483323781047849,0.06242567528006777,-2.9485330466121304,-0.5533459619416828,0.5280340240428826,1.4015091891983928,-1.1149520752719875,-0.446805632384173,-0.07623746872239343,1.119260067409394,-0.3590033705290035,-0.10502694282572764,-1.0752739244282783,-1.210896425663267,0.9327862625782523,1.9520768666514947,1.2389295497619042,-0.2403255325438468,0.28738871841219854,1.6980720287505842,-1.2585005908943436,-0.7560211066732201,-0.5548912090731439,-1.079244069773066,1.1826163237779115,1.2310459986832352,-1.108041355053821,-0.32058898055163165,1.9218605536995614,-1.613624299510481,-0.36769910251362997,-0.0715577991442177,-1.1031548800152473,-0.3746876122332475,-2.669920686874638,-0.04160774194763365,-0.18621201846166854,-0.14787925620345718,-1.002439113389503,1.3439046388125526,-0.911561130454022,0.9750202173396212,0.9500147682840369,-1.6107283480173766,-0.5216519210888008,0.42239062307219905,0.8569826234826118,-2.254816268731062,0.4240006212535931,-0.37548310308474286,-0.8904713915892559,-2.209518669683783,-2.045940826827524,-0.020382291777516326,0.5370230024589112,-0.0996608862345273,0.32533111867040876,2.1456571820522012,1.1777225309747643,0.411313709588046,-1.1627528779297207,-1.2055264573223246,-1.2757470640672177,-0.6650155180668968,-0.058267455998525036,0.635815702338315,0.6299803650761053,-1.539093608859799,0.2350480138282303,-0.4222764254472403,-0.09855414290663352,-1.551879237474502,-0.9493855657525815,0.8241130082785356,-0.8902603116249184,-1.3660857649210418,-1.1435929054942153,1.844051681198886,1.33123019073119,0.6630241558577683,0.8187420280554609,-1.3133587101540067,-0.23238677689807133,-0.9809862476832593,1.9956075775508524,-0.673613370270487,0.613007883352471,0.547159387644664,-1.6852589589383016,-1.1567627362199566,0.0021880788037719587,-0.7591566469301951,0.30099202365724237,-0.991427237250997,-0.7687660476052,0.4288878808147757,0.004162139447256519,1.5995278619498705,-1.4730366777802135,1.3972744410816558,0.2200152476101746,-0.5229268349803086,-0.28629625229364697,1.2604935127861052,-0.833396508498829,-2.5593372999812782,-0.010120747379812226,1.3328187189454075,-0.018745268688855277,0.552852997698512,-0.754285213365964,-1.1032037861838258,1.6153398435906623,-1.2395016523293305,0.02949305504356119,0.6192990740200328,-0.5220917774842175,1.0761410097267166,1.0318861222685627,0.7955340791922448,-0.1883605011590375,0.4300925648842478,-0.22605603651962097,-0.22009314193055154,-1.601692931919968,0.4597110359416346,0.6483036340331018,-0.02174193492619473,0.959201116069006,1.0840220269721266,-0.3050793538890455,1.2068322565296576,0.7854026277021956,0.10627765475467453,0.26402465814161985,0.37239818796130447,-0.18414453391368102,0.40430901481838055,0.9638077232151437,0.3171377295661449,-0.1933004412464046,0.2060818121258417,0.6255488712558646,-1.2234977406805612,1.2733070941116291,0.4049400016428521,-2.102327300261266,-0.6796151751426343,-1.5919553004516078,-0.06282444689869296,-0.7371965502392438,-1.0766373992890932,-0.11557314266772914,0.6235580127801785,0.1971962899367251,-0.8232396316786077,0.11739348744153505,-0.03189986840377667,-2.209916662151075,-1.8139137227229118,-0.1344137938879335,-0.3785585097727653,-0.9177724075838158,-1.6023855766912396,0.4495148507193382,-0.803399519836341,-0.7427615359851721,-0.3466763171340564,-0.42188132356377095,-0.863532297057303,1.1186320656088609,0.6180887877805221,0.36130131809068133,-1.0558671745549808,0.23398375116586528,1.0233955433801565,0.6834628549995146,0.4906725019263907,1.6903762881254731,0.6815712833178911,-0.2091484630537594,-1.5165352513784929,1.1689867255421063,2.553561812439744,-1.2277074720279342,0.9341348961316609,0.7491117684859941,0.33401921050817107,1.0845200055481692,-1.8529227909443415,-0.06887480023017753,1.2804672700943591,-0.7706302948412305,0.7756693969571473,-0.10553931801994844,0.10760510388125484,0.09664194223546023,-0.9220979130282838,0.6862588195050624,-2.197288313971871,0.8887757729678961,2.1785121852465634,-0.656839728623578,0.24502652748234743,-0.6174825834153691,0.5270377440203426,-1.487021637038686,1.7545304272533573,-0.9868768749769681,-0.010609907700716681,-0.7408219047052269,-0.7776376908877896,-0.3156366501973065,-1.3428092437596457,1.333599541767551,-0.5751995038058817,0.971278516931891,0.8711096756892747,1.9112748859545572,-0.43921968983496984,-0.3707050556248814,0.20433096421854127,2.4541535562540306,2.209641180376729,0.9673915866037363,-1.1750128806584414,-1.2024315033172917,0.16703830161147287,-0.8485117679257173,0.9745905252997474,1.8290701682303134,0.3643643691363977,-0.0026040377062496664,-0.01846364573782056,-2.5048030434881534
0.6167398395393263,0.15024089881189004,-0.5964555564953911,0.30228282658269817,-2.141299274167727,1.3772869392973963,-1.003713045522639,-0.09909493827585382,-0.8537348100996756,0.0933700456216094,-1.00171319014325,0.4967757941707707,-0.478720695785692,0.020750365768131496,-2.1577704511115625,0.3338600839531578,0.23691637645426014,1.1904901510261374,1.2752376390784859,-1.168017734416887,-0.9043295052178421,-0.7972152675336848,-1.496253076216648,-0.42574476905712566,-0.7431265440290025,-0.9170121446464404,0.5701131119166541,2.0453172754665196,0.08380159772321433,-0.4380360527696398,0.5485192385155336,1.250610734529436,-0.039637328020240406,-0.9723663957547222,0.26445287334633444,0.7880526064501769,-0.5757179668269429,0.42513001347496526,0.3767530458382685,0.22268186157736553,0.053154069820288634,-0.4907334178040281,-2.0970711805305213,0.20465525807217383,-0.5541913997004109,0.23075750182131377,-0.13964840918591126,-0.6811577437894598,-0.3239311747433996,-1.5666894001403553,-1.917779670923184,-0.9885339723042875,0.681387986689302,-2.5302894986898132,-0.555782081423398,1.2340229090614732,2.2965461869859864,0.8755774519168505,1.0539482514377512,-0.8518748643590891,0.3329638303474638,0.39562210070868536,0.8181263238236882,-1.6704230957243613,-1.0947842416757314,0.1669515811958638,-1.4871302817504246,0.9874356393564319,0.7911765128061141,1.6993483477350737,-1.3014793335041914,0.6350280399805572,-0.8366377469417227,0.5274076848399656,-0.42920457129877654,0.5525021595032817,-0.6479468528271666,0.8331497991977476,-0.06200603787437627,-0.3614648021355184,0.23154061345061375,-0.242299986111697,2.3683703418525917,0.21380717580456896,1.0429493165255963,-0.06357038959993835,-0.2956650802430477,-0.1214004666276802,-0.5745933533290241,1.0121020913012793,1.5756964043713901,-1.3848458105731352,0.6381237160143226,-0.09433657057863697,1.8726282297728858,1.6548460570486874,-0.13231254404271398,0.09066211777213552,-0.17066411867210463,0.9197825680088934,-0.6267898883562346,0.1638168994125488,-0.8410211849070273,-1.04748469279218,-0.5175363573392289,1.744362673547082,0.3925786983972078,0.5185638309922075,0.1375599064539154,0.07705558294691449,-1.6055899644573224,0.93818098297951,0.9551449412402523,-1.604369345705461,-1.5535129171108595,-1.1086211243962087,-1.5117689818910218,-1.5223069115139787,0.34828369998396025,-0.15246261372934103,-1.08293445102849,-0.0917830636805181,-0.6430550908521804,-0.050467263543003654,-0.4220788835233493,-2.5161476943269183,-0.020645184977961133,-1.8540896179355506,-0.2903121309930976,0.3332766577445972,0.3192434958048694,-2.021884045200396,0.12398236892118636,0.6424917362706305,0.37422146050459676,0.5535925890130399,-0.2212968993590577,0.7009403592314535,-0.09884753910671233,-1.2394311054596576,0.2500259295015055,-0.33682517205772017,0.275660199256791,0.9710955935456181,1.8562038236450116,-0.33912499725076267,1.4619344853538203,-1.252091293752448,0.2449897473777154,0.9063655623536311,0.9598964863819213,-0.7457403993296583,0.31203805399094237,0.17811638878318578,-0.29377622689328947,-0.6675615298613525,-0.039417407108832396,-0.9909352023125271,-1.867126098059902,-0.6730638221631208,1.4290551497056645,0.34579372712596546,0.08183768219137078,0.5461834752602253,0.32898618134780744,0.1396294303557217,-0.15646978669490327,1.067020879296708,-0.6804192330577682,0.2892562952365564,1.1183619464069672,0.28637838919546343,-0.8685073902963428,0.5132086330976208,-0.7497236945649497,-0.4515170994368319,-0.3705068659469186,-1.1311364107490947,1.6699010434534889,-1.2350203210089457,-0.6790385287904002,0.2495087459308684,-1.2761933779208772,-0.152148080645173,0.6794034283965684,-1.1909907190726021,-0.4033246953574942,0.9272233673571335,1.436675800541306,-0.20290328632449667,0.5309565059396796,-0.10431127489926824,1.0478046411359923,-0.0279137962671289,-0.6209447217718003,-0.5218629838535128,-0.007597031056887254,1.1160648559983997,0.9168237683624664,0.2523955786987633,-0.07472027226068075,-0.598728902600686,1.1202975131381387,0.45246235473580065,0.7002014398135947,0.3462042938401754,0.06035196757058582,-0.4628916852121442,-0.4271505059250784,1.481984956408414,1.3714539518095288,0.8286725183634885,-1.0272210737689953,0.509767005928839,1.8208798559245825,-1.3206621699783787,0.25457178880086245,-0.01872623054641801,-0.7728068696580465,1.76341121679533,-0.6083852248927852,-1.8623886618665413,0.6093078818691664,-1.1466998103911135,0.30292139479038277,0.5983125617856735,-0.18465744440930235,-0.445880503492175,-1.1154498714881684,-0.43403922091312774,0.19707705360047237,-0.2932511026460834,1.3960199975472551,0.7678903792454003,1.3245077550283362,0.14154591025041285,-0.3099915318911654,-0.7051921144210066,1.3473548350526063,1.7989611391050702,-0.43809085740526493,0.5911838606861244,1.7528395756303439,-1.1617652425303011,0.7548914922844484,-0.927136813164051,1.137915699898277,-0.8083542190463024,0.7068826155435246,0.7163810253459383,0.7586417438001338,1.2921515144995224,-0.5525318772514964,0.43768699791901444,0.39812165592356596,-1.135386659180839,1.7303267566387484,-0.14871943976611587,-0.43368874302976396,2.1483905176053018,0.11442557371936474,0.2291839368824401,0.006780189414328877,-2.2480820457645785,-0.06780618172729727,0.9007694547369929,0.7244354699448966,0.3386216112730572,-1.1113800016779976,-0.0020639157037586646,-0.31117323836962574,-1.3232276660864082,-0.4137752153162275,0.19090209412930678,-2.0254610475287333,-0.5541410815983726,-1.8561218075735362,-0.8906087326173132,-0.7786195156029616,0.10995773096409255,0.625395201424848,-0.25363445295894177,0.5866169096410776,-0.31879856904820447,1.1573735530553786,0.49472003209464804,-1.7821430955749715,-2.1418579243487836,-0.791268711751852,0.725780407252731,0.5412401788064012,-0.2471889096724722,-2.587576574590613,1.4812247338122877,0.6505356301277264,0.1720638557320347,-0.02907909159170784,-0.9274494544361733,-1.9496326227061405,-1.5682771576833796,1.219397705189154,0.5712370491464006,2.004595826157501,-1.048563351059242,-0.13507219631891812,-0.363417124208935,0.8713939084276641,0.24905627280882445,-1.7900772924897383,0.8444048355095608,-1.2815691541493557,0.23501925800708465,-2.339840570813315,-0.366072555275874,0.6618673817931804,-1.755755776975407,0.3014237910270424,0.9006564482341369,1.029222807385147,0.5414732276562372,-0.9905269474705548,-0.17347026457503886,-0.8912591900465389,1.6845031676585078,-0.2702831995110451,1.4506027604488212,-2.1335701946004697,0.36930816007202216,-1.0053237781565307,0.15869107368413862,0.6382214046284599,-1.0734451153867959,1.328508989496076,-0.166104458094115,-0.5228783053336449,0.009785701067751756,0.11246632708843354,-1.9554495525976607,0.8405764623296111,-0.19281609333316754,0.5636265964373652,1.654599856977094,0.14495197357934902,0.15940618156191175,-1.3750666483271308,0.8176432227491991,-0.07694539587486446,0.904898839121261,-1.1033521965346893,0.6497162455706834,-0.08132396630286558,0.5197932302288688,0.03977594309506165,0.6660161833741152,-2.3522754417046916,-0.12472377113304682,-1.0515126077682078,-0.4279672163358469,-0.15641209561215477,0.5015343503256361,0.08082360245833205,-1.715932392037615,-0.18786108542893948,-2.3320345493652845,-1.9367876032676368,1.1205741065852388,-0.17889883801864187,-0.1618034793333798,0.4837495228711936,-0.31978331605911686,-0.5630037577381655,-0.23158149427004465,0.2881877301152361,0.7749454479195966,0.037496525139733505,-0.7782739737423813,-0.4117703875679411,-1.5892065753420932,-1.7978111626796114,1.517524118028922,-0.8150097129910917,2.5028230739000845,0.8378026804277282,-0.6920917422334641,0.843089282919431,-0.5229481046876379,0.1158108723309604,-2.223035806402319,0.13063480156535648,-0.4670633304316608,1.7194058877798306,0.08851986814545292,1.0282662048599307,-1.2165550834811025,0.4857949120157963,0.28388583085336694,-2.1400761345184227,-0.9517605538896662,-0.02235983328357717,-1.1048489859175474,-0.47956782268681103,-0.3257204059348182,-0.3510755338526317,-0.4333779182388571,-1.3346516049025474,0.5037239522046547,-1.4623930217679897,-1.043607588058007,-0.015824869024294332,0.5233646672066135,-1.199472946378208,-2.05272984283182,-0.2131362439636534,1.8501268600526553,-0.5116280156817592,0.5472108665190404,0.012446898841630041,-1.0947293642763802,1.907422625088122,0.0898977968508843,0.36413389006638336,-0.7694497804855681,-1.733611896055437,1.0888331837157328,0.04852492154141432,-0.04976707117590156,-0.3730666760687159,1.1914296180921131,-0.00189694159125167,0.9356329859443342,0.7580406650407724,-0.4880825871650244,1.0105211541206016,0.9815758580973796,0.9375854765881619,-0.5144400352303133,-1.3851108361793063,0.5457397785086023,-0.2635716693137071,-1.5706450237175265,-1.1184623409013659,0.9243201930733767,0.39666340694699576,0.0936364361093518,-0.0735006804662857,-2.8151831249717976,-1.3283173727894817,1.3260300766468962,1.3939082722224465,0.7943181689352548,1.8480648609450647,-0.17674838581670818,0.13443006370111713,1.6824898316494987,0.41543780680703757,1.415739301946982,0.21796257015749101,-1.7721081273930979,-0.38798567306615417,0.5787158455277974,0.8927137302595141,0.42383231243648023,-0.7316993471077802,-1.1382045871199098,-0.6366599535847604,-0.3749761403926958,-1.5762148016670896,-0.02162114688400524,-0.27682751734394456,0.059806227661907026,2.384553133751555,-0.3410720996568395,-2.2084128783984984,-2.259796391884017,-1.4808823049297823,-1.4299499497243267,0.4320515916493639,0.8074397700797546,-1.206299938537812,-3.3624907316302806,0.04331479704152894,0.4209286009056261,0.7511650930788772,-0.18787952622619233,0.45710061118952994,0.2456734914332507,0.6095492212447083,-0.9565168770046172,1.2440958460936904,-0.687983874818234,2.011196020897347,1.6092131583103715,-0.05585676933244243,0.5621441232981503,1.6288986358366826,-0.8081473839427872,-0.391968094425711,-1.3147906962762388,-0.43776566932372224,-0.8913895989566039,1.693519687545382,0.6934558226623644,1.320151482794146,-0.01659560689287133,-0.0032053478369189104,-0.5556559925247224,-0.27350172237375264,1.299014544356089,2.3391166520238063,-0.17472980892765783,0.30746418951699944,-0.19772130001243898,-0.11806166843297482,-0.10221771835693459,0.06899552598772374,-0.5567366007488916,-1.1095740857156866,0.410612789858308,0.5092398142292107,-0.7956333067650924,-0.33961362738225426,0.8375207337082914,-1.317151834806988,-1.4216433217312516,1.5080853598917459,-0.05390992743078377,0.5686130625285194,-1.1887160541402038,1.098554538484452,0.24723685464517145,1.6641354572681502,-0.4300315805524373,-0.5170694700488105,0.07498105321578544,0.39642974424927685,-0.7420843030355714,0.7431363532956937,0.7875353058702015,-0.06119340051870333,0.5237149384670338,-0.7282800646825944,2.073310630262064,0.7301031973270957,0.1178914485742717,0.5868663873581189,-1.3338393350528888,-1.885407577393207,0.6448066557561372,0.41571957228267525,0.4662282969113429,0.3232838429025577,0.25648929894679035,0.9872377051839825,0.6708338958073864,-0.9888938179704561,-0.3216864658405506,0.31569139171951927,0.5743385549597639,-1.2473175957307607,-0.2980644791121607,1.4506165967546178,-0.4319222004715605,-1.1523459667890072,-2.212673772133561,0.2371510211672239,0.11242722117494852,0.500000435481693,1.086483434550379,-0.2106840828423747,-1.4139699849616338,-1.9887705063326453,-0.5643946902356825,0.563599880698624,0.12220938088367105,-1.3075786155610085,0.1989030352282123,1.19619953887222,0.13832080334818986,2.267192554883103,-0.07325998151035405,-0.8617263389934302,0.5245514048817302,0.7461669331611949,-0.4621321447489037,1.0076991672947402,-1.1569256671797794,-0.9784187706303664,-0.3113302237936499,-0.23150316225848158,0.28628927764912704,-0.39877884532111546,-1.0162111569635734,-0.349365739506401,-0.06590489971818304,0.014990086902471172,0.27971756154752425,-0.24864827922770472,-1.9270712899341251,0.5304488453060228,-1.0073082028228215,0.5835637721613275,0.3862487577455086,-0.17371601761560526,0.704187831478114,-1.5505885360641884,-0.7367537502420671,-1.0737670630074643,-0.09404451031731902,0.5477284046465358,-0.2587949875646995,-0.4673291223529583,-0.20709190888628184,-1.5864420906133396,-1.618207002130637,1.0951694136779075,-0.6599312714900206,-0.2917060338105149,-2.247708511949553,1.243809636764117,-0.04231174222552189,0.5839699605764452,-0.9666132662488154,0.4019373510884191,1.3541680969124774,0.8134424012104201,0.2549691886376239,0.5756038562027612,0.22666780487435936,0.3239243634602475,0.24169363461006396,1.4553918119017486,-0.5745224645151651,0.5777334514614014,-0.43772302241284544,1.1865194409473916,-0.6883675930771715,-0.8323090356324203,-0.3748507659226354,-0.0626961993555442,-0.5430847698587355,-1.4738767527900623,0.8972515125733345,0.5469179017307659,-0.24718231059754325,-1.0751941866901973,-0.026852922524946383,1.9553710521856602,1.0428252620029512,0.42153278986610343,0.12687953239954203,0.01631026836996011,0.32641063166715717,0.7432017126604149,-0.3516612031554791,-0.41126048800683745,0.1781405028831327,-0.8261394030810888,-1.0612669882745334,-0.8933353532721777,0.350082675456286,-2.7327302558240536,-1.3930103035485106,-0.3163521858793345,1.2377677622164025,0.3873501061055081,-0.6997385123255677,-1.0505132820383163,0.12128521940948415,0.7567805352757876,0.13622681863828037,2.2858788116739177,-0.2498104980448049,0.25305736647332433,-0.32861480033881674,-1.2965276406780049,0.899365069532482,-1.0754565832623932,0.6747886626331926,1.372917450140706,-1.1088588304131268,0.8363827131655366,0.13034689904726907,-0.3771273412144776,0.3597687435738147,2.0806876327829094,0.29311782512417667,0.05304532393406547,0.554750128659678,-0.27360285922306105,-0.6442748634846281,-0.6724811951043811,-1.0646210227719297,1.4487499662089105,-0.35715001960195925,0.014477416795265497,-1.2564613593503497,0.2613443685473597,-0.6872846807531191,-1.2413624782173274,0.35414488472833033,-0.6384383476804318,-0.06813538419119367,0.5977274372631286,-0.14058381397000508,-0.4656209656914869,-0.4924309405147548,-0.8824289947081997,1.198629531575485,-0.682551136148869,-1.0644401498685323,0.6300709551687165,0.017755082163339667,1.8333484452593825,0.14847214310633317,-0.9040258941057328,0.16313321049508292,0.10338441555654855,0.0713190793906165,1.9574998779312636,0.6754195304294315,-0.1848330961000626,-0.5115371232696292,-0.8748441771898017,1.2254073716758715,1.1568509587148268,-0.96892688918289,0.18168434744433035,-0.1873583481595405,1.1666806910304208,0.4404925830651222,-3.4331010083498787,-0.8494827437672826,0.1003535866358762,0.9321789870145536,-0.4790890821849465,-0.30314299798305383,-0.0759174429752084,0.2363191621421732,2.2964932876093638,-0.05609413319343477,0.3548710965493612,-1.057744800137829,0.210612447902294,-1.3898278293238844,0.4945198861539868,-1.4089012824134928,-1.305792046182327,0.06931445996377858,1.6227240503551277,-1.4105670441306402,0.7585391360772603,-0.09033321706699458,0.2757685612144094,0.3724226482121546,2.0107470423561025,1.4703823489786527,-2.302770749364084,-1.2221097610411438,-1.1473073527325035,-0.9594300176991845,1.299736610736639,-2.1097566456900254,0.7977799896454321,-0.5635638868652046,0.5266129236952015,0.05731049859219064,0.86045407118028,0.43760865173558194,-0.42116868614156605,-0.597772453691471,-0.05840773072348021,1.7783713645587869,-0.16609053952860683,-1.2439614761889428,0.6236559279879645,-0.9398002387848953,-1.3504739952396458,-0.2365631688150658,1.4121698709409007,-0.7634955743945442,-0.6828632168057006,-0.9241172114115243,0.567603112971262,1.304632956149834
-0.41186176847486533,0.4392366887774998,0.0550555723130609,0.3806158760117,-0.8690404552715708,0.5827173460186279,-1.614981543935341,-0.9650747517713332,-0.06765089817159299,0.3032675372856552,0.23818599879798696,-2.362429403871034,-0.8736251263495115,-0.5173363076255927,-0.9024876748668222,1.5640703162333285,-1.0004234469204378,0.1624069730231134,0.14238911107341073,0.03886349743462226,0.7167710847354806,0.19850299050377515,0.3940289427133645,0.3880260351938673,0.07283518214733557,-0.780750839029208,-0.36083672392107713,0.5816321719010943,1.3507778769036995,-0.30453311125501464,-0.23952199891755135,0.973696600275762,-1.9723098127146192,-1.371054550706887,-0.3423823158663382,-1.1224863268986063,0.1401611422698045,-0.9559486666819017,2.577267678654369,0.5630538680607924,-0.3532702570207306,-0.7197583320766181,1.4685843791293223,-0.18133595083647397,0.6241361016317467,-0.4498743279396972,-0.5589004763523459,-0.3309386466723424,0.24944291542192762,-0.07432105520428692,0.8343223696493539,-0.792094268796956,0.8072212350250754,-0.35628110689031806,0.2588000001536272,1.830303773295302,0.6943056166944241,0.07232433908626984,0.39193623594345256,-0.8431853278133205,0.1034153995572499,0.9099442362964594,-0.3108508375797509,0.9337336489748773,-0.4736068722674552,0.6134694366187825,0.6421759427607642,-0.9672701616371544,-1.8889619262423865,-0.20861900522219273,0.40324142212983966,0.8214350304249521,0.9582927399253724,1.236224730882983,-1.2183056029775452,-0.37344176889480757,-0.829060251658308,1.4944457634699084,-0.7706548019157775,-0.797906409577384,-0.5761385628762119,-0.7345777015317585,0.9432238861082163,-0.6301270102484403,0.5873426344323903,-0.46076201213513374,0.7058005092853982,-0.3813959570635928,-1.5296249202368848,-0.2559928241785477,-0.9583111567662617,-0.8820476260325003,-1.487108671731765,-0.5017642462670086,1.0867343787075137,0.5793045716983419,0.6073180327040233,1.074228977880961,0.44102910347735613,0.7995388886495088,-0.397650163879122,-1.8254459038945847,-1.0156457169751671,0.1845932879645931,0.6778047416411789,-0.9117413153839773,0.5414183634329738,-1.815277266857065,-0.8386278521798394,-0.7118857157455052,-1.897852654926206,0.956549215051894,-0.6964386760751359,-0.11401499304606108,0.46757780698161777,-0.47997138577456333,-1.7647959595318312,-0.3051788991387248,-0.005912047221890329,-0.8125926098924003,-0.14130486955973318,0.3957207699016703,-1.168359391875041,-1.2124715214938946,-1.1106365417509347,0.9156780334313387,-0.2807782693445139,-0.5664345136326229,1.0407750715552733,-0.45921053829968594,-0.5540859263302358,-0.8002699938125012,-1.2169905781503996,0.7861900875074668,-0.7460889437147886,-0.7537358982359676,-0.7309321555453788,0.2898536026774427,1.0201364290895314,0.5416372461915746,1.8422215895725458,-2.5476314555559214,-0.3630151733807528,-1.2322585045180228,0.4938490935469212,-0.24581481978461592,-0.8037886598616395,-0.15282594261328125,1.3009844944042577,-0.4242861047202281,-0.44210754220522475,0.07489712266468715,-3.0150544216480615,0.5827629793513378,-0.8137286063553805,1.0346003359391873,0.11249920445330389,0.041189315826299915,-0.19626173405898664,-0.8515837342421361,1.1166710032820586,-0.9025646377015593,2.0875157631570804,-0.8588506911723038,0.04541871846243981,-0.13018740129895243,-0.1643247615218977,-0.503881180198217,-1.1531909894432524,-0.8583531440851697,0.6192613220482754,0.11152673005569798,0.8192227583779693,-0.16809524330398098,-1.553617002629953,2.2036813651491602,1.6260451082462213,-1.706624714366664,1.1712881421242427,-1.022225417634674,1.9597663526179485,-1.7388790833247558,0.9131054223689519,1.7609315338565044,0.014645972996230928,0.9092417101190602,0.9262736587780417,1.2564475928100507,-1.3004558692494501,-0.1371906763568421,-0.25151644603152346,0.18747124646707572,-0.17222276139797482,-0.6093377436590258,-1.3007587313443514,2.6871506671060854,1.5910343810071395,-1.1363015766740028,2.369407874826454,-2.2623566520419245,0.32460544229374794,-1.3600248982061598,0.4012493817755641,0.01575960280153464,1.1159842401008362,1.1449475014265262,1.408049623852802,2.1582255250578366,0.2898654503957406,-1.3640148358989141,0.510485393596013,-0.013526862985965768,-1.0553625679845267,-0.513163485850707,1.6020313532355577,0.09241151109959446,0.15033552927661492,-1.7133946916520095,0.9860617608150589,-1.5119022359667709,-0.8388911427615893,0.7643705175994074,-1.2925787236965345,-0.7923719051022748,-0.7524540596311684,-0.4408721704323978,0.47225046592110204,0.9276806654222265,0.2225946036289514,-0.9544498387652744,-0.4571249329651465,-0.38337394202655306,-0.1767407267267868,0.2418312276061173,-0.36777297461543945,0.3124597595015306,0.5400777690846331,-1.1501277825715581,1.190465614766083,1.5407933513234486,1.3289486500668573,1.3027120177164926,-0.38812749248757267,0.30538919423823346,0.05731189365653515,-0.11697194936570637,-1.488652063476554,-1.688370799527545,-0.44328404972165764,-0.0066968133300787285,-0.6778362101083701,0.4461784529568661,0.9282987720237736,-2.937927475716902,0.24584274677313028,0.7962782772073852,1.8930333749212893,-0.4120120015418337,0.7333916185848088,-0.9413183982533923,0.696520765770598,0.5481556256813502,0.9525759059346571,0.5408843001972964,-1.1160932080829624,-0.17558423550198107,-1.9066971535934714,-1.5095315916343388,-0.4937540855486216,1.6475483207117023,-0.2560302645588546,0.7098917852053657,0.4032036368600135,-1.2315223205899488,0.12576941220842966,1.1725122150152756,-0.37283712310906103,-0.35174487033769286,1.1960967281206931,-1.3490283442666413,1.3116780381711446,-1.5384981001105082,-0.5445477301975297,-2.3906187021023055,0.48720720746951823,-1.0501993220036763,1.1089800815063464,0.9518493796281982,-1.4323604896102815,-1.376738636680882,0.42933007578880955,-0.8617940805057438,1.1270462665376968,1.4332521937612979,0.9477784024155665,0.5133681235505578,-1.5375504577659704,1.0802587668042745,-1.53185176893208,0.28505769732766534,-0.9465336129613354,0.3913002596794984,-0.45075093788693876,-1.702942532782912,2.4621680869537212,-0.430173654532527,-1.2529166762059099,-1.5280871815966066,-0.6171605509112457,-0.0020662123821188635,1.0385851819644514,1.053016251734395,-1.0296619021849296,0.06497986176589281,-0.9264632582673584,-0.82063823382932,-0.028552864297017477,-0.31840477531997863,-0.10491510182190937,0.6124050151672661,-0.7721100936083886,-1.1541847455709633,-0.04298438713098116,1.133369075053637,0.03557491969504173,0.496976751519866,-0.8543481667764202,-1.233395225180702,0.07844261315199069,-0.27926820950186787,0.11857884550565828,0.21450374431577052,0.7980370635501771,-0.37266019683657475,0.5852817620506623,-1.448621901609133,0.601138057271838,-0.5054301950782094,0.24565328884493293,-0.486020764799619,-0.983752541195025,0.39787547652126737,0.9330493078458951,1.4496373633934831,-0.3108715814836204,2.5422585863549383,0.01757451391965076,1.253592215913673,-0.13652707458882513,0.521828598088624,-0.538005761028689,1.2058690391304892,0.8775738250229415,-0.5320028934561,0.9936332337413997,0.7961255819721845,0.39573898761035453,0.06853629460551215,-0.33612188223427797,0.05375418501513583,-0.524410912749797,0.6111488694508772,1.1089770155780032,0.41375928475742035,0.6774304397147424,1.383723541987876,0.6132036869799934,-0.4108336389460551,0.5507543567894237,-0.08028663880018547,-0.44246987507518415,-0.4148959435283322,-0.022850408707500797,0.3593882143244363,-1.2039523632261535,0.3330847265034517,0.5237664328684949,0.17453591586944786,-1.3361320915178627,-1.3556854663881184,-0.7234729964566982,0.03096314726822393,1.085747073792426,-0.05005480832073546,0.12439527423689764,0.7009128733128903,-0.288421219380577,-0.2713584345816369,0.02747756094193706,-0.4390256599391888,0.5889641604912382,-0.1780828392806352,-0.5314291958927497,-1.792742068301641,1.1195877617263377,0.5205291450408764,1.852629653356223,-0.8176494768152212,-0.2030740784062172,-1.4339283385692143,1.5461170579180297,-0.036910699471211596,0.10609487665664012,0.3880089868440862,-0.18041401053934672,0.1053724008563329,-0.1519179161986149,-0.03277308244037964,1.6176829785668596,0.8404172663084294,-0.46083795961521734,-0.19911536832794052,0.40624256629042255,-1.0842352331334106,-0.18790332960182435,-1.0483554978606051,-1.0791067593686319,0.1527304157881494,0.8451565251190442,2.186488120730291,-0.12984495100921903,0.24874933818779865,-0.07007878178928192,1.2184675680619572,-0.023024259625971013,0.9697215637343276,0.22694565463032546,-0.1778621328847873,0.0008340503624235045,0.6496790938351329,-0.13962928996051902,-0.34419672476940083,1.0154089081310294,0.15342193201383697,1.4562867609199144,0.29118541369670947,-1.738354657523512,-0.22388931279243013,-1.1182017887978744,1.3900727921679972,-2.01142356436535,0.9059817717796573,2.2113720263646326,0.31246147630242327,1.2975178506230058,0.36858376218834066,0.3673931301091661,1.9927556592118436,-0.8447823087937836,-1.0749185567882613,0.5070252587937554,0.650448234132683,0.3830328452851345,-0.4081247252798126,1.6602763727702112,-0.1932067867099732,-0.08313725221013439,0.05985635384606049,0.9888236558545539,-0.9411258604596194,-0.6881070900896006,0.7091411861704247,0.33608782029068257,1.02611945560523,0.5338056160750017,0.48603294821910437,1.136883105098145,1.4421462187729661,0.33003586466081586,1.1233512364974156,0.01608020191258361,-0.6640839926306092,1.1532867402040605,0.9907207639549379,0.5965460997873383,2.510347675302144,1.1032266298060824,-0.3314268612049845,-0.5518494441832638,-0.0703832014428781,0.6842957841863293,-0.047710052457085636,1.6673507571727093,0.38811920542025063,0.8226532989983264,0.697508749847889,0.5286094353543989,-1.4302547628565543,1.215031503962325,1.8044683056199053,0.26405483532147556,1.502281396263614,1.8569457222207357,-0.4002008886598259,0.7989970409559094,-0.15874966387205608,-0.8497376435275413,-0.3537391833823669,0.9261279592821136,-0.09551889534511342,-0.7652564199408509,1.1646165531646886,-1.6292486336944958,0.5736260744491687,-0.32699489115278435,-0.5150130560966539,1.6656606318757308,-0.21173486197045174,1.5338818845437454,-1.281088388505192,-0.6052930706275259,0.8101707673851613,1.1023859007814276,-0.6562511147252688,-0.13095871487464036,1.3796110028138557,-0.6526299345711474,0.753311789578575,-0.817005688223251,-1.2036630789551879,0.6366155707105327,0.4354435201708871,1.816702309247749,0.8062955607610875,-1.0877884974376784,0.07290208264176683,-0.15100461119235603,-1.2128765699696318,-1.345574811171822,0.9463226639806135,0.01322312169389649,0.6708152852815445,-0.7958667623887131,-0.21826792448515775,-0.6890775917822927,1.1993867477445597,-0.7733565692963678,-0.5387286744040969,0.5032343241842615,-0.9818726085773478,0.389458920612693,-0.05022123266258977,-0.30386753217215506,-1.2950121045947613,0.332910317085899,0.2764641119308788,0.7373395954179067,2.4757454301808557,1.0940103955483063,-1.0516478060840841,0.19960814318494363,1.188781740346685,-0.9180395873457116,2.3938363789946226,-0.01982449863367892,-0.018892403666566988,-0.40439967064385157,0.8332628298540906,-0.09718568576080931,-1.1092822752218503,0.2694739706490349,-1.452947753297057,-0.610426771915966,-0.8204462931176139,0.3139072404152978,0.09119023198283456,-0.20519984830851234,0.8097027164495059,-0.37336256542794743,-2.3151500990627176,0.4713231392735822,0.6991302183031571,-0.40976191438467,1.3731189174968579,0.9878511305503729,-0.6902184667167746,0.40328503637191804,-0.4613524120537745,0.12824729716067226,-0.08796019133763223,-0.6209864559767746,-1.3520056895946142,0.3989042165705177,0.5777151583986958,-0.41241110476392384,-0.32400502506013085,1.268065596038669,0.6965192305969771,0.15016495753961862,1.7451261566651906,-0.7031439369859209,1.270265137517099,-1.1479015945811666,0.4900401633169772,1.4538966990910287,1.0933129161709254,-0.8047767368488405,-0.07945437678453951,-0.5948773001659188,0.9262777957948444,1.3674669493276246,1.6176406944375106,0.15224663648812756,-0.7718357564430237,-0.4371685782936887,-1.6393162356858508,0.37780929245873485,-0.45970984787213454,0.5300795189972426,1.496465598512745,-1.1088463070605319,-0.07165763193460263,-0.5756906087850753,0.30077876186176933,0.4456108148773794,0.22875088574745242,0.4719395993289161,0.5447518784123841,1.1770022254595647,0.20572269155420952,-1.3632930027189698,0.9349116632904257,-1.1931674743823635,-1.0280789612913737,-0.46111669275189654,-1.2576946215312996,-1.0252364355814731,0.6311794027703148,-0.49835571830676917,0.23357270166463387,0.182754856126879,-1.0792721957147324,1.1702765894379294,-0.5311004771807953,1.0271737606404219,1.8036698264173339,2.6142763583472846,0.013323347127083858,-0.8425322718469812,-0.9802522812572098,-0.034507183588131964,1.5264283146855573,-0.1547072088293337,-0.38286798183045456,-1.2070026895629569,1.0974111503879658,0.5552717518529906,-1.4822960499199676,0.08201263069264005,-1.7177257614164851,-1.0163965224032565,2.605466333764265,0.8212457609680431,-1.714717302234165,-1.396658138278207,1.0981164373998085,-0.3314687883024322,-0.24511383578230636,1.1960217833569449,-1.191206769907845,-0.36664741962637987,-0.5683892560302759,-0.8123917131309446,0.13391235895737716,-0.7115829882328444,-1.4490737494711634,-0.8477894294286263,-0.20815302949606482,0.26118496890349546,-1.1375264068050368,-0.020339465376292668,-0.5950088472695744,0.3035412450561579,-1.2975372445976572,-0.3059546462724741,-0.7264581762234252,-0.20829210054735844,0.2477862669559983,-1.1868410836756196,0.3812859850433311,1.9251466303780402,2.325908767107302,1.2955658823466218,0.588547275037771,-1.5876236227692329,1.7030546289982633,-0.4054767115305457,0.6214890123137661,-1.5209363253825452,-1.5270537318231376,0.24276477353745754,1.3300929680493283,0.5793709817865471,-0.9703049042496338,0.4884917970907811,1.3073516986296356,-0.30696879373017216,1.0376018264035343,-0.3033135102567871,-1.8555204545413384,0.9363662701004066,-1.6685261582950774,-0.4848662777812735,-0.3002780632464741,-1.3792520494006864,0.43422427125939,0.5496843463204626,0.5919506289615805,0.7501525245879959,-0.6620033480119439,-0.10263191464915428,0.3155337504857031,-0.12298046477028828,-0.34018888850553014,0.7340096477891377,-0.3124211587240555,0.006596622945685558,0.8818146193023243,0.24444269361387944,-0.659381807284731,-0.8776282503702596,-0.8803882908011785,-2.311696559790697,-1.3927421637944026,2.4698260750972696,-0.1526650071018418,1.3730209798565998,0.8261772480633705,-1.113793907598994,0.7897086364580784,-1.142313617801725,-0.26834117806490165,-0.659581670214414,0.39204389542842716,1.1382282789063676,-0.013442793682833075,-0.6717492099497434,-0.9939348382332663,0.4515874905615626,0.15978401245793278,-0.1480257524751177,-0.5181949773073555,1.511686024696527,-1.0447951238299102,0.31284483093461607,0.6821916044382282,0.1904902453290257,0.08870139661215884,0.7968293448186234,0.1875978067062482,0.9056854906641053,-0.6183675116744857,-0.0017487094076595795,-0.6412059228124299,0.357388521861616,0.19827591654536625,-0.756278698974073,0.14069239604495315,-0.017724292506225016,0.6197586388491708,0.4112951891060796,-0.7307187154598872,1.7742461611005613,-2.1380458071169612,0.9448781913730958,1.373525638733716,-0.19739373138461894,0.4446599518478739,-1.7058284454479835,-0.31083294884395635,-1.3223978330174615,0.8974919915729543,0.8822717734830223,-0.12590420206712125,-0.6078818096409739,0.6640496746704018,-0.7569050793814801,0.8883050807898326,-1.1410316958465732,-0.7511122225425686,-0.22577810291333947,-1.0194087762823472,-2.5306919487536743,0.12335813795736676
